{"version":"0.5.4","metadata":{"date":{"year":2025,"month":10,"day":24,"hour":8,"minute":27,"second":48},"loudness":-15.848675727844238,"gain":0.84077775817206,"name":"Mesa Boogie IIC+ Deth Lead","modeled_by":"siamsiamguite","gear_type":"amp","gear_make":"tz-make","gear_model":"tz-model","tone_type":"overdrive","input_level_dbu":null,"output_level_dbu":null,"training":{"settings":{"ignore_checks":false},"data":{"latency":{"manual":null,"calibration":{"algorithm_version":1,"delays":[-41],"safety_factor":1,"recommended":-42,"warnings":{"matches_lookahead":false,"disagreement_too_high":false}}},"checks":{"version":3,"passed":true}},"validation_esr":0.013662352029932797}},"architecture":"WaveNet","config":{"layers":[{"input_size":1,"condition_size":1,"head_size":8,"channels":16,"kernel_size":3,"dilations":[1,2,4,8,16,32,64,128,256,512],"activation":"Tanh","gated":false,"head_bias":false},{"input_size":16,"condition_size":1,"head_size":1,"channels":8,"kernel_size":3,"dilations":[1,2,4,8,16,32,64,128,256,512],"activation":"Tanh","gated":false,"head_bias":true}],"head":null,"head_scale":0.02},"weights":[0.2562437355518341,0.6272256970405579,-0.9925406575202942,-0.9139539003372192,-0.5697852373123169,0.39869505167007446,-0.18244293332099915,0.9566161036491394,-0.256324827671051,0.424144983291626,-0.486193984746933,-0.34421682357788086,-1.1136229038238525,-0.8484755754470825,-0.602215051651001,0.2421121746301651,0.11719924956560135,0.10365267097949982,-0.2690090835094452,0.056456804275512695,0.11274618655443192,0.016033677384257317,-0.15525010228157043,0.039013344794511795,0.07471655309200287,-0.10867724567651749,0.06327682733535767,-0.0330907478928566,-0.2112816572189331,-0.10190557688474655,0.04896891117095947,0.23974230885505676,-0.032866932451725006,-0.17555738985538483,-0.19428838789463043,-0.19110125303268433,0.047104910016059875,0.2485620081424713,0.131454735994339,-0.030674269422888756,-0.09955257177352905,-0.1326490044593811,0.14738985896110535,-0.017680862918496132,-0.04223949462175369,-0.1847234070301056,-0.029313014820218086,0.019180191680788994,0.042201556265354156,-0.10918086022138596,0.05364544689655304,0.2627251148223877,-0.06806547194719315,-0.04898706078529358,0.196187824010849,-0.20910564064979553,-0.04152628034353256,-0.011370990425348282,-0.22158125042915344,-0.13991884887218475,0.16862782835960388,0.15468783676624298,-0.03851202130317688,-0.09026934206485748,0.08348067849874496,-0.20560991764068604,0.37786412239074707,0.002299882471561432,-0.11593590676784515,0.4716527760028839,-0.07944414764642715,0.15599530935287476,-0.27205461263656616,0.15149946510791779,0.3340173363685608,-0.20825649797916412,0.060441724956035614,0.08361862599849701,-0.3215388357639313,-0.12047722190618515,-0.34306448698043823,0.45962533354759216,0.13609319925308228,0.06340577453374863,-0.30484873056411743,-0.05604531243443489,-0.2323501706123352,0.2674902677536011,0.0851445198059082,0.12452124059200287,-0.28543558716773987,0.0410437248647213,-0.10574867576360703,0.390414834022522,-0.11245062202215195,0.11504700034856796,-0.2596718370914459,0.05765647068619728,0.088072769343853,-0.43119820952415466,0.1677490621805191,0.30533111095428467,-0.39668935537338257,-0.004202003590762615,0.07128656655550003,-0.33510375022888184,-0.07725001126527786,0.09802626818418503,-0.34023067355155945,-0.004416794516146183,-0.271920382976532,0.413947194814682,-0.13434982299804688,0.334919810295105,-0.07793842256069183,-0.13919281959533691,0.16173705458641052,-0.11842027306556702,0.03222545236349106,-0.17137600481510162,0.17799372971057892,0.021679313853383064,-0.2757061719894409,0.19228793680667877,-0.12224984914064407,-0.28882303833961487,0.09358805418014526,-0.09113239496946335,0.14866892993450165,-0.2532804608345032,0.004943611565977335,-0.16536845266819,0.0721358209848404,-0.01999371498823166,0.3085424602031708,-0.1384962648153305,0.03184022754430771,-0.21128664910793304,0.18445229530334473,0.072320356965065,0.33690500259399414,-0.04470999166369438,0.15340200066566467,-0.21343547105789185,0.003484682645648718,-0.03320451080799103,-0.08374573290348053,0.13941103219985962,-0.06029945984482765,-0.316482275724411,-0.01291540265083313,-0.10931246727705002,-0.2347489893436432,0.20329327881336212,0.09371301531791687,-0.3428232669830322,0.21842914819717407,-0.1523442566394806,0.16009639203548431,-0.22740954160690308,-0.03949935361742973,-0.20364844799041748,-0.24651849269866943,-0.19496192038059235,-0.23953522741794586,-0.18834960460662842,0.010160977020859718,0.2778888940811157,0.06386003643274307,0.06462889909744263,0.3504038155078888,0.13415448367595673,0.20106282830238342,0.273046612739563,0.05720540136098862,0.02554073929786682,-0.2327590435743332,-0.2464725375175476,0.15930107235908508,0.08685407787561417,0.1606157273054123,-0.10504573583602905,-0.11997688561677933,-0.15309563279151917,0.12677204608917236,0.26362353563308716,0.12947174906730652,-0.09761932492256165,-0.3363848328590393,-0.10315559059381485,0.18473297357559204,0.3182559013366699,0.08231620490550995,0.06081061810255051,0.09929926693439484,0.09967686235904694,-0.008271095342934132,0.27337172627449036,0.10815946012735367,0.07137222588062286,0.22953391075134277,0.28495582938194275,-0.03775108978152275,0.12156549096107483,0.1049094945192337,0.05632667988538742,-0.2514690160751343,-0.030259478837251663,0.7583385109901428,0.12403488159179688,-0.4863622784614563,0.6778030395507812,0.11436136811971664,-0.4003375768661499,-0.7153114676475525,-0.08407989889383316,0.25321003794670105,-0.7909834384918213,0.017525650560855865,0.25521957874298096,-0.7263457179069519,0.04191559553146362,0.4300227761268616,0.7149750590324402,-0.02419872395694256,-0.31034404039382935,-0.8058709502220154,-0.16400350630283356,0.3891294002532959,0.6950394511222839,0.10156257450580597,-0.25077196955680847,-0.7025008201599121,0.016301555559039116,0.4997020363807678,0.6253582239151001,0.1660045087337494,-0.48674505949020386,-0.7803637981414795,-0.06432735919952393,0.42860111594200134,-0.597540020942688,-0.1324354112148285,0.37805455923080444,-0.6405424475669861,-0.23942723870277405,0.4738242030143738,-0.8339465856552124,-0.09934355318546295,0.3479595482349396,-0.7942261099815369,-0.08470874279737473,0.4942972660064697,0.684028148651123,0.03134754300117493,-0.4710273742675781,-0.17487044632434845,0.16220799088478088,-0.0861092135310173,-0.10634634643793106,0.002002893714234233,0.11217063665390015,0.080047607421875,0.016629820689558983,0.01851515844464302,-0.04360548034310341,-0.13414213061332703,0.01108766719698906,0.12595389783382416,-0.0532204732298851,-0.09404592961072922,-0.0803297907114029,-0.04821857064962387,0.0511658675968647,-0.055071983486413956,-0.2188301682472229,0.14697223901748657,-0.09816540777683258,0.07698830217123032,0.07383527606725693,0.0226700771600008,-0.186954528093338,-0.11428485810756683,0.10480466485023499,0.11311652511358261,0.13805513083934784,-0.03995960205793381,-0.048949792981147766,-0.05444827675819397,0.021140461787581444,-0.15371465682983398,0.03376896679401398,0.04900708049535751,-0.09720698744058609,-0.06551019847393036,-0.0847117006778717,0.005442971829324961,-0.1382754147052765,0.06656056642532349,-0.14048171043395996,-0.09715165197849274,-0.002867925213649869,0.006353389471769333,0.022134359925985336,0.1290762573480606,0.06572608649730682,-0.12936872243881226,0.1470562219619751,0.18283969163894653,-0.17951713502407074,-0.20979692041873932,-0.15780514478683472,0.20582513511180878,-0.1431477665901184,-0.07952743023633957,0.25508084893226624,-0.16323179006576538,-0.1322832852602005,0.22278642654418945,0.09199008345603943,0.13945677876472473,-0.15073765814304352,-0.18352332711219788,-0.12182924896478653,0.28826338052749634,0.22044925391674042,0.21845489740371704,-0.13936960697174072,-0.009089453145861626,-0.20130655169487,0.06226005032658577,-0.03959021344780922,0.273936003446579,-0.07777899503707886,-0.18660402297973633,-0.0767858475446701,0.27419617772102356,0.07323364913463593,0.01919136755168438,0.2860316038131714,-0.12467839568853378,-0.18534471094608307,0.2760760188102722,-0.009873872622847557,-0.22240087389945984,0.288496196269989,-0.018007030710577965,-0.05490751191973686,0.07105033844709396,0.10825925320386887,0.07251056283712387,-0.07804781943559647,-0.01885858178138733,0.18417032063007355,0.020042646676301956,0.09897393733263016,0.08590012788772583,0.11805687099695206,-0.14428015053272247,-0.10887894034385681,-0.1471225917339325,-0.18481764197349548,-0.2581547796726227,0.06450771540403366,0.038847099989652634,-0.004531688056886196,0.07158016413450241,-0.09485695511102676,0.03601038083434105,0.013997403904795647,-0.113160140812397,-0.03077119030058384,-0.1164126843214035,-0.027782730758190155,0.0019266840536147356,-0.0328386165201664,0.09046479314565659,-0.016188310459256172,0.08235180377960205,0.1476554423570633,0.26558318734169006,0.0016931354766711593,0.024904722347855568,-0.009507096372544765,0.008125895634293556,0.1216609999537468,-0.04642978310585022,0.051513925194740295,-0.09418005496263504,-0.07329303026199341,-0.03408367186784744,-0.07699763774871826,-0.22337166965007782,-0.12939369678497314,-0.15072903037071228,-0.04227402061223984,0.058263007551431656,0.00042530702194198966,0.03863762319087982,0.11514359712600708,-0.01772727444767952,0.23881809413433075,-0.19454702734947205,0.05894620716571808,0.3132100999355316,-0.17287477850914001,0.20715664327144623,-0.1510293334722519,0.0037865580525249243,0.15155541896820068,-0.3420535922050476,0.03730572387576103,0.19686084985733032,-0.2505657374858856,-0.036296091973781586,-0.12863607704639435,0.21083904802799225,-0.09978464245796204,0.11473110318183899,-0.09411387145519257,0.12019549310207367,-0.1590874046087265,0.2680228054523468,0.010532339103519917,0.16192755103111267,-0.3732946217060089,0.06738590449094772,-0.18541209399700165,0.1902279257774353,-0.020953219383955002,-0.026747848838567734,-0.20121580362319946,0.1909203827381134,0.09862694889307022,-0.3364545702934265,0.02993774227797985,0.100195974111557,-0.3712271451950073,0.12953820824623108,-0.06059755012392998,-0.39815792441368103,-0.0798545628786087,0.04511545971035957,-0.15954844653606415,-0.07212042808532715,0.018024630844593048,0.17557339370250702,-0.06024783104658127,0.4204772710800171,-0.32146209478378296,-0.09108445793390274,0.3768501281738281,-0.14458493888378143,-0.1882246434688568,-0.40268653631210327,0.4059317409992218,0.2700406014919281,-0.23858387768268585,0.17269276082515717,0.22410306334495544,-0.4562526345252991,0.22540098428726196,0.2934650182723999,0.20325535535812378,-0.22966213524341583,-0.18072083592414856,-0.33724120259284973,0.1291867196559906,0.1292351335287094,0.2627803683280945,-0.22506102919578552,-0.12211573868989944,-0.2551655173301697,0.24052481353282928,0.3077847361564636,0.17488320171833038,-0.4015469551086426,-0.19443459808826447,-0.39706143736839294,0.3477850556373596,0.1593601256608963,-0.3676844835281372,0.17373569309711456,0.33801931142807007,-0.3200066387653351,0.400111585855484,0.35439059138298035,-0.22902439534664154,0.2893146872520447,0.2189186066389084,-0.3449208438396454,0.30008089542388916,0.3326512575149536,0.26438942551612854,-0.11869989335536957,-0.2570571005344391,-0.34445711970329285,-0.04889536648988724,0.7072252631187439,-0.11036393791437149,-0.1058843657374382,0.6174700260162354,0.3119423985481262,0.059096354991197586,-0.39158275723457336,0.16451284289360046,0.017216652631759644,-0.46204352378845215,0.20188981294631958,0.024132637307047844,-0.5619561076164246,-0.15527474880218506,-0.019855016842484474,0.4631592631340027,0.2945936918258667,0.06008279696106911,-0.5970113277435303,-0.22888509929180145,0.11146441847085953,0.503868818283081,0.2985781133174896,-0.04104023426771164,-0.4768238961696625,-0.3521132469177246,-0.06391549855470657,0.44929856061935425,0.37728816270828247,-0.058112919330596924,-0.5173743367195129,0.18369194865226746,0.11647787690162659,-0.38315311074256897,0.1323704570531845,-0.14540047943592072,-0.6283291578292847,0.24096371233463287,-0.06312161684036255,-0.6131174564361572,0.1921439915895462,0.004118080250918865,-0.5928600430488586,-0.2218002825975418,-0.033003099262714386,0.4468865394592285,0.08665710687637329,-0.07873617112636566,-0.02000325173139572,0.013045604340732098,-0.2693338394165039,0.13580884039402008,-0.1362612098455429,0.08631817996501923,0.15091271698474884,-0.09210751950740814,0.2525181472301483,-0.0050021386705338955,-0.034338172525167465,0.1910591721534729,0.09313102811574936,0.01621984876692295,-0.35903215408325195,-0.08014632761478424,-0.07605406641960144,0.2912823259830475,-0.13448885083198547,0.13647283613681793,-0.25660479068756104,-0.033294111490249634,0.09823068231344223,0.29486629366874695,0.09843599796295166,0.09008799493312836,-0.26489490270614624,-0.09113745391368866,-0.014470434747636318,0.34333449602127075,-0.05051866173744202,-0.15877699851989746,0.25878944993019104,0.13530011475086212,-0.040262144058942795,0.10584475100040436,-0.12201907485723495,0.035640452057123184,0.21406492590904236,-0.0666121393442154,0.025296242907643318,0.2777794599533081,0.11703388392925262,0.14024226367473602,-0.2328028827905655,-0.08647233247756958,-0.2240062654018402,0.21654212474822998,0.19986331462860107,-0.1002637967467308,-0.10823913663625717,0.18404081463813782,0.3054811954498291,0.12050899863243103,-0.16770243644714355,0.11362868547439575,-0.11082172393798828,0.08795524388551712,0.1026657298207283,-0.07959850132465363,0.022455917671322823,-0.22455552220344543,-0.05132763087749481,0.046454574912786484,0.11466581374406815,-0.14684368669986725,0.02694222703576088,-0.23264391720294952,0.06271640211343765,0.17305484414100647,0.22179408371448517,-0.004247720818966627,0.046565454453229904,-0.1421598345041275,-0.04968734458088875,0.1949298232793808,0.19775605201721191,-0.15540717542171478,-0.09574423730373383,0.052093781530857086,0.09033878892660141,-0.0879398062825203,0.037749867886304855,-0.019420381635427475,0.04385868087410927,0.20512449741363525,0.03493494912981987,-0.035502467304468155,0.2187442034482956,-0.04977129399776459,-0.10982155799865723,-0.27703651785850525,-0.07421224564313889,0.14389526844024658,0.03121454454958439,-0.11432046443223953,0.04140634089708328,0.09480496495962143,-0.26097506284713745,0.059664249420166016,-0.1642601042985916,0.2910934388637543,-0.03155471011996269,-0.11639131605625153,0.25129687786102295,0.022698912769556046,0.035460371524095535,0.06978123635053635,-0.045442916452884674,0.02578163892030716,-0.1398865133523941,0.06335978955030441,-0.1789495199918747,0.19548377394676208,-0.007846354506909847,0.050011128187179565,-0.06663019955158234,-0.19439169764518738,-0.08559612929821014,0.29093247652053833,0.029456831514835358,0.201597660779953,-0.20950664579868317,0.046950407326221466,-0.226698100566864,0.14568836987018585,0.04712224006652832,-0.052495796233415604,0.21081480383872986,0.1736183613538742,-0.10164294391870499,0.16787837445735931,0.1821490079164505,-0.12067710608243942,0.29858124256134033,-0.015244284644722939,-0.10086357593536377,0.16104310750961304,0.14126402139663696,0.21164488792419434,-0.16688965260982513,-0.1572553962469101,0.22539111971855164,-0.034079283475875854,-0.050227176398038864,0.12060711532831192,0.06422661244869232,0.10423687100410461,-0.20261117815971375,-0.11293086409568787,0.12933364510536194,-0.32121580839157104,0.056643806397914886,0.05179055035114288,-0.277574360370636,0.07662329077720642,-0.09302760660648346,0.23648755252361298,-0.1226184144616127,-0.05698736011981964,-0.15361545979976654,0.16628287732601166,0.007705290336161852,0.3075864315032959,-0.041732437908649445,-0.09860853105783463,-0.3192715346813202,-0.09683052450418472,0.19997097551822662,0.17047953605651855,-0.02231375314295292,-0.0025482778437435627,-0.1113276407122612,0.14928847551345825,0.15436653792858124,-0.3039827346801758,0.025551602244377136,-0.03942127525806427,-0.2981570363044739,0.0561029389500618,0.1644279509782791,-0.32909056544303894,0.11031121015548706,-0.04353002831339836,-0.23899206519126892,0.1410205066204071,0.001766354776918888,0.19507965445518494,-0.1515844464302063,0.05022384226322174,-0.12086407840251923,-0.22857092320919037,0.1725846379995346,-0.2665382921695709,-0.2739292085170746,0.05652618408203125,0.285012811422348,0.12677833437919617,0.024044465273618698,0.2931647002696991,0.262250155210495,-0.12222858518362045,0.1499299257993698,0.1188240721821785,-0.16817636787891388,-0.16040107607841492,-0.051644064486026764,0.17863894999027252,0.15165108442306519,0.18554188311100006,-0.15411801636219025,-0.0609307736158371,-0.22662155330181122,-0.05427497997879982,0.1749039739370346,0.24474914371967316,-0.20652170479297638,-0.031981438398361206,-0.1090967133641243,-0.04281017929315567,0.13457365334033966,0.28958994150161743,-0.16582272946834564,0.10579289495944977,0.18909093737602234,-0.18662647902965546,0.24971957504749298,0.24249456822872162,0.044588349759578705,0.07709509879350662,0.3107030987739563,-0.13253970444202423,0.3106187582015991,0.02634235844016075,-0.17888377606868744,-0.053963370621204376,-0.13347096741199493,0.09767501056194305,-0.09908148646354675,-0.1164529100060463,0.022139117121696472,-0.2279098629951477,0.00510419113561511,0.06160152703523636,-0.0515676811337471,-0.021804247051477432,0.08926280587911606,0.13257114589214325,0.06496128439903259,-0.09976441413164139,-0.019114244729280472,-0.05342559888958931,-0.007770215161144733,0.05033913254737854,0.3525150716304779,-0.0981057733297348,0.68326735496521,-0.9021437168121338,-0.35672858357429504,0.9400466680526733,0.8440878391265869,-0.5225656032562256,0.12851549685001373,-0.1462949812412262,0.045654717832803726,-0.3614619970321655,0.3106391131877899,-0.7859650254249573,0.14326800405979156,0.46993812918663025,-0.10184314101934433,0.4796050488948822,-0.371643990278244,0.2799833118915558,0.7444866895675659,-0.24356164038181305,-0.029913874343037605,-0.2390400916337967,-0.3877319395542145,0.5182132124900818,-0.16715499758720398,0.20552679896354675,-0.1019912138581276,0.3607001006603241,0.4307621419429779,0.060503553599119186,0.025048336014151573,-0.06171022355556488,-0.3795338273048401,0.11178841441869736,-0.14825789630413055,-0.11269446462392807,-0.08903847634792328,0.1458689272403717,-0.14943236112594604,0.24165146052837372,-0.01918037049472332,0.1735558956861496,-0.1251804679632187,0.015939317643642426,0.1389968991279602,0.20088835060596466,0.08940745145082474,0.03802947327494621,0.04506320506334305,0.1658211052417755,-0.22173045575618744,-0.12990331649780273,0.1683281809091568,-0.06960728764533997,0.030976945534348488,-0.31678491830825806,0.24452677369117737,-0.2562350034713745,0.03857707977294922,0.22284036874771118,0.05322389304637909,-0.03755824640393257,0.13939473032951355,-0.25122445821762085,-0.021027127280831337,-0.1447344720363617,0.2674785256385803,0.034203898161649704,0.0046959323808550835,-0.06522751599550247,-0.19336481392383575,0.4630894660949707,-0.7466695308685303,0.02398831956088543,0.17728044092655182,0.29370754957199097,-0.16426458954811096,-0.07128835469484329,-0.34247511625289917,-0.13911694288253784,-0.33761224150657654,0.28316164016723633,-0.028613658621907234,0.031669631600379944,-0.09791900962591171,-0.21984118223190308,0.027004163712263107,0.31993597745895386,-0.15042036771774292,0.291812002658844,0.1847347468137741,0.25574636459350586,-0.39742332696914673,0.2731895446777344,-0.13568121194839478,-0.25245776772499084,0.22402162849903107,0.04964454844594002,0.4563685357570648,0.26450464129447937,0.39706072211265564,0.26477178931236267,0.28823307156562805,0.007929321378469467,-0.2522694766521454,-0.2011997401714325,-0.12292507290840149,-0.3122999370098114,0.2959596514701843,-0.20464520156383514,-0.1983414739370346,0.31894510984420776,0.13534577190876007,0.1999908685684204,-0.8981104493141174,-0.3139822781085968,-0.09161090105772018,-0.014681539498269558,0.22280153632164001,-0.8113466501235962,0.2575647830963135,0.24427856504917145,0.37191471457481384,-0.2741824686527252,-0.31064239144325256,0.10188257694244385,0.30377495288848877,0.24662014842033386,0.33361560106277466,-0.3497293293476105,-0.2583995461463928,0.2857649326324463,0.30185574293136597,0.23363912105560303,0.1891457438468933,-0.44048574566841125,0.6451234817504883,-0.3263400197029114,-0.011107254773378372,-0.28859180212020874,0.01793302409350872,-0.06020196154713631,-0.05981140956282616,-0.006998897530138493,-0.46323010325431824,-0.30844783782958984,-0.039370644837617874,-0.15394295752048492,-0.2671303451061249,-0.14701944589614868,-0.4709566831588745,-0.07176029682159424,0.2433888167142868,0.24610267579555511,-0.09377684444189072,0.056826360523700714,0.08767864108085632,0.1909210979938507,-0.1778632551431656,0.12865576148033142,0.29961854219436646,-0.15994779765605927,-0.5511296987533569,-0.012548591010272503,0.25197193026542664,0.06411249190568924,0.2998506724834442,-0.013488936237990856,0.38109806180000305,0.04461970552802086,0.07910978049039841,0.06064719706773758,-0.21552437543869019,-0.0029223114252090454,0.08182353526353836,0.1872027963399887,-0.286148339509964,0.16288919746875763,-0.23534688353538513,-0.269608736038208,-0.006699213292449713,-0.07307260483503342,0.0428437702357769,-0.11868792772293091,-0.1496381014585495,0.0035555234644562006,-0.03893148899078369,0.18703283369541168,-0.08589090406894684,0.3157150149345398,-0.022194860503077507,-0.37880873680114746,0.2923051714897156,-0.0563870370388031,0.2817329168319702,-0.14525842666625977,0.16716043651103973,-0.03259085491299629,0.19143642485141754,-0.11027156561613083,-0.2801571488380432,-0.28166669607162476,0.011426114477217197,0.024982793256640434,-0.16158711910247803,-0.4410161077976227,-0.13663724064826965,-0.03355884179472923,0.033717066049575806,0.10783202946186066,0.0030714741442352533,-0.2215513288974762,-0.011728383600711823,0.03637479618191719,0.15095213055610657,-0.15691940486431122,-0.27654069662094116,0.17714737355709076,0.25404462218284607,-0.08055061101913452,-0.2867431640625,0.19776424765586853,-0.10465629398822784,-0.23939543962478638,-0.14982876181602478,0.13458144664764404,-0.355437308549881,0.033125702291727066,0.10303699970245361,0.04981549456715584,0.05913958325982094,-0.21877020597457886,-0.06257408857345581,0.07787148654460907,-0.11454367637634277,-0.0010053690057247877,-0.3824489116668701,0.28516605496406555,-0.23041963577270508,0.20992420613765717,-0.17896968126296997,-0.06158452108502388,-0.02068602293729782,-0.07172733545303345,0.026305625215172768,0.0346948616206646,-0.3951158821582794,0.2507506310939789,-0.25206705927848816,0.0010513941524550319,0.22087647020816803,0.4196006953716278,-0.32767006754875183,0.1176547259092331,0.26567038893699646,0.12348669022321701,0.27016717195510864,-0.11902114748954773,0.04721517488360405,0.26804590225219727,0.1389058381319046,0.14269012212753296,-0.12830570340156555,-0.04416811466217041,-0.038894250988960266,-0.2650258243083954,0.12382649630308151,0.11935490369796753,0.17021344602108002,-0.1084199845790863,0.0908941999077797,-0.0023023956455290318,0.08285550773143768,-0.09944501519203186,-0.03579571843147278,-0.027312282472848892,0.16239503026008606,-0.08576395362615585,-0.028851518407464027,-0.10157818347215652,0.05394746735692024,-0.038954392075538635,0.07745698094367981,0.056827083230018616,0.03173196688294411,-0.019396187737584114,0.2264821082353592,0.4799366295337677,-0.5142103433609009,-0.16775217652320862,-0.22048000991344452,0.22246217727661133,-0.2794208824634552,-0.06005524471402168,0.4075508713722229,-0.3306545317173004,0.5024604201316833,-0.002548858756199479,-0.3362707793712616,0.012386782094836235,0.3368881344795227,0.39342495799064636,0.06888182461261749,-0.27566561102867126,-0.3780282139778137,-0.4438718855381012,0.6301676630973816,0.3198862671852112,-0.24361155927181244,-0.36956992745399475,-0.23877494037151337,-0.2354518622159958,0.13567672669887543,-0.3052413761615753,-0.7468588948249817,0.3864556849002838,-0.3686940670013428,-0.12416373938322067,0.331766813993454,0.03825715184211731,0.43777045607566833,-0.2945956289768219,-0.4436139464378357,0.08280785381793976,0.27880027890205383,-0.3601841628551483,0.028482966125011444,0.3097170889377594,-0.2987721264362335,0.10848607122898102,0.3415617048740387,0.4175926446914673,-0.02811243012547493,-0.3842419385910034,-0.3372415602207184,0.3864996135234833,-0.05513383448123932,-0.06703904271125793,-0.061565957963466644,-0.03730897232890129,0.05945415049791336,-0.05399090796709061,0.2783253788948059,-0.5284041166305542,0.14362052083015442,-0.10775505006313324,-0.02058209665119648,-0.11035627126693726,0.10344190895557404,-0.3240397572517395,-0.06750448793172836,-0.004339149221777916,0.5383161902427673,-0.441836953163147,0.09956586360931396,0.31297945976257324,-0.0171197559684515,0.017580296844244003,0.26331108808517456,-0.06789016723632812,-0.0910051092505455,0.355439156293869,-0.04816588759422302,-0.027780456468462944,0.17724059522151947,0.012895160354673862,-0.014028243720531464,-0.7242205739021301,-0.08741705864667892,0.12599746882915497,-0.18592952191829681,-0.18040263652801514,-0.007637977600097656,0.17765964567661285,-0.04732618108391762,0.0822502002120018,0.05007903650403023,-0.039358336478471756,-0.010005371645092964,-0.13398303091526031,0.14289072155952454,-0.15361014008522034,0.5124029517173767,0.17367494106292725,-0.7494933605194092,0.18074777722358704,0.2054973691701889,-0.27244290709495544,0.044609759002923965,0.12443231046199799,0.060279808938503265,0.328780859708786,0.013318942859768867,-0.3718472719192505,0.24760936200618744,-0.007759599946439266,-0.12359561771154404,-0.10517875105142593,-0.027187949046492577,0.22006049752235413,0.017209161072969437,-0.11937958002090454,-0.025644706562161446,-0.2666938006877899,-0.15232782065868378,0.3269161581993103,-0.02174660749733448,-0.024269521236419678,-0.17629645764827728,-0.3966745138168335,-0.014299637638032436,0.08514615148305893,-0.020362943410873413,-0.04710190370678902,-0.026603570207953453,0.18328642845153809,-0.1656385064125061,0.13058793544769287,0.2533053457736969,0.07909058034420013,-0.13760906457901,0.055586621165275574,-0.0033744650427252054,-0.013167607598006725,-0.025573566555976868,0.10939469933509827,-0.1034223660826683,-0.20429284870624542,0.06157492473721504,0.2614055573940277,-0.16173389554023743,0.008754023350775242,0.17876194417476654,0.09504756331443787,0.052673980593681335,0.04064261540770531,0.1496846228837967,-0.3510092496871948,-0.2524389922618866,0.08186274766921997,0.06254369020462036,-0.10978011041879654,0.055963873863220215,-0.15047167241573334,-0.13081534206867218,-0.3293688893318176,0.1333978921175003,-0.04012227803468704,0.1791495978832245,-0.057926252484321594,-0.16006991267204285,-0.379742294549942,0.010954616591334343,0.05318716913461685,0.2268105447292328,-0.22421476244926453,0.040167830884456635,0.17399734258651733,-0.1850445568561554,-0.05466644838452339,0.3381418287754059,-0.1598723977804184,-0.0013257598038762808,-0.11458437889814377,0.0491257980465889,0.22907757759094238,0.2758144736289978,0.04616399109363556,-0.12301305681467056,0.20314782857894897,-0.2800880968570709,-0.16440650820732117,0.13251490890979767,-0.05643843859434128,0.05507601425051689,-0.12161839753389359,0.12870824337005615,0.1364186406135559,-0.12221337109804153,-0.009698658250272274,-0.1125512421131134,0.15247821807861328,-0.004595747217535973,0.032518502324819565,-0.10144311189651489,0.045130349695682526,0.030117573216557503,-0.08907691389322281,0.14064019918441772,0.1430605798959732,0.010139087215065956,-0.08888736367225647,-0.049782611429691315,-0.15424329042434692,0.1459115445613861,-0.10501882433891296,0.1409124881029129,-0.21111641824245453,0.06746052205562592,-0.03431865572929382,0.15793001651763916,0.05123800039291382,0.12141617387533188,0.016226481646299362,-0.19870126247406006,-0.1401130110025406,-0.24814867973327637,-0.01982731930911541,0.15888236463069916,-0.10848399996757507,0.059407830238342285,-0.18469394743442535,0.1748499721288681,0.17937597632408142,-0.1685715764760971,-0.21267904341220856,0.19480425119400024,0.06779330223798752,-0.03995529189705849,0.12957389652729034,0.008107622154057026,-0.20034697651863098,-0.08348286151885986,0.07292021811008453,0.08328764140605927,-0.0987878069281578,0.1291038542985916,0.29505655169487,-0.1179591715335846,-0.32269465923309326,0.41550761461257935,-0.039645593613386154,-0.2214929163455963,0.10354666411876678,-0.0023401002399623394,-0.06494215130805969,0.2945271134376526,0.06987743079662323,-0.20537398755550385,0.3909716010093689,0.014416545629501343,0.36861833930015564,-0.323678195476532,0.06067201867699623,-0.12463618814945221,-0.27457648515701294,0.07365015149116516,0.26013123989105225,-0.5147448778152466,0.18841947615146637,-0.21187181770801544,0.19018761813640594,-0.19367840886116028,0.01209193468093872,-0.24229764938354492,0.038469571620225906,-0.09228965640068054,0.37350666522979736,0.020586645230650902,0.32320770621299744,-0.3471366763114929,0.13828688859939575,-0.15325307846069336,0.2529488205909729,-0.017713163048028946,-0.25153499841690063,-0.07003231346607208,0.09152079373598099,-0.20989800989627838,0.4941219091415405,-0.21936391294002533,0.14630363881587982,-0.3157086968421936,0.0846332535147667,-0.10682574659585953,0.07793751358985901,0.12757126986980438,0.09699655324220657,0.1712072491645813,-0.16530528664588928,0.050475094467401505,-0.1444953978061676,-0.060636818408966064,0.2643131613731384,0.013602154329419136,-0.03221644461154938,-0.046298980712890625,0.12626078724861145,-0.03933113068342209,0.028204964473843575,0.07322995364665985,0.20627497136592865,0.15052568912506104,-0.17138391733169556,-0.14905917644500732,-0.16884489357471466,0.028796471655368805,0.006110964342951775,0.02649792842566967,-0.09888853132724762,-0.1875125914812088,0.04867954179644585,-0.017023395746946335,-0.11713787913322449,0.197946235537529,-0.02537021040916443,-0.01534073706716299,-0.08106990903615952,0.018803898245096207,0.059332530945539474,0.2035013735294342,0.09317430853843689,0.01804826594889164,0.06267063319683075,0.04163423180580139,-0.23870323598384857,0.02872519940137863,0.10943034291267395,-0.08795898407697678,-0.17180120944976807,-0.056531038135290146,-0.014064952731132507,0.009659758768975735,0.05800054967403412,-0.058703359216451645,0.05701809376478195,-0.06338897347450256,-0.007673720363527536,-0.12059352546930313,-0.027802959084510803,0.28672024607658386,-0.12115829437971115,-0.03303239122033119,-0.17374774813652039,0.04344991222023964,-0.09491139650344849,-0.1187058836221695,0.18414393067359924,-0.010285715572535992,-0.12521924078464508,-0.014432492665946484,-0.08637082576751709,0.29531240463256836,0.044349897652864456,-0.10612218827009201,0.01755724474787712,0.0606827512383461,-0.1510642021894455,0.21084178984165192,0.05700661242008209,0.06547009199857712,0.08870680630207062,0.03695385903120041,-0.19666646420955658,0.029085500165820122,-0.059271883219480515,0.03255876526236534,-0.1507423222064972,-0.0967029556632042,0.06324855238199234,-0.008077507838606834,-0.13392776250839233,-0.02299048751592636,-0.024537935853004456,0.05481848493218422,0.013568691909313202,0.13930493593215942,-0.06976651400327682,-0.04083579406142235,-0.01466903556138277,0.6388577818870544,-0.10014750808477402,0.0068599688820540905,-0.04065583273768425,-0.39052534103393555,-0.12548446655273438,0.12241774797439575,0.07928534597158432,0.3396435081958771,0.40589767694473267,-0.15151767432689667,-0.08013954758644104,0.22340893745422363,-0.09704156219959259,0.06681322306394577,-0.1548043042421341,0.25897499918937683,-0.05616636201739311,-0.06740093976259232,0.04789404198527336,0.000023232545572682284,-0.3616461753845215,0.04211632162332535,0.03249892592430115,-0.025377530604600906,-0.3773299753665924,0.2211766093969345,-0.30079859495162964,0.08107944577932358,-0.20391829311847687,0.14031773805618286,-0.20156365633010864,-0.0307875107973814,0.010357419028878212,0.24170991778373718,0.15167123079299927,0.08606336265802383,0.13616101443767548,0.07716647535562515,-0.03229006379842758,-0.09900126606225967,-0.0523102693259716,0.11880041658878326,-0.34765562415122986,-0.0032091198954731226,-0.08750651031732559,0.12713654339313507,-0.11362451314926147,0.19199806451797485,0.12894071638584137,-0.05404843017458916,0.12336806207895279,-0.08535705506801605,-0.04933734983205795,-0.04994521662592888,-0.17745758593082428,-0.005189645569771528,-0.10030094534158707,0.0979057028889656,-0.012518417090177536,0.2826176583766937,-0.1059756949543953,-0.052451372146606445,-0.3314439058303833,0.07773327082395554,0.129876509308815,0.12780509889125824,-0.25064972043037415,-0.06682801246643066,-0.33035367727279663,0.055014584213495255,0.11219355463981628,0.20376995205879211,-0.06150765344500542,-0.13814008235931396,-0.06953056901693344,-0.20130664110183716,0.013244450092315674,0.12553973495960236,-0.11691419035196304,0.01345493271946907,-0.2457790970802307,0.12205912172794342,0.20346923172473907,0.10400934517383575,-0.16963577270507812,-0.11355498433113098,0.0014338503824546933,-0.11407464742660522,0.019969569519162178,0.19782696664333344,-0.17891056835651398,0.04177198186516762,-0.28781455755233765,0.09580414742231369,-0.06553337723016739,0.12137195467948914,0.03178272396326065,-0.09751962870359421,-0.1897420883178711,-0.02543271705508232,-0.12874837219715118,0.050378382205963135,0.18825502693653107,0.16465164721012115,-0.27067145705223083,-0.1572355031967163,-0.12218751013278961,-0.04794491082429886,-0.0154275419190526,-0.17198437452316284,0.1783345341682434,0.1093512699007988,0.03673003986477852,-0.10908658802509308,0.16682952642440796,0.12613525986671448,0.05002246052026749,0.13153913617134094,0.10540720820426941,-0.001852004905231297,0.053593456745147705,0.26600003242492676,-0.1790766417980194,-0.14637543261051178,-0.12155082076787949,-0.006145365536212921,-0.0636187270283699,-0.0894847959280014,0.11582501232624054,0.03070095367729664,-0.2046544849872589,-0.06136004999279976,0.029460303485393524,0.03792430832982063,-0.006897487677633762,-0.0029855859465897083,0.012487092986702919,-0.02826077677309513,0.014532824978232384,0.03852936252951622,0.0762070044875145,-0.1563190370798111,-0.005735649261623621,-0.11976394802331924,-0.04583549126982689,-0.047046154737472534,-0.0009018068667501211,-0.076602503657341,-0.16831864416599274,-0.044750865548849106,0.15946044027805328,0.12219520658254623,0.10474150627851486,0.11018909513950348,0.11735181510448456,0.10234201699495316,0.04558280110359192,-0.051744431257247925,-0.11698956787586212,0.09654643386602402,0.01503336988389492,-0.05617869272828102,-0.1327965408563614,-0.06986495107412338,0.012135343626141548,0.05848434194922447,0.009116064757108688,0.19844979047775269,-0.13713830709457397,-0.16271302103996277,-0.11219517141580582,0.06745202094316483,-0.08714208006858826,0.024969253689050674,0.04999734088778496,-0.07010705024003983,-0.11945350468158722,0.09903858602046967,0.12777745723724365,0.0581795796751976,-0.01028851792216301,0.09009053558111191,0.19411589205265045,0.009371871128678322,-0.041436295956373215,0.2360314279794693,0.11548793315887451,-0.09490849077701569,-0.17919883131980896,0.034128595143556595,0.08959822356700897,0.2849278450012207,0.045923665165901184,0.09599678218364716,-0.13782358169555664,0.14056318998336792,0.19633786380290985,-0.264293909072876,0.1063513457775116,0.08657314628362656,-0.0062071094289422035,0.08796636760234833,0.20701706409454346,-0.16094860434532166,-0.015087409876286983,0.12932761013507843,0.37767618894577026,-0.11401578783988953,-0.05591762810945511,-0.5269646048545837,-0.0010702310828492045,0.23319460451602936,0.2552080452442169,-0.1078774631023407,-0.20692431926727295,-0.5281023979187012,0.015973757952451706,0.17543527483940125,-0.21005766093730927,0.08959846943616867,-0.10575064271688461,-0.28566548228263855,0.12892180681228638,0.24817432463169098,0.614327073097229,-0.04362170025706291,-0.03522506728768349,-0.3306141793727875,-0.06734510511159897,0.36877962946891785,-0.35713282227516174,0.02822648361325264,0.12344466894865036,-0.23361420631408691,-0.07857010513544083,0.22653226554393768,0.44702351093292236,0.09814577549695969,-0.17147716879844666,-0.5669682025909424,0.06686573475599289,0.1136159747838974,0.1324782520532608,0.14436949789524078,-0.014963112771511078,0.3296285569667816,-0.25385960936546326,-0.00014088183525018394,-0.26766008138656616,-0.05899282544851303,-0.051353953778743744,-0.00024230670533142984,-0.004154932219535112,0.06001473218202591,-0.31097620725631714,0.09057652950286865,-0.09249269962310791,0.24715881049633026,-0.036496471613645554,0.012342629954218864,0.05607550963759422,0.0504436194896698,0.059254832565784454,0.23570996522903442,-0.016092449426651,0.1643785536289215,0.30884212255477905,-0.2578035593032837,0.11582429707050323,0.1786404848098755,-0.04215032979846001,-0.11267077922821045,-0.20810599625110626,0.057629361748695374,-0.16486653685569763,0.029522286728024483,-0.13536567986011505,-0.1521262675523758,0.2903480529785156,0.006493187975138426,-0.14733447134494781,0.1365257054567337,-0.038526371121406555,-0.13977503776550293,-0.18830229341983795,-0.03776594251394272,0.14760661125183105,-0.08438444137573242,-0.3054237365722656,-0.006029029376804829,-0.1940867304801941,0.31067147850990295,-0.09384176880121231,0.02832207828760147,0.3396565318107605,-0.052906718105077744,0.03647197410464287,-0.09130669385194778,-0.06725814938545227,0.00611736299470067,0.23356181383132935,0.03560119867324829,0.2248934507369995,-0.47965389490127563,-0.11366920918226242,-0.13936586678028107,0.5521115064620972,0.07011297345161438,-0.018551211804151535,-0.16755692660808563,-0.06434077024459839,-0.03369316831231117,0.2586897611618042,0.4266623258590698,-0.2458585649728775,0.0732579156756401,0.07240105420351028,-0.031795404851436615,0.4089782238006592,0.1715306043624878,0.2690514922142029,-0.5504204034805298,-0.5192797780036926,0.04761117696762085,0.25892969965934753,-0.10740171372890472,-0.05326344445347786,0.37853702902793884,-0.01031145453453064,-0.10627050697803497,0.31591731309890747,-0.04293278604745865,0.1096988245844841,-0.4011100232601166,-0.08759608864784241,-0.05093374103307724,0.07621676474809647,-0.10267810523509979,-0.015447469428181648,0.07010875642299652,-0.10013124346733093,-0.017184391617774963,0.07756762951612473,0.16104668378829956,0.09334554523229599,0.01922951638698578,-0.11312352865934372,-0.058964427560567856,0.015458614565432072,-0.04816702753305435,-0.052530672401189804,-0.22654208540916443,0.020095638930797577,-0.056750547140836716,0.1310984492301941,-0.2677716016769409,0.01004912331700325,-0.17891226708889008,-0.0808766633272171,-0.11179867386817932,0.044990163296461105,0.15317212045192719,-0.1661151796579361,0.1476462334394455,0.1239732950925827,0.019307393580675125,0.17308595776557922,-0.15771526098251343,0.0006354658980853856,-0.08965438604354858,0.11073421686887741,-0.07452857494354248,-0.10809000581502914,-0.02681467868387699,-0.0010537703055888414,0.18193385004997253,-0.07867816835641861,0.08363712579011917,-0.001043658354319632,0.018500158563256264,-0.015416699461638927,0.05803899094462395,0.14465494453907013,0.10491011291742325,0.035063810646533966,0.0634254515171051,0.16757850348949432,0.022811083123087883,0.1056164875626564,0.21678945422172546,0.135139599442482,0.02210806868970394,0.03307250142097473,0.2882629632949829,0.12913276255130768,0.0015054503455758095,0.08331166952848434,0.09964367747306824,-0.08667391538619995,-0.940022885799408,0.009284861385822296,0.7240330576896667,-0.4141588807106018,0.027469642460346222,-0.7311605215072632,-0.17842654883861542,-0.3256695866584778,0.7525860667228699,-1.034479022026062,-0.3738020658493042,-0.9635447859764099,-0.28868716955184937,-0.5926470756530762,0.4398953914642334,-0.7506884336471558,-0.21704328060150146,0.18237482011318207,-0.0753590315580368,0.2205483764410019,0.37712737917900085,-0.3313943147659302,-0.33997416496276855,0.025476673617959023,-0.053754787892103195,0.002594312187284231,0.09630906581878662,0.06401986628770828,-0.010589414276182652,0.21155378222465515,-0.0869700089097023,-0.2397659868001938,0.28075113892555237,-0.0759066715836525,-0.36385440826416016,0.056304220110177994,-0.5725917220115662,0.20428466796875,0.027051053941249847,-0.1871810257434845,0.3596108853816986,-0.06244157627224922,-0.07165176421403885,0.2778836488723755,0.0887913778424263,0.17935815453529358,0.26629289984703064,0.3095502555370331,0.15645085275173187,-0.23700614273548126,-0.08126047998666763,0.3286430835723877,0.05432560294866562,0.11353977769613266,0.02417941577732563,0.028237970545887947,0.15215453505516052,0.07608043402433395,-0.22570066154003143,-0.1248692199587822,-0.10545103996992111,0.19631443917751312,0.25738251209259033,0.0206797793507576,0.11525841802358627,0.16712313890457153,-0.2503550946712494,-0.4982107877731323,-0.01293423492461443,-0.23363791406154633,-0.417358934879303,0.1354934424161911,-0.4521842896938324,-0.3296034634113312,0.2999296486377716,-0.15856777131557465,0.42544737458229065,-0.40351635217666626,-0.06371419131755829,-0.26835790276527405,0.29543551802635193,0.10215380042791367,-0.23816165328025818,-0.2194705456495285,0.35304975509643555,-0.48549824953079224,-0.17452211678028107,0.33909672498703003,0.1526833027601242,-0.05986858159303665,-0.012126091867685318,0.10151007026433945,0.17126336693763733,-0.16362737119197845,-0.1439012587070465,-0.38699787855148315,-0.2816344201564789,-0.27735114097595215,0.07125397026538849,-0.008716773241758347,-0.1290578991174698,-0.14152488112449646,-0.01864798553287983,0.014015593566000462,0.39060166478157043,0.330578476190567,-0.061466317623853683,-0.054921455681324005,-0.17749270796775818,-0.21304844319820404,0.13816040754318237,0.10850784927606583,0.16931141912937164,-0.1404726654291153,0.03647882863879204,-0.09378216415643692,-0.31693410873413086,0.5597745776176453,0.00020612572552636266,-0.32693204283714294,0.3536100685596466,-0.029281020164489746,-0.2671542167663574,0.34112077951431274,-0.035952284932136536,0.20660360157489777,-0.010627662762999535,0.544793963432312,-0.05420893058180809,-0.06483667343854904,0.12524938583374023,0.32730576395988464,-0.06862740963697433,0.11711692810058594,0.10683370381593704,-0.008460061624646187,0.1867409646511078,0.3718043565750122,-0.2640492022037506,0.27015259861946106,-0.292570024728775,0.1791236847639084,0.09566263854503632,0.28251492977142334,0.05924447625875473,-0.3074454069137573,0.04059749096632004,0.0325024239718914,-0.4711170494556427,-0.08119404315948486,0.21892938017845154,-0.2044944167137146,0.3001132607460022,0.0856143906712532,0.20848296582698822,0.13689163327217102,-0.11639532446861267,0.25167956948280334,-0.01766902022063732,0.47857293486595154,-0.21068374812602997,0.06251348555088043,0.07498665153980255,0.023993434384465218,0.20205068588256836,-0.08858473598957062,0.1938709020614624,-0.19579625129699707,-0.012695269659161568,0.06651917845010757,0.0549870990216732,0.27477455139160156,0.10628727823495865,0.13758713006973267,0.03374168649315834,-0.06987293064594269,-0.029392939060926437,-0.37470921874046326,0.007314617745578289,0.2740049660205841,-0.05604216456413269,-0.0843227282166481,0.11689974367618561,-0.014141211286187172,0.2651578485965729,0.2885951101779938,-0.1685270071029663,0.22146393358707428,-0.07844385504722595,0.17132344841957092,0.011175591498613358,0.10189133882522583,0.11246092617511749,0.5376285910606384,-0.21821229159832,-0.2866050601005554,-0.15886664390563965,-0.07552801817655563,0.04045486077666283,0.29936471581459045,-0.4656830430030823,0.08853797614574432,0.4490163028240204,-0.13445040583610535,0.23798087239265442,-0.19736795127391815,0.08262624591588974,-0.20641127228736877,0.658366858959198,0.5052588582038879,-0.5663955807685852,-0.37096938490867615,0.2291409969329834,-0.03377991169691086,-0.3744490146636963,0.17748887836933136,-0.17862600088119507,-0.351634681224823,-0.07085981220006943,-0.48406264185905457,0.709175705909729,-0.3629627227783203,0.24155683815479279,-0.23264293372631073,0.26159361004829407,-0.27873414754867554,-0.2277262657880783,0.5176852941513062,-0.5894031524658203,0.2304844707250595,0.41010400652885437,-0.28251269459724426,0.4617358446121216,0.4180547297000885,-0.2548730969429016,0.2700798809528351,-0.12801219522953033,0.6223985552787781,0.19500043988227844,0.24237896502017975,0.020569849759340286,0.22143538296222687,-0.12440270185470581,0.17102034389972687,-0.04040663689374924,0.023224113509058952,0.3785490095615387,-0.17495600879192352,-0.25654053688049316,0.21479228138923645,-0.08601958304643631,0.12083964049816132,-0.23731139302253723,0.3109910786151886,0.18828687071800232,0.12634378671646118,-0.05090203508734703,-0.2809963524341583,0.2573816776275635,-0.04568161070346832,-0.24524521827697754,0.12046457827091217,-0.21404583752155304,0.26592281460762024,0.07118745148181915,-0.30601176619529724,0.3983229696750641,0.03316338732838631,-0.1891155242919922,-0.0155847929418087,-0.4026646614074707,-0.2335532009601593,-0.0991671085357666,-0.0015605543740093708,-0.06564859300851822,-0.06791194528341293,0.06732392311096191,0.05898834019899368,0.06245705112814903,-0.09285116195678711,0.035863589495420456,-0.019200799986720085,-0.014338657259941101,-0.18383924663066864,0.07358580827713013,-0.2243187427520752,-0.10183092206716537,-0.09600868076086044,-0.07631152123212814,-0.11059606820344925,-0.14832332730293274,0.14561226963996887,-0.03448351472616196,-0.1493678092956543,0.16975609958171844,0.04119056463241577,-0.081961989402771,0.04711625352501869,-0.025636138394474983,-0.04921871796250343,0.14753404259681702,-0.016312425956130028,-0.03963327780365944,0.1586637794971466,-0.01761508919298649,0.013258617371320724,-0.017172981053590775,0.004579778295010328,-0.018727973103523254,-0.07164075970649719,-0.18314284086227417,-0.10771473497152328,0.051887817680835724,0.25069260597229004,-0.043343979865312576,0.0879150852560997,-0.2596392333507538,-0.03608370199799538,0.08630592375993729,0.05273618549108505,-0.08567474037408829,-0.13340361416339874,-0.004443580284714699,0.12745074927806854,-0.0586107075214386,-0.06276240944862366,-0.014802761375904083,0.11957213282585144,0.04890763387084007,-0.10567910969257355,0.19990308582782745,-0.004044876433908939,-0.17302151024341583,-0.01757722720503807,-0.08250997215509415,0.08295097947120667,0.0309849102050066,-0.2530970871448517,0.18523894250392914,-0.17427796125411987,0.1573527306318283,-0.1759050190448761,0.08004573732614517,0.21643690764904022,0.09750178456306458,-0.13508053123950958,-0.14169499278068542,-0.04218761995434761,0.029406148940324783,-0.15543930232524872,-0.010013846680521965,-0.13286246359348297,-0.12741535902023315,-0.08227666467428207,0.07691260427236557,0.06394253671169281,0.07574362307786942,0.07731611281633377,-0.022074081003665924,-0.09810680896043777,-0.020639091730117798,-0.033093519508838654,-0.3324754238128662,0.2823601961135864,0.09177271276712418,-0.20972134172916412,0.1223968043923378,0.12888354063034058,-0.07109270989894867,-0.07671283185482025,-0.17396579682826996,-0.0738835260272026,-0.17610463500022888,0.08804558962583542,-0.0820448026061058,-0.05154064670205116,0.10036246478557587,-0.14005596935749054,-0.05268459767103195,0.17986780405044556,0.007395421154797077,0.16210651397705078,-0.04020930081605911,0.016769660636782646,0.03044288605451584,-0.15926042199134827,0.17011742293834686,0.34131497144699097,-0.012164341285824776,-0.2736280560493469,0.3355260491371155,-0.03290728107094765,-0.022503148764371872,-0.3169333040714264,0.016881633549928665,0.14771586656570435,-0.05589233338832855,-0.3978160321712494,0.1970413774251938,0.07394681125879288,0.10777109116315842,0.1973494291305542,0.19729100167751312,0.07461217790842056,-0.14536668360233307,0.25702565908432007,0.18965473771095276,-0.035246118903160095,0.2439495027065277,-0.09687026590108871,-0.09203378111124039,0.09428563714027405,-0.09559596329927444,-0.06523150205612183,0.07011305540800095,-0.06532631814479828,-0.1667466163635254,-0.2449508160352707,0.06881923228502274,0.16921421885490417,-0.006066045258194208,0.14297735691070557,0.15127398073673248,0.20103374123573303,-0.10426472127437592,-0.08078363537788391,0.3111703395843506,-0.2751180827617645,-0.14732736349105835,-0.3619212210178375,0.025341104716062546,0.2263992428779602,0.1589455008506775,-0.5497499108314514,0.03213222324848175,-0.2827851176261902,0.3475525975227356,0.2012467235326767,-0.15071141719818115,0.37199875712394714,-0.07111163437366486,0.33950895071029663,-0.08761651068925858,0.002529551973566413,0.44651222229003906,-0.2511956989765167,-0.23135517537593842,0.08231242001056671,-0.02162080444395542,0.17346268892288208,-0.12933963537216187,0.30057182908058167,-0.09707963466644287,-0.35774970054626465,0.22204819321632385,-0.024459926411509514,-0.10676603019237518,0.1974584460258484,0.19759118556976318,-0.06155795976519585,-0.1165233924984932,-0.475212424993515,-0.17913474142551422,0.1846071183681488,-0.07245539128780365,0.38686805963516235,-0.19962261617183685,-0.08382939547300339,0.46130529046058655,-0.2880024313926697,0.011273599229753017,-0.05664430558681488,0.16035372018814087,0.17364218831062317,-0.14732196927070618,-0.07157286256551743,0.12974956631660461,0.09388520568609238,-0.03467000275850296,0.043102290481328964,0.2712932825088501,-0.12506245076656342,-0.24008843302726746,-0.24448920786380768,0.14382891356945038,0.276248961687088,-0.17105019092559814,0.12567968666553497,0.17132426798343658,0.25316962599754333,0.24460554122924805,-0.2275668978691101,0.01614253595471382,0.3667319118976593,-0.15117231011390686,0.10112269967794418,-0.021766996011137962,-0.2380913943052292,-0.38296663761138916,-0.06383230537176132,0.34534141421318054,-0.23634928464889526,-0.3169167637825012,0.18576805293560028,-0.26703962683677673,-0.10592500865459442,0.2514335811138153,-0.13090106844902039,-0.03460153192281723,0.053175605833530426,-0.3235796093940735,-0.016540374606847763,0.25232768058776855,0.26108628511428833,0.07311175018548965,-0.36681613326072693,0.35288411378860474,0.43467599153518677,0.04091428592801094,-0.3016268014907837,-0.05504502356052399,0.32164597511291504,-0.25300413370132446,-0.06297645717859268,0.3347078561782837,0.287105917930603,-0.16483615338802338,-0.3426539897918701,-0.1376677006483078,-0.11768826097249985,-0.24851904809474945,0.20057082176208496,-0.07102502137422562,-0.08831667900085449,0.04749587923288345,-0.13316234946250916,-0.17039765417575836,-0.08350811153650284,-0.19362442195415497,0.2129162847995758,0.003254480427131057,-0.937762439250946,0.07605991512537003,-0.008746443316340446,-0.07573524117469788,0.2638770639896393,0.02534915693104267,0.07561226189136505,-0.003311112290248275,0.061107736080884933,0.07639876753091812,-0.012473140843212605,0.2740478813648224,-0.08034732937812805,-0.09949956089258194,0.05919954180717468,-0.14724454283714294,0.02231847308576107,0.15937617421150208,-0.07424893230199814,-0.10919874161481857,-0.11160598695278168,0.11190595477819443,0.20727252960205078,0.20199473202228546,-0.41454625129699707,0.12782351672649384,0.0998547151684761,-0.0426739826798439,-0.05786305293440819,0.07506963610649109,-0.16451428830623627,-0.23456695675849915,-0.00756927439942956,0.016267966479063034,0.0744784027338028,-0.20326581597328186,0.3290335237979889,-0.23444360494613647,0.211748406291008,-0.28828665614128113,-0.04581847041845322,0.22472959756851196,-0.1600501388311386,0.08325350284576416,-0.11693641543388367,0.14177589118480682,-0.02332947589457035,0.1412353366613388,0.41313794255256653,0.062206972390413284,-0.16874027252197266,0.2191362828016281,0.27823731303215027,0.13344869017601013,-0.17816582322120667,-0.03204486891627312,0.10515473783016205,-0.023701472207903862,-0.050291478633880615,-0.05463011935353279,-0.18460401892662048,0.1657315194606781,-0.008624384179711342,0.046459831297397614,0.38509443402290344,-0.003369950922206044,0.08512682467699051,0.04890834540128708,-0.1787869930267334,-0.01248157024383545,-0.06871110945940018,-0.08120474219322205,-0.3052082657814026,0.2712358236312866,0.10251948982477188,-0.20780760049819946,0.05435160547494888,-0.08357659727334976,-0.07126263529062271,0.14544978737831116,0.031712133437395096,0.03348677232861519,-0.12706774473190308,-0.07866162806749344,0.44112345576286316,-0.24600107967853546,0.190135657787323,-0.26590490341186523,0.15088629722595215,-0.03601193055510521,-0.051371101289987564,-0.028948025777935982,-0.08369520306587219,0.04692372307181358,0.0314461849629879,0.029935596510767937,0.29592347145080566,-0.21088646352291107,-0.04239652305841446,0.12983570992946625,-0.03469343110918999,0.05641225352883339,-0.1780577152967453,0.16982945799827576,-0.17129197716712952,-0.04998832568526268,0.0344838947057724,0.06434925645589828,-0.21582570672035217,-0.14494828879833221,-0.21994192898273468,0.13339866697788239,0.1502988338470459,0.17158617079257965,-0.14471204578876495,0.0036809027660638094,-0.05801340565085411,0.12824295461177826,-0.045825932174921036,0.0885113850235939,0.18247359991073608,0.3758094906806946,-0.06887888163328171,-0.25857239961624146,0.13309051096439362,-0.017980588600039482,-0.1723988652229309,-0.07101846486330032,-0.19046097993850708,0.03993748873472214,-0.07832332700490952,-0.22524826228618622,-0.09252641350030899,-0.08445607870817184,0.2103492170572281,-0.2295098602771759,-0.12089017033576965,0.1930931806564331,-0.0012902095913887024,-0.1885536164045334,-0.2411809265613556,0.06491532176733017,0.25932732224464417,-0.27203255891799927,-0.9009959101676941,0.009027918800711632,-0.03572577238082886,0.272573322057724,-0.10542041063308716,0.25993165373802185,-0.15111790597438812,-0.07034264504909515,0.4566406309604645,0.31701430678367615,0.02021249197423458,0.19348612427711487,-0.1839578002691269,-0.05721243470907211,0.15430612862110138,-0.04170963540673256,0.4104280471801758,0.2200324833393097,-0.08639566600322723,-0.2567415237426758,-0.17114967107772827,0.056842684745788574,0.07970834523439407,-0.5437574982643127,-0.8959400057792664,0.195400208234787,0.17783404886722565,-0.21434496343135834,-0.07160377502441406,0.3169819712638855,-0.04327036440372467,-0.19232186675071716,-0.046510618180036545,0.24521684646606445,0.14904159307479858,-0.09322132170200348,0.1761346012353897,-0.4900396764278412,-0.030110634863376617,0.18813666701316833,0.27058160305023193,-0.022744016721844673,0.019463272765278816,0.1934485137462616,-0.15544918179512024,0.002846786519512534,-0.1792168766260147,-0.6070931553840637,0.596077024936676,-0.09347380697727203,-0.11704303324222565,-0.09495310485363007,-0.22441992163658142,-0.2163497805595398,-0.04055565223097801,-0.02443796768784523,0.3348866403102875,-0.39231663942337036,-0.07412242889404297,-0.06876815855503082,-0.0643608495593071,0.2156183123588562,0.10625986009836197,-0.0335727222263813,-0.263902485370636,0.024387706071138382,0.1004345640540123,0.026001248508691788,-0.0586734265089035,0.180245041847229,-0.17641963064670563,-0.6681057214736938,0.3321360945701599,0.04415144398808479,-0.13788899779319763,-0.04583366960287094,0.12639474868774414,-0.08329358696937561,0.24928294122219086,-0.044367965310811996,0.22625130414962769,-0.11305766552686691,-0.1698962301015854,0.014482341706752777,0.0027563292533159256,0.09537601470947266,0.11597615480422974,0.006465987768024206,-0.0055059874430298805,0.16227498650550842,0.01488958764821291,0.006417835596948862,0.05313488841056824,0.1371617615222931,0.26296138763427734,0.3044797480106354,-0.1159222275018692,0.12688104808330536,-0.19201511144638062,0.06446506828069687,0.17853493988513947,0.18619920313358307,0.0832550898194313,-0.25142017006874084,-0.2081783264875412,-0.054401498287916183,-0.2555259168148041,0.11829182505607605,0.04847017303109169,-0.07023586332798004,0.12139584124088287,-0.19535458087921143,-0.2747704088687897,0.2574264109134674,-0.061624571681022644,-0.012653976678848267,-0.10289041697978973,-0.047445449978113174,0.20471473038196564,0.21285757422447205,0.1568564474582672,0.1305711567401886,0.28680673241615295,-0.2096344232559204,-0.17170201241970062,0.14441128075122833,0.000538197869900614,-0.26374518871307373,-0.15401169657707214,-0.044225484132766724,0.12242715060710907,0.1738964021205902,0.03442266583442688,-0.13099992275238037,0.0995166227221489,-0.17216908931732178,0.1772363930940628,-0.023592378944158554,-0.19130127131938934,0.2499377727508545,0.0024348360020667315,0.10057953745126724,-0.19428269565105438,0.09125246852636337,0.11855990439653397,-0.0431223027408123,0.026043273508548737,0.03761181980371475,-0.28215450048446655,-0.12658511102199554,-0.026104846969246864,0.3631790280342102,0.03712712228298187,-0.12346306443214417,0.032974570989608765,-0.06605930626392365,0.0806049108505249,0.1057419702410698,-0.35860973596572876,0.033535659313201904,0.3561379611492157,-0.19650278985500336,-0.15433096885681152,0.015420650132000446,0.2347460240125656,0.056383632123470306,-0.008344192989170551,0.25231966376304626,0.21784698963165283,0.030447160825133324,-0.1126561313867569,-0.18679064512252808,0.22878295183181763,-0.0495656318962574,-0.21492435038089752,0.3392977714538574,-0.07675929367542267,-0.09818519651889801,-0.25623539090156555,-0.05091970041394234,-0.021288564428687096,0.2931031286716461,0.005055130925029516,0.12278904765844345,-0.04653310030698776,-0.022166047245264053,-0.11285704374313354,0.04764191433787346,-0.07031731307506561,0.02362486906349659,-0.05978257581591606,-0.24494235217571259,0.16407306492328644,-0.09454676508903503,-0.002929086796939373,-0.14434990286827087,-0.039014242589473724,-0.1563045233488083,0.16446636617183685,-0.09954893589019775,0.33152705430984497,-0.20030517876148224,0.050280291587114334,-0.02115129865705967,-0.005718696862459183,0.03678056225180626,0.15629376471042633,0.35759609937667847,-0.0605316199362278,0.10613254457712173,0.25382378697395325,0.07461189478635788,0.0859079658985138,-0.10354933887720108,0.07225069403648376,-0.32572048902511597,0.31822139024734497,-0.26814234256744385,0.13334594666957855,0.22119036316871643,0.15284797549247742,0.09514611959457397,0.2493329644203186,-0.028765875846147537,0.15352463722229004,-0.12966319918632507,0.03186095878481865,0.10261155664920807,-0.0723920539021492,-0.007425730116665363,0.060515519231557846,0.04907863959670067,-0.22120769321918488,0.16284547746181488,0.10963519662618637,-0.2965889871120453,-0.19640323519706726,0.026524705812335014,0.2794151306152344,-0.24997906386852264,0.1682700216770172,-0.07693887501955032,-0.1967385709285736,-0.314525842666626,-0.0925779640674591,0.022560566663742065,0.10294072329998016,-0.13868433237075806,-0.06822384148836136,-0.09468750655651093,-0.07311800122261047,0.11175543814897537,0.08400348573923111,-0.09428638219833374,0.14134551584720612,-0.19501446187496185,-0.27056074142456055,0.18222075700759888,0.008176355622708797,-0.2818662226200104,-0.19313465058803558,0.1045556515455246,0.16242025792598724,-0.29798203706741333,0.3890117406845093,-0.03780144080519676,0.10203281044960022,0.19869187474250793,-0.2731991708278656,0.07232299447059631,-0.001888311468064785,-0.21502283215522766,-0.10334249585866928,-0.15939798951148987,0.19339148700237274,0.13873019814491272,-0.08390168100595474,-0.04156876355409622,0.06414439529180527,0.12424696236848831,0.09378381818532944,-0.01625029183924198,0.13246510922908783,0.06937236338853836,-0.09463657438755035,-0.08531394600868225,0.17620855569839478,-0.16304640471935272,-0.09207390993833542,-0.26000717282295227,-0.003117557382211089,-0.13121861219406128,-0.16087870299816132,0.004331960808485746,0.33304351568222046,-0.015592643991112709,0.0002061181585304439,0.058430131524801254,0.008785023353993893,0.05604510381817818,-0.14073297381401062,-0.15190191566944122,0.07834918051958084,0.08698124438524246,-0.24330538511276245,0.033475540578365326,0.1742556244134903,-0.1324014514684677,-0.11518111079931259,0.04271327704191208,-0.035637471824884415,-0.23490293323993683,-0.1694381684064865,0.04800672456622124,-0.03880888968706131,0.0718981996178627,-0.027952561154961586,-0.022120321169495583,-0.06496318429708481,-0.09234490990638733,-0.06984066963195801,-0.16375845670700073,-0.10934140533208847,0.26431572437286377,0.04518381506204605,0.14051517844200134,-0.18732903897762299,0.05249891057610512,0.21052704751491547,-0.25485894083976746,0.06814870238304138,0.17168083786964417,-0.032135650515556335,0.11796651780605316,0.03126288577914238,-0.02827303297817707,0.3553222715854645,-0.20539848506450653,0.25074654817581177,-0.10887002944946289,-0.16705091297626495,-0.13311251997947693,0.013145566917955875,0.12526094913482666,0.07336632907390594,-0.24762918055057526,0.012585720978677273,-0.23964394629001617,-0.025233833119273186,0.01409501489251852,-0.1449819654226303,0.041717950254678726,-0.08460354804992676,-0.19422714412212372,-0.0985901728272438,0.1385028213262558,0.09626708179712296,0.08675926178693771,0.0013677888782694936,-0.24945291876792908,0.26066574454307556,-0.3723939061164856,-0.20329131186008453,0.10218152403831482,0.03044753335416317,0.0044459146447479725,-0.028111448511481285,0.08141674101352692,0.08422397822141647,-0.08575519174337387,0.059622615575790405,0.20835977792739868,-0.0478353425860405,-0.11003664880990982,0.009494995698332787,0.18444634974002838,0.17716751992702484,-0.049430038779973984,-0.09621814638376236,0.06833571195602417,0.14439032971858978,0.003915809094905853,-0.021018534898757935,-0.2347254902124405,0.00015795949730090797,-0.19818712770938873,-0.026927268132567406,-0.1546124815940857,-0.5650427341461182,0.9113388061523438,0.03586506471037865,-0.5881280303001404,0.25409749150276184,-0.2364819049835205,-0.15549060702323914,0.7243354916572571,-0.777915358543396,0.8604899048805237,0.6462799906730652,-0.019039353355765343,0.0021544124465435743,0.49486595392227173,-0.7386451363563538,0.2727467119693756,-0.15096303820610046,0.359135240316391,-0.316062331199646,-0.19386158883571625,0.14673741161823273,0.3487171530723572,0.010039465501904488,0.37112337350845337,-0.0018334627384319901,0.3754540979862213,0.14405353367328644,-0.21174657344818115,0.1742546111345291,-0.021003086119890213,-0.24555376172065735,0.23867948353290558,0.028711285442113876,0.11912553012371063,0.08357493579387665,0.13617892563343048,0.19095633924007416,0.07449670881032944,-0.04174177721142769,-0.016738831996917725,-0.03161277994513512,0.16938485205173492,-0.3826853334903717,0.04350842535495758,0.48007145524024963,0.11433014273643494,-0.15093307197093964,-0.08661910146474838,-0.19148443639278412,-0.22345861792564392,-0.10331771522760391,0.51059889793396,-0.20800597965717316,0.2668995261192322,-0.18620552122592926,-0.18197840452194214,0.20870405435562134,-0.28632915019989014,0.391935259103775,0.21896997094154358,-0.42156898975372314,-0.1254965215921402,0.15438787639141083,0.08365321904420853,-0.0516982302069664,0.058170948177576065,-0.1226336807012558,0.06386247277259827,0.10880091786384583,-0.3312948942184448,0.07606843113899231,0.22840549051761627,0.05894932523369789,-0.18948744237422943,0.381757527589798,0.06216806918382645,-0.03560785576701164,-0.00845862552523613,0.0342913493514061,-0.07022012770175934,-0.24911649525165558,0.2981627285480499,-0.27573177218437195,-0.3938044309616089,-0.1919550597667694,0.14378346502780914,0.2008497565984726,0.2549743056297302,0.08519434183835983,-0.3542218804359436,0.4389338791370392,-0.115991972386837,-0.40574678778648376,0.05397986248135567,0.1792633980512619,-0.15443506836891174,-0.2272353321313858,0.03531675785779953,-0.14349879324436188,-0.08890839666128159,-0.10554378479719162,0.03728118911385536,0.11048252880573273,-0.1743929237127304,-0.08291275054216385,-0.31518110632896423,0.18026672303676605,0.21299174427986145,0.09768892824649811,0.18453212082386017,0.27124452590942383,0.10425429791212082,0.11379660665988922,-0.2769155204296112,0.029515042901039124,0.4180378019809723,-0.01345300953835249,0.08512968569993973,0.024656886234879494,-0.13690407574176788,-0.17926885187625885,0.4792407155036926,-0.20008724927902222,0.06803249567747116,0.1390611082315445,0.04331101104617119,0.10442420840263367,0.09990830719470978,0.0766822099685669,-0.2606222927570343,-0.12658269703388214,0.36666518449783325,-0.13644897937774658,0.20166391134262085,-0.045355282723903656,0.15317340195178986,0.2685021758079529,-0.031132258474826813,-0.06106500327587128,-0.013339904136955738,0.34225013852119446,-0.03990324214100838,-0.043649643659591675,-0.21500079333782196,0.11858825385570526,-0.31880059838294983,0.16186505556106567,0.4374423623085022,-0.04434756189584732,-0.24822837114334106,0.09354643523693085,-0.19040697813034058,0.11612599343061447,-0.31704357266426086,0.256355881690979,-0.24735403060913086,-0.2126559466123581,-0.02125541679561138,0.053723666816949844,0.445639044046402,0.20276163518428802,-0.13165715336799622,0.1717267632484436,-0.01663317158818245,0.3674960136413574,0.0009533457923680544,0.01487730536609888,-0.13817934691905975,0.17212484776973724,0.3538298010826111,-0.18736134469509125,-0.1347389668226242,0.4980594217777252,0.44027337431907654,-0.18106502294540405,0.1966530829668045,-0.256062775850296,-0.12413676083087921,-0.15831723809242249,0.1760878562927246,-0.2310025691986084,-0.000021951318558421917,-0.00021307345014065504,0.26529496908187866,0.1414639800786972,-0.3404496908187866,0.02997463569045067,0.058429818600416183,-0.49044927954673767,-0.00872131809592247,0.19057250022888184,0.007180755492299795,-0.08257041126489639,0.007784969173371792,-0.01161582674831152,-0.0515412911772728,0.3017895519733429,-0.0519629567861557,0.14832639694213867,-0.11039777845144272,-0.17516806721687317,-0.5050973296165466,0.42171528935432434,-0.2157866358757019,-0.2846050262451172,-0.06636671721935272,0.02728673256933689,-0.2959320545196533,-0.07771111279726028,0.0780944749712944,0.09116567671298981,0.03384263440966606,0.044493552297353745,-0.44191819429397583,-0.48978331685066223,0.1064477264881134,-0.0028162915259599686,-0.17569869756698608,-0.040482450276613235,0.1214892715215683,0.21161408722400665,0.15720738470554352,-0.3095970153808594,-0.0751933753490448,0.0994187742471695,-0.2410627007484436,-0.06687352806329727,0.09479738026857376,-0.20239675045013428,0.1675247699022293,-0.04632788151502609,0.32767167687416077,-0.020979788154363632,0.4620509743690491,-0.29738035798072815,0.04155213385820389,0.233791783452034,-0.09378966689109802,-0.02550099417567253,0.11790850013494492,0.2007482349872589,-0.04131646081805229,-0.09271171689033508,-0.2833896279335022,0.0706576406955719,-0.0015553055563941598,0.07884140312671661,0.1900370866060257,0.17823278903961182,0.43977090716362,0.24237506091594696,-0.30415743589401245,0.4968237280845642,0.11672133952379227,-0.2410283386707306,-0.2288869023323059,-0.18205682933330536,-0.04153096675872803,-0.24405711889266968,-0.24292618036270142,-0.19175933301448822,-0.19435282051563263,-0.2529449760913849,0.01502741128206253,0.3611079454421997,-0.041746094822883606,0.28406381607055664,-0.0886731892824173,-0.2660025954246521,-0.1614077091217041,0.17778810858726501,0.06245053932070732,-0.04703656956553459,0.059853728860616684,0.08401981741189957,0.07443086802959442,0.18495121598243713,0.07906775176525116,-0.095782071352005,-0.14757336676120758,-0.15183709561824799,-0.06077006086707115,0.07445457577705383,0.1334144026041031,0.13435392081737518,0.0012049154611304402,-0.04530167207121849,0.012337390333414078,-0.16189201176166534,0.26303550601005554,-0.027541987597942352,0.17091073095798492,-0.0037831757217645645,0.14702843129634857,0.013795070350170135,-0.21100611984729767,-0.04600407928228378,-0.16956937313079834,0.34172922372817993,0.3518413305282593,-0.26415467262268066,0.1730622798204422,0.006383546162396669,-0.39678722620010376,0.19720403850078583,0.1957847625017166,0.07454433292150497,-0.24530114233493805,-0.46583810448646545,0.21071091294288635,0.09779487550258636,0.08093177527189255,-0.09616465121507645,-0.4299963414669037,-0.06886804103851318,0.2739420235157013,-0.09871567040681839,0.08689955621957779,0.021006228402256966,-0.054254066199064255,0.011334262788295746,-0.3467975854873657,0.010079308412969112,0.044793881475925446,-0.034481339156627655,-0.0044429549016058445,0.0771966278553009,0.1522069275379181,-0.26321277022361755,0.012232841923832893,0.11290058493614197,-0.016174757853150368,-0.006793259643018246,-0.15902133285999298,0.19525238871574402,-0.0005839986260980368,0.1167721375823021,-0.11860619485378265,0.07493174076080322,-0.1444232165813446,0.09531504660844803,0.003382014809176326,-0.052287518978118896,0.06518521159887314,-0.03005242720246315,-0.13155795633792877,-0.11371218413114548,0.045342568308115005,0.08540675044059753,0.3485516309738159,0.04391613230109215,-0.10912267863750458,-0.12163558602333069,-0.17879487574100494,0.10216124355792999,0.03109808824956417,0.213479146361351,-0.19153477251529694,-0.04432310536503792,-0.03917865455150604,0.05030014365911484,-0.16537612676620483,0.10838478803634644,0.19689536094665527,0.3171195387840271,-0.2805318832397461,0.0615292564034462,-0.04667317494750023,0.19119654595851898,-0.011081510223448277,-0.30181413888931274,0.35810694098472595,-0.01593039743602276,0.12533682584762573,-0.31394410133361816,0.09021651744842529,-0.0205222237855196,-0.08464840054512024,0.08215851336717606,0.21313467621803284,0.04449126869440079,0.08103964477777481,-0.18394935131072998,-0.12882308661937714,-0.1434246003627777,0.251616895198822,0.2479308396577835,0.1534772664308548,-0.35916054248809814,-0.10654965043067932,-0.025934264063835144,-0.10703938454389572,-0.1372314691543579,-0.005600612610578537,0.22027115523815155,-0.03008277155458927,-0.09003833681344986,0.030618462711572647,-0.14966674149036407,-0.3339562714099884,0.26568758487701416,0.10193982720375061,0.16563652455806732,-0.31415867805480957,-0.07127337157726288,0.002627023495733738,-0.1625877469778061,0.02213941514492035,0.10780072957277298,-0.059930771589279175,0.29385289549827576,-0.025758342817425728,-0.15799441933631897,0.04877442121505737,0.07054569572210312,-0.34579163789749146,-0.15577322244644165,-0.2263535112142563,0.20120298862457275,-0.14047056436538696,0.09248505532741547,0.14559532701969147,0.01963113434612751,0.1303446739912033,-0.27026131749153137,0.41408658027648926,0.07227630913257599,-0.19482426345348358,-0.2200292944908142,-0.07083368301391602,0.25134897232055664,0.1835596263408661,0.3257353603839874,-0.07643955200910568,0.05392869934439659,-0.10888779163360596,0.13132742047309875,-0.03798794001340866,-0.10636114329099655,0.09328175336122513,-0.11305470764636993,0.2661410868167877,-0.15307289361953735,0.12336234748363495,0.08975851535797119,-0.17425352334976196,0.10427217185497284,0.6184538006782532,-0.40386056900024414,0.15601442754268646,-0.14075295627117157,0.14929497241973877,0.2247833013534546,0.042412031441926956,0.46415555477142334,-0.21777495741844177,-0.31060993671417236,0.18656188249588013,0.05359181761741638,-0.1648123413324356,0.13652469217777252,-0.1278889924287796,-0.04826889932155609,0.13476334512233734,-0.14154814183712006,0.19238245487213135,0.12227366119623184,-0.07358163595199585,0.3585890829563141,-0.07003522664308548,0.13619618117809296,-0.022192595526576042,-0.019729606807231903,-0.008318280801177025,-0.06922214478254318,-0.08608940988779068,-0.060324426740407944,0.2823326587677002,-0.12706440687179565,0.1787043660879135,0.046121995896101,-0.04945296794176102,0.11589968204498291,0.022533362731337547,0.12784406542778015,-0.09899228066205978,0.09750863164663315,-0.03989492729306221,0.11487428843975067,-0.01587359793484211,-0.23276352882385254,-0.15855826437473297,-0.09923212975263596,-0.019162919372320175,-0.02903067320585251,-0.05830308794975281,-0.13667084276676178,-0.15489009022712708,-0.09732773154973984,0.06130627915263176,-0.08194030821323395,0.1690758466720581,-0.041137345135211945,-0.06316948682069778,-0.0430869534611702,-0.16268035769462585,-0.1919533759355545,0.00722200982272625,0.10667973011732101,0.19979602098464966,-0.05054306238889694,-0.08072727173566818,-0.06106596067547798,-0.019606659188866615,-0.3085007667541504,-0.22589533030986786,-0.0015177254099398851,-0.09787309914827347,-0.2129707783460617,-0.14107546210289001,0.0077753434889018536,-0.2529863715171814,-0.1658238172531128,0.09717109799385071,-0.029775647446513176,-0.12439599633216858,0.029991265386343002,-0.04013143479824066,-0.35420894622802734,-0.07160606235265732,-0.21660132706165314,0.128230020403862,-0.08257389813661575,0.06899607926607132,0.4140326678752899,0.08665002882480621,0.11652136594057083,-0.031212972477078438,-0.11024757474660873,0.17515146732330322,-0.34118518233299255,-0.025273358449339867,-0.18528452515602112,-0.061318255960941315,-0.15481093525886536,-0.05123431608080864,0.24182680249214172,0.04483800753951073,0.003985834773629904,-0.006531474646180868,-0.3165326416492462,-0.0026130760088562965,0.3615170121192932,-0.12225025147199631,-0.2449774444103241,0.12237366288900375,-0.02959766425192356,0.028824113309383392,0.06378020346164703,-0.1657869815826416,0.21355368196964264,-0.11400018632411957,0.10895697772502899,-0.14254578948020935,0.1108604148030281,-0.18532666563987732,-0.08296443521976471,0.08673160523176193,-0.09682230651378632,-0.12820006906986237,0.02013750933110714,-0.04230455309152603,0.0694885328412056,-0.0386190228164196,-0.055066850036382675,0.05407173931598663,0.02565455250442028,0.006211595144122839,0.11443345993757248,0.06468916684389114,-0.19653736054897308,0.04166433587670326,0.10915542393922806,-0.05877341330051422,-0.08670971542596817,0.010556479915976524,0.07207605242729187,0.0520346574485302,0.3498441278934479,0.05966948717832565,0.25812438130378723,-0.15125812590122223,0.25206688046455383,-0.032542262226343155,-0.08138826489448547,-0.1884366273880005,0.1250094771385193,-0.3323945999145508,-0.008793228305876255,-0.024991322308778763,0.14018405973911285,-0.07347451895475388,0.18500132858753204,-0.16657871007919312,-0.057025738060474396,0.17448391020298004,0.09930166602134705,-0.0791303738951683,-0.1258494108915329,-0.26015737652778625,0.11474458128213882,0.2574831247329712,0.15370692312717438,-0.25573229789733887,-0.0025968935806304216,0.13542811572551727,-0.27413836121559143,0.19458141922950745,0.22066351771354675,-0.09193994849920273,-0.1007106676697731,-0.08956081420183182,0.06341224163770676,0.011747302487492561,0.1598479300737381,0.04570475220680237,0.28340667486190796,-0.1034921407699585,0.11951714754104614,-0.14836378395557404,-0.3840113580226898,0.012769138440489769,-0.35457614064216614,0.2272920459508896,0.09508780390024185,-0.08447733521461487,0.5763309597969055,-0.14549608528614044,-0.15033264458179474,-0.13903295993804932,-0.4658406376838684,0.11168491840362549,-0.26621782779693604,0.034151166677474976,0.026285387575626373,-0.11929868906736374,-0.20557071268558502,-0.01326220203191042,-0.20361652970314026,0.15942558646202087,0.1939752846956253,-0.1953049600124359,-0.04537688195705414,0.014328216202557087,-0.17525005340576172,-0.11463691294193268,-0.2381143569946289,-0.0591728538274765,0.23726801574230194,0.0634857714176178,-0.02707955799996853,0.02135886624455452,0.2789042592048645,-0.1557626724243164,-0.007787587121129036,0.207000270485878,-0.07561179250478745,-0.11496643722057343,-0.2008875459432602,0.08779531717300415,0.037114519625902176,0.22916851937770844,0.5997028946876526,0.2968098521232605,0.02160795032978058,0.05123669654130936,0.18127304315567017,-0.3337259888648987,-0.4644966721534729,-0.1939137578010559,-0.3029240369796753,-0.2886134088039398,-0.09486331790685654,-0.12120947241783142,0.9195145964622498,0.3583691418170929,1.1130115985870361,0.1262052059173584,-0.35825425386428833,-0.5610913634300232,-0.31228509545326233,-0.10410808771848679,-0.10297352075576782,-0.08467087149620056,-0.07723254710435867,-0.8869231343269348,-0.5726999640464783,-0.3197755217552185,-0.021197717636823654,0.44623321294784546,0.11636939644813538,-0.5375480651855469,-0.09426411241292953,-0.08831740915775299,-0.27857324481010437,-0.2954382002353668,-0.3704832196235657,0.0007926815305836499,-0.2884841561317444,-0.30882206559181213,-0.16049057245254517,0.17327354848384857,0.11715909838676453,0.28119829297065735,0.6189249157905579,0.2406875044107437,0.5214787125587463,0.1660289168357849,0.15710853040218353,-0.07997606694698334,0.3244026303291321,0.43742796778678894,0.2111157923936844,-0.19588808715343475,-0.25145772099494934,-0.06449846178293228,-0.05493927374482155,-0.14123667776584625,-0.10905694216489792,0.1526723951101303,-0.07475101947784424,-0.12284613400697708,-0.0262636486440897,0.31529879570007324,0.010364780202507973,0.6456252336502075,-0.25823602080345154,0.062491461634635925,-0.25493213534355164,-0.19550774991512299,-0.1103280633687973,-0.5492688417434692,-0.15203340351581573,-0.17383913695812225,-0.09849751740694046,-0.3209291398525238,-0.1498928964138031,-0.09911707043647766,-0.1613963544368744,-0.09068044275045395,-0.044766783714294434,0.05563697963953018,-0.45466265082359314,0.005954776890575886,-0.15124617516994476,-0.4569704830646515,-0.24130427837371826,-0.18009597063064575,0.09168971329927444,-0.08542599529027939,-0.1021169051527977,0.15980680286884308,-0.010960657149553299,-0.09333058446645737,0.19190533459186554,0.04225407913327217,0.30070629715919495,0.04603385925292969,-0.06898047029972076,0.09775540232658386,0.025261107832193375,-0.14415320754051208,-0.14487390220165253,-0.11357315629720688,-0.024104833602905273,0.229439839720726,0.07220475375652313,0.12569910287857056,0.030555108562111855,-0.0998913049697876,0.08533567935228348,0.39268919825553894,-0.11132937669754028,-0.03409435600042343,0.4952002763748169,0.10837019979953766,0.05518835783004761,-0.29094985127449036,-0.09866926074028015,-0.12484531104564667,-0.4215899705886841,0.00882064737379551,0.060493167489767075,0.10408749431371689,-0.18979018926620483,0.029814088717103004,-0.21317826211452484,0.27469462156295776,0.1949746310710907,0.08194179832935333,-0.15109111368656158,0.1847880631685257,0.05216072127223015,-0.19204866886138916,-0.1888412982225418,0.4699389338493347,0.16103821992874146,-0.04685652256011963,-0.05641595646739006,-0.1049848198890686,-0.019476676359772682,-0.017273422330617905,0.07282165437936783,-0.007387764751911163,0.11702845990657806,-0.16675852239131927,-0.010127981193363667,0.3262537121772766,0.14947204291820526,0.2502121031284332,-0.30258336663246155,0.08322088420391083,0.02154763974249363,-0.22290241718292236,-0.15812081098556519,-0.220758318901062,0.2457156926393509,0.24832452833652496,-0.2098427414894104,0.3079861104488373,0.08782754093408585,-0.49412083625793457,-0.014929899014532566,0.13408716022968292,0.044351302087306976,-0.3751535415649414,-0.32049432396888733,0.0013744393363595009,-0.14170978963375092,0.022447288036346436,-0.03291524946689606,-0.4142250418663025,-0.18077756464481354,0.2926667332649231,-0.05903630703687668,0.3507099747657776,-0.042210694402456284,-0.24556392431259155,0.050116296857595444,-0.24117136001586914,0.23071160912513733,0.01664169318974018,0.2597425580024719,-0.005867283325642347,0.3253975212574005,0.1267174780368805,-0.19516104459762573,0.11219464242458344,0.10343878716230392,-0.22548332810401917,-0.05312630161643028,-0.1682548224925995,0.3630707561969757,-0.05780697241425514,0.051863376051187515,0.11561828851699829,0.17242509126663208,0.0014786745887249708,-0.2832091748714447,0.20577411353588104,-0.11186505109071732,-0.301550954580307,-0.2628076374530792,0.05348746478557587,0.13232602179050446,0.06849262863397598,0.08386580646038055,0.113413967192173,-0.009042478166520596,0.040113918483257294,-0.05175178870558739,0.008314753882586956,0.06007077917456627,-0.3268950283527374,0.23355476558208466,0.014578108675777912,-0.30433207750320435,0.042071469128131866,0.09521317481994629,-0.25511297583580017,0.2390386313199997,0.023960117250680923,-0.1692618876695633,0.1279180943965912,-0.050806932151317596,-0.33692875504493713,-0.2011815756559372,-0.12944191694259644,0.4122031033039093,-0.09194755554199219,0.10256168246269226,0.18424555659294128,0.3832223117351532,0.10252905637025833,-0.15038348734378815,0.35024937987327576,0.06833425909280777,-0.14852140843868256,-0.10747068375349045,0.08380857110023499,0.23962010443210602,-0.050875380635261536,-0.0003044436452910304,0.03347039222717285,0.13529987633228302,0.03494363650679588,0.0667412057518959,0.001917707035318017,-0.023916760459542274,0.01699947938323021,0.2233630269765854,0.041097622364759445,-0.1568353921175003,-0.0054563311859965324,-0.03631678223609924,-0.012818556278944016,0.21055462956428528,-0.238827645778656,0.08705364912748337,-0.03318686783313751,-0.02837471105158329,0.14448785781860352,0.21487848460674286,-0.09336746484041214,-0.09248270839452744,0.11347240954637527,-0.004000372719019651,0.014593450352549553,0.06180243194103241,-0.1132364273071289,0.31260213255882263,0.2424117773771286,-0.04098528251051903,-0.0796942338347435,0.08472158014774323,0.051281318068504333,-0.12248425930738449,0.07942575216293335,-0.1872939020395279,0.20541684329509735,0.0025492217391729355,-0.09574337303638458,0.08420737087726593,-0.32315927743911743,-0.1813494712114334,0.13944140076637268,0.06474800407886505,0.16096438467502594,0.15961574018001556,0.06423677504062653,0.008449176326394081,-0.09905710071325302,-0.2840546667575836,-0.03681390732526779,0.07465279847383499,-0.028057873249053955,0.20223376154899597,0.30570387840270996,0.1474781334400177,0.05196806415915489,-0.199745774269104,0.058875493705272675,0.21383237838745117,-0.8440658450126648,0.04321952536702156,0.20867890119552612,0.13530239462852478,-0.11507677286863327,-0.10704415291547775,0.0995003879070282,0.0433516800403595,-0.00485164625570178,-0.17481942474842072,0.010364098474383354,0.2933875322341919,0.5157395601272583,-0.4490848183631897,0.06075134873390198,0.1854601502418518,-0.009284351952373981,0.0784921944141388,0.20488771796226501,0.2783186137676239,-0.03704094886779785,-0.2890874147415161,0.23843717575073242,0.1758716106414795,-0.5717845559120178,-0.21549059450626373,0.13200120627880096,0.10753697156906128,-0.35329392552375793,-0.01629343070089817,0.15436288714408875,0.16680966317653656,-0.018812015652656555,-0.12942396104335785,-0.10904669016599655,0.29966971278190613,-0.013777375221252441,-0.17500823736190796,-0.01176503673195839,0.25663265585899353,-0.1174626275897026,-0.25446516275405884,0.020430913195014,-0.0068886904045939445,0.11671875417232513,-0.17827673256397247,0.30441829562187195,0.591105580329895,-0.05823396146297455,-0.24179761111736298,0.32927146553993225,-0.09093469381332397,-0.04979395866394043,-0.16334499418735504,0.021760640665888786,-0.12636320292949677,-0.27809542417526245,-0.036477722227573395,0.057335421442985535,-0.27834364771842957,0.12924495339393616,-0.10573770105838776,-0.20757900178432465,0.2717612385749817,-0.17844653129577637,0.054246194660663605,0.10001976042985916,0.030876120552420616,-0.107627734541893,-0.32391512393951416,-0.07688461244106293,-0.15498358011245728,-0.10169234126806259,-0.1763937771320343,-0.04671205207705498,0.25837743282318115,0.03057357482612133,0.08463025093078613,0.14150351285934448,0.04771125689148903,0.08966459333896637,-0.059655264019966125,-0.03632156923413277,-0.1127680242061615,0.08970151096582413,-0.040445707738399506,0.03761487826704979,0.01101598609238863,-0.21448993682861328,-0.04241948202252388,0.12752656638622284,0.2265181988477707,-0.1121673658490181,-0.10815438628196716,0.29938578605651855,0.07468023896217346,0.10380201786756516,-0.04329885169863701,0.7468991875648499,0.29552802443504333,0.690473735332489,-0.8423412442207336,-0.44585415720939636,0.0004787420330103487,0.27454808354377747,0.01216348446905613,0.3908575475215912,0.5281416773796082,-1.1625536680221558,0.6603082418441772,0.0626504197716713,-0.3955498933792114,-0.2894424796104431,-0.2726458013057709,-0.08583964407444,-0.1846047341823578,0.28444936871528625,-0.13442480564117432,0.03744403272867203,0.23100218176841736,-0.06944860517978668,-0.17577435076236725,-0.1346127688884735,0.07390150427818298,-0.3133380115032196,0.2320677638053894,0.23146037757396698,0.03206880763173103,0.002067274646833539,-0.08166541159152985,-0.08603795617818832,-0.22145996987819672,0.025561373680830002,0.025409359484910965,-0.15456917881965637,-0.047506581991910934,0.26718100905418396,-0.0562557727098465,-0.1738424003124237,0.10212692618370056,0.1560693085193634,0.05830644071102142,-0.09311800450086594,0.10608461499214172,0.07609560340642929,0.045758169144392014,0.0673270970582962,0.19590623676776886,-0.3144373893737793,-0.07556997239589691,0.3573375940322876,-0.3878099322319031,-0.3583577275276184,0.23820027709007263,0.22006916999816895,-0.059238582849502563,0.2516988217830658,-0.3699339032173157,-0.08281899243593216,0.2875996232032776,-0.054050885140895844,0.1576058715581894,-0.31553807854652405,0.2231786847114563,0.02078753337264061,0.5758678317070007,0.16789495944976807,0.013007409870624542,0.08964546024799347,0.1529207080602646,-0.10882670432329178,0.11769081652164459,-0.038241107016801834,0.0846153274178505,0.29260408878326416,0.3779045641422272,-0.03659501299262047,-0.0027642357163131237,0.06473863124847412,0.015217829495668411,-0.15852774679660797,-0.2813561260700226,-0.02289830707013607,0.07597354054450989,-0.18946018815040588,-0.20764970779418945,0.21862508356571198,-0.030264707282185555,0.1814195215702057,0.18668682873249054,-0.39439430832862854,0.10105366259813309,-0.23545129597187042,-0.1815154254436493,-0.37948811054229736,0.15609176456928253,0.018684832379221916,0.36165305972099304,0.22613349556922913,-0.13376986980438232,-0.1726134866476059,0.15806710720062256,0.0786992534995079,0.12900377810001373,-0.3567444980144501,0.0034527627285569906,-0.10018707066774368,0.07440705597400665,-0.23821359872817993,0.19740979373455048,-0.05060907080769539,-0.28542470932006836,-0.12231810390949249,-0.08439526706933975,-0.2854824364185333,-0.12948352098464966,0.3336884677410126,0.08275754004716873,-0.06341936439275742,0.10295748710632324,0.32515522837638855,0.07989487797021866,0.08054769784212112,-0.24250948429107666,-0.05134822428226471,-0.5253649353981018,-0.22595812380313873,0.06238681077957153,-0.26750972867012024,0.21788397431373596,0.08869876712560654,-0.2510021924972534,-0.10324742645025253,0.2775244414806366,-0.08492723107337952,0.16163304448127747,0.014185884036123753,-0.2846364676952362,-0.18870213627815247,0.18671105802059174,0.22905489802360535,-0.01732976734638214,-0.13841897249221802,0.1342969834804535,-0.21318809688091278,-0.1544412076473236,0.1881217658519745,0.09785604476928711,-0.30741292238235474,-0.24636274576187134,-0.001028275117278099,-0.03207312524318695,-0.0370834656059742,-0.33634158968925476,0.08112684637308121,0.06807363778352737,0.1553371101617813,0.12651470303535461,0.15261107683181763,-0.01734054461121559,0.04970055818557739,0.04547196999192238,-0.554141104221344,-0.047036416828632355,0.06777206063270569,0.1185368075966835,-0.12017951160669327,-0.25875481963157654,0.13710500299930573,0.031650833785533905,0.2010549157857895,-0.46357056498527527,0.3851831257343292,-0.1473982185125351,-0.19269418716430664,0.2544867694377899,-0.33095288276672363,-0.033357467502355576,-0.08647476881742477,-0.024254951626062393,-0.007138948887586594,-0.10847414284944534,0.22310541570186615,0.056313809007406235,-0.04851100221276283,-0.25015056133270264,-0.17143820226192474,0.028858818113803864,0.023426540195941925,-0.050848085433244705,0.29760608077049255,0.6335526704788208,-0.04298577457666397,-0.2054002285003662,0.47845426201820374,0.07724583148956299,-0.10450170189142227,-0.15297895669937134,-0.2767576575279236,-0.07763683050870895,-0.10331079363822937,0.3664320707321167,-0.10753896087408066,0.3735958933830261,0.00008299386536236852,0.1837155669927597,0.34426558017730713,0.1715715080499649,0.24015729129314423,0.12879794836044312,0.3397936522960663,0.3476795256137848,-0.0878831222653389,-0.2737133204936981,0.4348088502883911,-0.18493662774562836,-0.4895472824573517,-0.02550595998764038,-0.2566225826740265,-0.03969276696443558,0.11350114643573761,-0.019272953271865845,-0.14807140827178955,0.18686255812644958,-0.20263327658176422,0.23298338055610657,0.15951727330684662,0.10695075243711472,-0.10906267911195755,-0.03872121870517731,-0.01772385463118553,0.2245754450559616,0.12205569446086884,-0.29297083616256714,-0.21273060142993927,-0.3653112053871155,0.029115548357367516,0.11424704641103745,0.06451128423213959,-0.15645016729831696,0.029232056811451912,0.41404736042022705,-0.6569761037826538,-0.39886149764060974,-0.033232755959033966,0.27139025926589966,-0.2746486961841583,0.09486258774995804,-0.12901687622070312,0.004726501181721687,0.28344497084617615,-0.11105020344257355,-0.2574979066848755,0.0825401321053505,-0.11106496304273605,0.10009999573230743,0.09447052329778671,-0.18856844305992126,-0.7200957536697388,-0.12009640783071518,0.12501487135887146,0.12530744075775146,-0.13532307744026184,-0.06313521414995193,-0.48556411266326904,0.10932837426662445,0.241356760263443,-0.48565882444381714,-0.0709957405924797,-0.09843467175960541,-0.15547695755958557,0.04085659980773926,0.12399200350046158,-0.11232582479715347,0.06283117830753326,0.03269582241773605,-0.020647451281547546,0.01774890162050724,-0.10135803371667862,-0.017939388751983643,0.06059474125504494,-0.002541482914239168,-0.019928134977817535,-0.09828933328390121,-0.14878064393997192,-0.048007722944021225,0.02817600779235363,-0.15824994444847107,0.16402994096279144,0.1385834962129593,0.10566941648721695,-0.35639330744743347,0.017260879278182983,0.16315239667892456,-0.39724916219711304,-0.21392929553985596,0.1186220720410347,-0.030933065339922905,0.08875568211078644,0.37676990032196045,-0.6246948838233948,-0.10096150636672974,-0.021127847954630852,0.3656480312347412,0.2677610516548157,0.07571443915367126,-0.19143089652061462,-0.13079504668712616,0.07580889016389847,0.2619839012622833,0.05672729015350342,-0.03268486261367798,-0.12908253073692322,0.288607656955719,-0.05231630057096481,-0.08162201941013336,0.17496053874492645,0.15149138867855072,-0.2025436908006668,-0.07005635648965836,-0.03362558037042618,-0.15335002541542053,0.008899996057152748,-0.07267607748508453,-0.31820982694625854,0.050580743700265884,-0.026965513825416565,-0.22971399128437042,0.414480596780777,-0.1373450756072998,-0.2884795069694519,-0.1464530974626541,0.11617592722177505,0.1891634315252304,-0.12397247552871704,0.20694516599178314,0.04985854774713516,0.034778714179992676,0.007803777232766151,0.11151446402072906,-0.17322425544261932,-0.1728578358888626,-0.16378656029701233,-0.013197404332458973,0.4311036467552185,0.20357167720794678,0.10995660722255707,-0.11654507368803024,0.13175754249095917,0.04959343746304512,0.027406875044107437,-0.1434011161327362,-0.21590064465999603,-0.06890949606895447,0.23409229516983032,-0.3146410584449768,0.22088977694511414,0.09316913038492203,-0.096296526491642,-0.01563623733818531,0.03376800939440727,0.18720749020576477,0.02784312143921852,-0.07875868678092957,0.02226262539625168,-0.28011205792427063,-0.02344709448516369,-0.3190157115459442,0.16450540721416473,-0.20610958337783813,-0.1517537534236908,-0.05951492860913277,-0.3085220158100128,0.009158422239124775,-0.15053710341453552,-0.09180009365081787,0.05208219587802887,0.21326932311058044,-0.012427889741957188,-0.05341118201613426,-0.11699699610471725,-0.15179632604122162,0.05647321045398712,-0.46592211723327637,0.07753394544124603,-0.17340029776096344,0.2213447391986847,-0.006620629690587521,-0.3193610608577728,0.35000672936439514,0.04271291568875313,-0.3210068643093109,0.5349380970001221,0.018033787608146667,-0.42755869030952454,-0.6283313035964966,0.181996151804924,0.2607283890247345,0.10916760563850403,0.17089350521564484,-0.09940911829471588,0.03330155834555626,0.00407083984464407,-0.2716957926750183,0.3044964075088501,0.1460399180650711,-0.14507730305194855,0.16109339892864227,-0.12982629239559174,0.049877576529979706,-0.11390315741300583,0.021489035338163376,-0.20559391379356384,0.32414692640304565,0.03412819281220436,-0.12010322511196136,0.0006022565648891032,0.025633256882429123,-0.37369802594184875,0.13063643872737885,-0.0680927112698555,-0.20910613238811493,0.2925880253314972,0.09345222264528275,-0.19398094713687897,0.22993586957454681,-0.06622142344713211,0.3690166771411896,-0.3973032236099243,0.025539837777614594,0.09300979971885681,-0.2604553997516632,0.03553774952888489,-0.13222308456897736,0.07774588465690613,-0.1555982530117035,-0.026342187076807022,0.4014401137828827,0.05912524089217186,0.21874351799488068,-0.24062862992286682,-0.03469643369317055,0.17064139246940613,0.12260718643665314,-0.06848682463169098,0.07941845059394836,-0.10654471069574356,0.2186673879623413,0.03430715575814247,-0.022369030863046646,-0.013057827949523926,0.0415196567773819,0.21598005294799805,-0.10482701659202576,-0.02762417681515217,0.2454691380262375,0.0392165370285511,-0.2458103746175766,0.07237143069505692,0.03998861834406853,-0.1321343183517456,0.42868098616600037,0.030148914083838463,-0.03759490326046944,-0.05726649984717369,0.03863418102264404,0.19111335277557373,0.02734064683318138,0.12437628954648972,-0.22312858700752258,0.2621634900569916,0.004750595893710852,-0.09092111140489578,-0.1556415557861328,-0.021006722003221512,0.35689160227775574,-0.16081984341144562,-0.06954316794872284,0.0933634489774704,0.33829763531684875,0.01631159894168377,0.14914686977863312,-0.05080005154013634,-0.08517668396234512,0.24374260008335114,-0.04486841708421707,0.3218892812728882,-0.08469725400209427,-0.1297932267189026,0.012402799911797047,0.2432030290365219,0.5556513071060181,-0.008071638643741608,0.07446900010108948,0.07423827797174454,-0.0010936096077784896,0.12879863381385803,-0.01583675853908062,-0.17291605472564697,0.10247235745191574,-0.2600797712802887,-0.14822518825531006,0.17647165060043335,-0.09625682979822159,0.030194081366062164,0.06158227473497391,-0.07664057612419128,-0.04880193620920181,0.19443020224571228,0.04924705624580383,-0.08035632967948914,0.10101444274187088,-0.23045098781585693,-0.04666798934340477,-0.28563180565834045,0.11149530857801437,-0.08361151814460754,0.27293506264686584,-0.07696682959794998,-0.1374809443950653,0.06934695690870285,-0.47859376668930054,0.08482042700052261,-0.25239524245262146,0.06608203053474426,0.15989670157432556,-0.18777406215667725,0.06163240969181061,-0.13893914222717285,-0.03968532383441925,0.004062409978359938,0.2144734263420105,0.11781247705221176,-0.10501334071159363,-0.04274537414312363,-0.29054877161979675,0.1470736563205719,-0.08717425912618637,0.009257504716515541,0.22079811990261078,-0.11818858236074448,-0.1386871635913849,0.05223242938518524,0.03413251414895058,0.07938998192548752,-0.1437413990497589,-0.06039337068796158,-0.19003967940807343,0.011401176452636719,-0.016320429742336273,-0.06233622878789902,-0.5224238634109497,-0.015895674005150795,0.10403936356306076,0.03261303901672363,-0.015971079468727112,0.13365621864795685,-0.30367690324783325,-0.09687041491270065,0.09262262284755707,0.13586540520191193,-0.10431212931871414,-0.2008681297302246,0.16293664276599884,0.010330596007406712,-0.07124938070774078,-0.23172950744628906,-0.034447722136974335,-0.03642391413450241,0.28882771730422974,0.1319422870874405,0.21071799099445343,0.20906923711299896,-0.05409478396177292,0.010751375928521156,-0.013364817015826702,-0.18551410734653473,-0.08207325637340546,-0.0597476027905941,0.13212110102176666,0.003106263931840658,-0.026452938094735146,0.4253263771533966,0.2349526435136795,-0.050392698496580124,-0.17001982033252716,0.36354413628578186,0.20394998788833618,-0.14714331924915314,0.3088342249393463,0.31710827350616455,0.0685623362660408,-0.29242992401123047,0.0322704091668129,0.1763465702533722,0.37184080481529236,-0.207576185464859,0.06658270210027695,-0.08966418355703354,-0.1736312210559845,0.2760174870491028,-0.14925257861614227,-0.0731617733836174,0.1484682857990265,-0.15999124944210052,0.10534829646348953,0.3875577449798584,0.23726072907447815,-0.042495764791965485,-0.2848816215991974,-0.17876654863357544,-0.06197664514183998,0.10463318228721619,-0.07128632813692093,0.13103602826595306,0.3633703887462616,-0.38065972924232483,0.17159226536750793,0.22887253761291504,0.19669392704963684,0.03467646241188049,-0.17431208491325378,-0.0021863116417080164,0.05544739216566086,0.045454155653715134,0.28728899359703064,0.04782897233963013,-0.1758645623922348,-0.023852607235312462,-0.008140559308230877,0.10842514783143997,-0.06964090466499329,0.1601133942604065,0.011330582201480865,0.15534928441047668,0.06011244282126427,-0.025058215484023094,-0.07826880365610123,0.0047649662010371685,0.15635183453559875,0.2619591951370239,0.10141189396381378,-0.23520204424858093,0.11733431369066238,-0.0699584111571312,0.19761183857917786,-0.06377289444208145,0.06110529229044914,0.11597806960344315,0.07734518498182297,-0.07393515855073929,-0.043998342007398605,0.04353998973965645,-0.039027176797389984,-0.03280702233314514,-0.4123142659664154,-0.22884570062160492,0.2733917236328125,0.0027686948888003826,0.035825978964567184,0.17333967983722687,0.23030048608779907,0.006658831145614386,-0.3342549204826355,0.3511958420276642,-0.2098114788532257,-0.2363998144865036,-0.14054997265338898,-0.11458400636911392,-0.04844006150960922,0.042377494275569916,0.8761128783226013,-0.05706658586859703,0.3394792675971985,-0.03318273648619652,0.12446288764476776,0.03294629976153374,-0.8374384045600891,-0.014537227340042591,-0.2578292787075043,-0.002254349645227194,0.12501098215579987,-0.23961739242076874,0.13467881083488464,0.09047673642635345,-0.14187900722026825,-0.14738325774669647,0.011048062704503536,0.10008540749549866,-0.08981254696846008,0.0966772809624672,0.027050234377384186,-1.4387037754058838,-0.16390013694763184,0.28230980038642883,-0.48356321454048157,0.1422901153564453,0.1578049212694168,-0.10844086855649948,0.09192712604999542,0.1411868780851364,-0.4942038655281067,0.001958728302270174,-0.15453729033470154,0.26972654461860657,0.040863070636987686,0.2070067673921585,-0.023687755689024925,-0.0699254646897316,0.11920729279518127,-0.27399003505706787,-0.029384970664978027,0.03290969878435135,0.1522786021232605,-0.27762192487716675,-0.17919912934303284,0.20436841249465942,0.23054350912570953,0.024806946516036987,0.04792152717709541,-0.08371289819478989,-0.2596234679222107,0.1431206315755844,-0.15058742463588715,0.1314125657081604,0.15340642631053925,-0.09729194641113281,0.1232365220785141,-0.18121692538261414,-0.055763088166713715,-0.11885694414377213,-0.09423551708459854,-0.03266051411628723,0.21921876072883606,-0.0045712608844041824,0.13066743314266205,-0.23096299171447754,0.020846372470259666,-0.07967516034841537,0.1109074130654335,0.3066912591457367,-0.07124466449022293,0.031736597418785095,0.29076263308525085,0.04797271266579628,-0.2891818583011627,0.03165842965245247,-0.09044377505779266,-0.006312687415629625,0.34507662057876587,-0.13178078830242157,0.36282703280448914,-0.06833891570568085,-0.012830249965190887,-0.015354517847299576,-0.2357763946056366,0.22443042695522308,0.01713268645107746,0.3464856445789337,0.20123131573200226,-0.15793810784816742,0.06349672377109528,-0.039109520614147186,-0.08619403839111328,-0.06128612905740738,-0.032020147889852524,0.08037117123603821,0.03811114653944969,0.2931801378726959,0.017185017466545105,0.12030502408742905,0.04803323745727539,-0.09744460135698318,0.061894387006759644,-0.08560188114643097,-0.023069128394126892,0.3620997369289398,0.011605625972151756,-0.24773277342319489,0.07521576434373856,0.3944796919822693,-0.04093516618013382,0.07730584591627121,0.05807768180966377,-0.12703610956668854,0.05047224089503288,-0.04174423590302467,0.08256155997514725,0.055566996335983276,-0.04329824447631836,0.1470278948545456,0.18444618582725525,-0.0447375513613224,0.12023237347602844,0.13697533309459686,0.014155962504446507,0.125949427485466,0.0300898440182209,-0.15189336240291595,-0.06421297788619995,0.30502021312713623,-0.23594802618026733,0.30401286482810974,0.4233299791812897,0.19153298437595367,-0.19319875538349152,-0.0581262968480587,0.025468287989497185,0.0005426516872830689,-0.03758073225617409,0.04035300016403198,0.342818945646286,0.16523250937461853,0.20775343477725983,0.1172998771071434,0.09150990843772888,0.008996883407235146,0.13214758038520813,-0.0008732235874049366,-0.060942746698856354,0.07419216632843018,0.04966682940721512,0.07500278949737549,-0.2193024903535843,-0.06204649806022644,-0.11679151654243469,-0.10546065866947174,-0.17074456810951233,-0.04627503082156181,-0.1694069355726242,-0.17561890184879303,