{"version":"0.5.4","metadata":{"date":{"year":2026,"month":1,"day":2,"hour":21,"minute":22,"second":30},"loudness":-15.722480773925781,"gain":0.8390678728869178,"name":"Walk","modeled_by":"hellyeahdime","gear_type":"amp_cab","gear_make":"tz-make","gear_model":"tz-model","tone_type":"overdrive","input_level_dbu":null,"output_level_dbu":null,"training":{"settings":{"ignore_checks":false},"data":{"latency":{"manual":null,"calibration":{"algorithm_version":1,"delays":[28],"safety_factor":1,"recommended":27,"warnings":{"matches_lookahead":false,"disagreement_too_high":false}}},"checks":{"version":3,"passed":true}},"validation_esr":0.053030188919597494}},"architecture":"WaveNet","config":{"layers":[{"input_size":1,"condition_size":1,"head_size":8,"channels":16,"kernel_size":3,"dilations":[1,2,4,8,16,32,64,128,256,512],"activation":"Tanh","gated":false,"head_bias":false},{"input_size":16,"condition_size":1,"head_size":1,"channels":8,"kernel_size":3,"dilations":[1,2,4,8,16,32,64,128,256,512],"activation":"Tanh","gated":false,"head_bias":true}],"head":null,"head_scale":0.02},"weights":[-0.2157067060470581,0.3480970859527588,-1.0085052251815796,-0.7390996217727661,-0.39627644419670105,0.3964230716228485,-0.26868513226509094,0.9445654153823853,-0.24797476828098297,0.36102548241615295,-0.6506880521774292,-0.2692335844039917,-1.0513157844543457,-0.8060011863708496,-0.5647920966148376,0.11200802028179169,0.24675999581813812,-0.15415829420089722,0.00768814142793417,-0.17658072710037231,0.34062591195106506,0.04812430217862129,0.07333552837371826,-0.20912307500839233,0.040485505014657974,0.12084086984395981,-0.1788463294506073,-0.06481324881315231,0.026748090982437134,-0.33107271790504456,0.022822193801403046,0.004956019576638937,0.20749078691005707,-0.14122937619686127,0.058087605983018875,-0.38665491342544556,0.028505854308605194,0.018791373819112778,0.3797687888145447,0.001338641974143684,0.15247082710266113,-0.3519692122936249,0.11694588512182236,-0.2549123167991638,0.18065914511680603,-0.15726150572299957,0.21141889691352844,-0.2295532077550888,0.011376184411346912,0.12719853222370148,-0.18910041451454163,0.2274179756641388,0.1593010574579239,-0.29805460572242737,0.16144248843193054,0.02211904525756836,-0.285796195268631,-0.042356397956609726,0.013705762103199959,-0.3806881606578827,0.13811293244361877,0.06900510936975479,0.13303609192371368,-0.17410412430763245,-0.336643785238266,0.13501302897930145,0.16293711960315704,0.33845239877700806,-0.11941011250019073,-0.03474576026201248,-0.4128096401691437,0.18093250691890717,0.24261029064655304,-0.18228666484355927,0.35208943486213684,0.3073405921459198,-0.28216224908828735,0.08985844999551773,0.18400616943836212,0.22810940444469452,-0.3523994982242584,-0.046402763575315475,-0.25042322278022766,0.030002443119883537,0.1711248755455017,0.2782174050807953,-0.2570713460445404,-0.24968193471431732,-0.28922054171562195,0.11257587373256683,0.21503889560699463,0.38697168231010437,-0.10280346125364304,-0.11267917603254318,-0.46841004490852356,0.1361638903617859,0.2543272078037262,-0.2958885431289673,0.08787523210048676,0.08059436827898026,-0.16425907611846924,0.3317078649997711,0.12307655811309814,-0.34089210629463196,0.09287240356206894,0.17985273897647858,-0.4199763536453247,0.11308357864618301,0.16953134536743164,0.11450376361608505,-0.1999189406633377,0.06304994225502014,-0.05297008156776428,0.10920988023281097,0.17160668969154358,-0.07505197823047638,0.043739404529333115,-0.04886827617883682,-0.04071106016635895,-0.06753741204738617,0.10333855450153351,-0.049018196761608124,-0.16580995917320251,0.1198050007224083,-0.18226750195026398,-0.1677742302417755,0.025420820340514183,-0.030497901141643524,0.03347385302186012,-0.17942404747009277,-0.024659624323248863,-0.009947954677045345,0.0005902950069867074,0.05262051522731781,0.20343390107154846,-0.06451728940010071,-0.008969779126346111,-0.07127095758914948,0.10792212933301926,0.12879738211631775,0.20813895761966705,0.023076146841049194,0.08951644599437714,-0.1006571501493454,-0.07238277792930603,-0.09386759251356125,0.03140295669436455,0.06521893292665482,-0.13453786075115204,-0.2135200798511505,-0.08777139335870743,-0.17984558641910553,-0.12775853276252747,0.1302514374256134,0.02722027897834778,-0.229684516787529,0.1452927440404892,0.06573379784822464,0.04121275618672371,-0.18195077776908875,0.03233719617128372,-0.06718672811985016,-0.18470565974712372,-0.25637009739875793,-0.03843294829130173,0.03890377655625343,0.08498283475637436,0.08453819155693054,-0.16012291610240936,0.13726912438869476,0.15488454699516296,-0.09146472811698914,0.26146289706230164,0.0696202740073204,-0.17140290141105652,-0.043747421354055405,-0.03931356966495514,-0.026013804599642754,0.19783475995063782,-0.13105864822864532,-0.05750364437699318,-0.17947576940059662,0.07356665283441544,0.0722043588757515,0.1793789267539978,0.051949065178632736,-0.08849068731069565,-0.15395571291446686,-0.1294238418340683,0.125303253531456,0.2509768009185791,0.11245470494031906,-0.1419280618429184,0.11895707994699478,-0.09544233232736588,-0.12357067316770554,0.06792855262756348,0.08078222721815109,-0.1166302040219307,0.1442999392747879,0.03463197126984596,0.05996483191847801,0.03265197202563286,-0.07584287971258163,-0.11882162094116211,-0.06526367366313934,0.023231688886880875,0.2161523401737213,-0.3193587064743042,-0.26331692934036255,0.34314393997192383,0.3713657557964325,0.34368473291397095,-0.3487059473991394,-0.4199926257133484,-0.32287341356277466,0.21165116131305695,-0.4901348650455475,-0.22265085577964783,0.20570532977581024,-0.41449740529060364,-0.18780381977558136,0.3780200779438019,0.4104732275009155,0.20768994092941284,-0.257851243019104,-0.4877123236656189,-0.34875011444091797,0.30751487612724304,0.3975580334663391,0.34409505128860474,-0.20559583604335785,-0.37457069754600525,-0.18847621977329254,0.42912861704826355,0.31400352716445923,0.39187008142471313,-0.43065088987350464,-0.4768671691417694,-0.29301542043685913,0.3840496242046356,-0.2838815152645111,-0.3667577803134918,0.3275440037250519,-0.3467507064342499,-0.484698623418808,0.4265225827693939,-0.5364950895309448,-0.34004631638526917,0.300197035074234,-0.48747169971466064,-0.3154620826244354,0.44735944271087646,0.28314417600631714,0.0863422155380249,-0.48622265458106995,-0.08977409452199936,0.01503660622984171,-0.02671901509165764,-0.06672024726867676,0.0265826303511858,0.054294489324092865,0.03172006830573082,-0.02210509032011032,0.07181045413017273,-0.08938202261924744,-0.1668892353773117,0.06671055406332016,0.09048204123973846,-0.0753520056605339,-0.03527804836630821,-0.043736036866903305,-0.019291652366518974,-0.00009710290760267526,-0.0625813826918602,-0.20799967646598816,0.1874253898859024,-0.0501963347196579,0.11505456268787384,0.01939719170331955,0.0066787139512598515,-0.19059309363365173,-0.07051106542348862,0.1371127814054489,0.12929795682430267,0.08139859884977341,-0.07756464928388596,-0.07773903757333755,-0.004486288875341415,-0.016291208565235138,-0.18688587844371796,0.08617595583200455,-0.0002455947396811098,-0.13690033555030823,-0.012441957369446754,-0.1305045634508133,-0.03002067096531391,-0.08421480655670166,0.02454248256981373,-0.17150627076625824,-0.04323691502213478,0.1855563521385193,-0.043930310755968094,-0.122812919318676,-0.013670813292264938,-0.19018162786960602,0.14905214309692383,0.13140034675598145,0.16304607689380646,-0.15930533409118652,-0.20862658321857452,-0.15274721384048462,0.18224361538887024,-0.1367250680923462,-0.06760907173156738,0.2343679815530777,-0.14715735614299774,-0.11196240782737732,0.2029566615819931,0.08418188989162445,0.12846598029136658,-0.12422642111778259,-0.15802398324012756,-0.08187361806631088,0.2514835596084595,0.21841122210025787,0.2131776213645935,-0.11651274561882019,0.011803580448031425,-0.17038807272911072,0.031537868082523346,-0.05648787319660187,0.24852405488491058,-0.05377013981342316,-0.18278385698795319,-0.06577298045158386,0.24951699376106262,0.08778232336044312,0.023798169568181038,0.2530577778816223,-0.12369085848331451,-0.1810813993215561,0.25343433022499084,-0.005460698623210192,-0.21470698714256287,0.2665061354637146,-0.011487591080367565,-0.0429425947368145,0.04702860116958618,0.15730135142803192,-0.10640096664428711,-0.20024678111076355,0.2657671868801117,-0.12155243754386902,-0.007108387071639299,-0.22520238161087036,0.1369369477033615,0.1916581392288208,0.20851080119609833,-0.14242775738239288,-0.21495187282562256,0.16324995458126068,-0.29345420002937317,-0.00625431165099144,0.3699842095375061,-0.04846189543604851,-0.007740838918834925,-0.4255838394165039,0.07802407443523407,0.08817002922296524,0.17490287125110626,-0.08577536046504974,-0.21625564992427826,-0.38044100999832153,0.036914195865392685,0.03652605414390564,0.4018213450908661,-0.06864790618419647,-0.003931297454982996,-0.1710946261882782,0.3146038055419922,0.0804944857954979,0.37067869305610657,-0.05907268822193146,-0.06420121341943741,0.415833055973053,-0.11850252002477646,-0.02382046915590763,0.26307418942451477,-0.10338591784238815,-0.10269899666309357,0.27583929896354675,-0.25690191984176636,-0.20117700099945068,0.1879962533712387,-0.08561717718839645,-0.015713905915617943,-0.4689057469367981,0.13622033596038818,0.4268624484539032,0.23508499562740326,-0.11189737170934677,-0.09472022205591202,0.057531848549842834,0.20671828091144562,-0.07869940996170044,0.20415548980236053,-0.0587627999484539,-0.09408058226108551,0.1501857489347458,-0.2443246692419052,-0.05871165171265602,0.20139911770820618,-0.1464773416519165,-0.1295735090970993,-0.1320144236087799,0.11762921512126923,0.003986379597336054,0.12992516160011292,0.0013443173374980688,-0.004123447462916374,-0.15657652914524078,0.17505230009555817,0.10797853767871857,0.17614534497261047,-0.2741433084011078,-0.04647550731897354,-0.19023586809635162,0.08566196262836456,0.07855600863695145,-0.02368539571762085,-0.11208690702915192,0.08604659885168076,0.10316113382577896,-0.23848697543144226,-0.07636341452598572,0.09649980068206787,-0.27943867444992065,0.03012695722281933,-0.06187161058187485,-0.3041040003299713,-0.17698553204536438,0.046083226799964905,-0.06269252300262451,-0.17009343206882477,0.1744106113910675,-0.000963928468991071,-0.10423687100410461,0.0013577558565884829,-0.13191482424736023,0.056338418275117874,0.1607637256383896,0.18775217235088348,0.10158759355545044,-0.19741657376289368,0.056960538029670715,-0.030664818361401558,-0.030247153714299202,-0.17480529844760895,-0.07604537904262543,-0.22670714557170868,-0.108179971575737,0.0013027909444645047,-0.031331684440374374,0.10025346279144287,0.11155207455158234,-0.017809921875596046,-0.13083088397979736,-0.1334122270345688,0.05744749680161476,0.12640774250030518,0.18036964535713196,0.027014130726456642,-0.0516243577003479,0.021899759769439697,-0.06617812812328339,-0.07783042639493942,0.09214355051517487,-0.16843482851982117,0.020896119996905327,-0.14020147919654846,-0.13541223108768463,-0.1585654467344284,0.04506557807326317,-0.11931722611188889,0.0462062731385231,0.0514654666185379,-0.02072053775191307,-0.058071788400411606,-0.08168366551399231,-0.12324214726686478,-0.037108488380908966,0.035416603088378906,0.2172946333885193,0.09881359338760376,-0.11183029413223267,-0.2921406328678131,0.05215742439031601,0.09564314782619476,0.360687792301178,-0.1993752419948578,0.1491938680410385,-0.17913997173309326,0.13962124288082123,0.06585483998060226,-0.32292473316192627,0.10364582389593124,0.005760531406849623,-0.2728777229785919,0.11589950323104858,-0.08725442737340927,0.32530704140663147,-0.1046520471572876,-0.004242805298417807,-0.1459212601184845,0.15947376191616058,-0.08935130387544632,0.2611169219017029,0.026134023442864418,0.03948698192834854,-0.1710999310016632,0.05140741169452667,0.01494571752846241,0.11763592064380646,-0.15997710824012756,-0.030266905203461647,-0.10819757729768753,0.0342990905046463,-0.04780054837465286,-0.2824060320854187,0.22461995482444763,0.09550688415765762,-0.35943564772605896,-0.06251508742570877,-0.16414795815944672,-0.247367262840271,0.020640920847654343,-0.14737744629383087,-0.2943076491355896,0.09017669409513474,-0.1262774020433426,0.2286825329065323,-0.1615440547466278,-0.11523839086294174,0.06377582997083664,0.2989949882030487,-0.21109682321548462,-0.08891839534044266,-0.2544306814670563,0.24337081611156464,-0.022426987066864967,0.08855897933244705,0.04638637229800224,0.017068250104784966,0.2473926544189453,-0.1119999960064888,0.06561712175607681,0.1764635443687439,-0.014535902999341488,-0.09230774641036987,-0.3573836386203766,0.017903869971632957,0.01979397051036358,0.2576363980770111,-0.21715249121189117,0.025148728862404823,-0.25716590881347656,0.07365761697292328,0.19247907400131226,0.2730821669101715,0.006218144204467535,-0.013006608933210373,-0.24584344029426575,0.011893900111317635,0.09062367677688599,0.34173446893692017,-0.1568649411201477,-0.04906831309199333,0.2618544399738312,0.035492658615112305,0.07237150520086288,0.1067744791507721,-0.2281254529953003,0.14459708333015442,0.21200621128082275,-0.1734098345041275,0.1343141347169876,0.27333614230155945,0.01251168828457594,0.10282423347234726,-0.04377590864896774,0.12515804171562195,-0.1817089319229126,0.43761757016181946,-0.06643069535493851,0.07071124017238617,-0.4467907249927521,0.24820908904075623,0.14034070074558258,0.4720626473426819,-0.23476293683052063,-0.05375497788190842,0.23938369750976562,0.021009517833590508,-0.07179109007120132,0.2631004750728607,-0.04620429128408432,-0.05639838054776192,-0.40756505727767944,0.1037692204117775,-0.05672435089945793,0.2012946903705597,-0.01961050182580948,-0.06685259938240051,-0.2921659052371979,0.2409345656633377,0.04387320578098297,0.3428025543689728,-0.004716892726719379,0.030777491629123688,-0.3959744870662689,0.25447168946266174,0.027943596243858337,0.20014998316764832,-0.16302329301834106,-0.12224522978067398,0.45007309317588806,-0.14606380462646484,-0.12556561827659607,0.3353146016597748,-0.02182597666978836,0.03908652067184448,0.3870551884174347,-0.1033901572227478,0.048445966094732285,0.2997691333293915,-0.17527198791503906,-0.19146853685379028,-0.2553432583808899,0.47784268856048584,-0.19889414310455322,0.08773502707481384,0.07294764369726181,0.060375556349754333,-0.20983588695526123,0.08184187114238739,-0.12338659167289734,0.2536288797855377,-0.04726298898458481,-0.0769592672586441,0.2088860124349594,0.0035983247216790915,0.0682709664106369,0.01878696121275425,-0.07007784396409988,-0.00862516462802887,-0.09742371737957001,0.07958371192216873,-0.1605653464794159,0.13504427671432495,-0.022062120959162712,0.00879840087145567,-0.02863442339003086,-0.17731770873069763,-0.062052808701992035,0.23575371503829956,0.014911461621522903,0.17046765983104706,-0.1550985425710678,0.06953514367341995,-0.1902323216199875,0.10599379241466522,0.03516183793544769,-0.022724684327840805,0.1593179553747177,0.15360687673091888,-0.0594152994453907,0.13147284090518951,0.16709847748279572,-0.08073250949382782,0.25933143496513367,-0.0327114500105381,-0.06372769922018051,0.1175273135304451,0.12320122122764587,-0.024499835446476936,-0.10208112746477127,-0.062338873744010925,0.039482004940509796,-0.03785273805260658,0.17691053450107574,0.008311954326927662,0.2244381308555603,0.030823031440377235,-0.10060931742191315,-0.2854609191417694,0.2018987089395523,-0.21592769026756287,-0.11251107603311539,0.12477368116378784,-0.16278545558452606,-0.08256609737873077,-0.016230374574661255,0.12725314497947693,0.04540829360485077,-0.12586480379104614,-0.02927984483540058,0.026258094236254692,0.07333763688802719,0.2042396366596222,0.13090446591377258,-0.17166247963905334,-0.1976395845413208,-0.24692486226558685,0.2670951187610626,0.05338513106107712,0.133459210395813,-0.07516445964574814,-0.0054190135560929775,-0.017044536769390106,0.22705556452274323,-0.183481365442276,-0.14149817824363708,0.02801283821463585,-0.19718584418296814,-0.11840502917766571,0.2367774397134781,-0.2255208045244217,-0.06074335798621178,0.030285578221082687,-0.13116127252578735,-0.025322325527668,0.07501965761184692,0.206714928150177,-0.03201442211866379,-0.15232591331005096,0.22530798614025116,-0.30569520592689514,-0.001866801641881466,-0.2720044255256653,0.1428697258234024,0.08174143731594086,0.2735964357852936,-0.32327336072921753,-0.01607300341129303,0.2863100469112396,-0.17951786518096924,-0.15395043790340424,0.15569545328617096,-0.3094896972179413,-0.1861080676317215,-0.1759294867515564,0.3727726340293884,0.19342689216136932,0.22420084476470947,-0.19186393916606903,-0.10391154140233994,-0.05172353982925415,0.22131319344043732,-0.019298432394862175,0.218833789229393,-0.15658704936504364,-0.18728572130203247,-0.045322299003601074,0.30759885907173157,-0.032026998698711395,0.14283859729766846,-0.15298554301261902,-0.18872328102588654,0.1454051285982132,-0.20136652886867523,-0.1919541358947754,0.23694415390491486,-0.20829325914382935,0.006186351645737886,0.0700472891330719,-0.13541679084300995,-0.1643875390291214,0.31282806396484375,-0.4102781116962433,-0.20457588136196136,0.1287740021944046,0.1411876082420349,-0.22222614288330078,-0.009716909378767014,-0.06712670624256134,-0.03195222094655037,-0.07444825768470764,0.05930718034505844,0.03190765157341957,-0.006155563518404961,0.0007626081933267415,0.020587855949997902,0.07255978137254715,-0.03191223740577698,-0.003801036160439253,-0.009183504618704319,-0.0062859924510121346,-0.003921499475836754,0.012663455680012703,0.387912780046463,-0.6209251880645752,0.7605400085449219,-0.6793954968452454,-0.3144303262233734,0.8884271383285522,0.8675478100776672,-0.463153600692749,0.22614963352680206,0.16353310644626617,-0.4073943495750427,-0.2545124292373657,0.37943077087402344,-0.772756814956665,0.0721145048737526,0.5222510695457458,-0.38211867213249207,0.6024365425109863,-0.17210493981838226,0.05955132469534874,0.5226529240608215,-0.3542677164077759,0.22378866374492645,-0.40520256757736206,-0.27034974098205566,-0.06019725278019905,0.2685681879520416,-0.05634373426437378,-0.09164959192276001,0.3607078194618225,0.486421674489975,-0.5270178914070129,0.07652547210454941,-0.17927052080631256,-0.3030011057853699,0.18917115032672882,-0.037255242466926575,-0.11422501504421234,-0.21855981647968292,0.30496326088905334,0.033610887825489044,0.04995083808898926,-0.2919020354747772,0.0774957537651062,-0.02569514699280262,-0.10601866245269775,-0.1307167261838913,0.2015804499387741,-0.011106614023447037,0.2725696265697479,-0.014066836796700954,0.31314632296562195,-0.13332095742225647,-0.2776173949241638,0.09405893087387085,-0.20754021406173706,-0.1161387488245964,-0.2721787393093109,0.29980966448783875,-0.12034323066473007,0.12966634333133698,0.3162511885166168,0.10794925689697266,-0.11448833346366882,0.3043995797634125,-0.3209010362625122,-0.09034132957458496,-0.15580680966377258,0.254643052816391,0.1387496292591095,-0.08411403000354767,0.43804600834846497,0.008848406374454498,0.04949483647942543,-0.37889552116394043,-0.11422844976186752,0.010426877997815609,0.038052257150411606,-0.33756065368652344,0.1719742864370346,-0.11647752672433853,-0.19978176057338715,-0.2951112687587738,0.2320472151041031,0.4333149790763855,0.13446320593357086,-0.028667330741882324,-0.0933491662144661,0.07736975699663162,0.2503320872783661,-0.13259001076221466,0.172376811504364,-0.08945352584123611,0.11380298435688019,-0.23920050263404846,0.04688164219260216,-0.22175371646881104,-0.10321059823036194,0.1249750480055809,0.049089934676885605,0.1983841061592102,0.262283593416214,0.23760807514190674,0.13483425974845886,0.12978340685367584,0.0149340545758605,-0.16452506184577942,-0.10068690031766891,0.048929017037153244,-0.12276460975408554,0.14371329545974731,0.10951836407184601,-0.2025635689496994,0.2568260133266449,-0.15408220887184143,0.49612361192703247,-0.796002209186554,-0.48221534490585327,-0.4023924469947815,0.522890031337738,-0.08691088855266571,-0.631851077079773,-0.7282326221466064,0.5892489552497864,0.4186553657054901,0.03853071108460426,-0.4913252890110016,-0.41855135560035706,0.24055884778499603,0.14012958109378815,0.4446313679218292,-0.37050992250442505,-0.07399940490722656,0.20246832072734833,0.4794088900089264,-0.20696698129177094,0.08876165747642517,-0.0837462916970253,0.4512645900249481,-0.3703958988189697,-0.030292512848973274,-0.1532004177570343,0.15275439620018005,-0.011892514303326607,-0.3397156596183777,0.28122952580451965,-0.35666149854660034,-0.16261641681194305,0.07154188305139542,-0.2801445722579956,-0.26999178528785706,-0.20018059015274048,-0.44051021337509155,-0.31416910886764526,0.3227666914463043,0.34192201495170593,0.12521180510520935,0.10907541960477829,0.05448855087161064,-0.3763333261013031,-0.3745148181915283,-0.11551905423402786,0.195797860622406,-0.3587765693664551,-0.5325526595115662,0.15959379076957703,0.05064867064356804,-0.3163066506385803,0.04785698279738426,0.34769171476364136,0.11188922077417374,0.2815631330013275,0.5630706548690796,0.13570544123649597,-0.1912888139486313,-0.015994926914572716,-0.06916849315166473,0.42192527651786804,-0.46557214856147766,0.250753790140152,-0.13054735958576202,-0.45162108540534973,-0.0804104208946228,-0.07624124735593796,-0.1337362825870514,-0.28965455293655396,-0.2622198760509491,0.12142515182495117,-0.04001925140619278,0.3979134261608124,-0.013920437544584274,-0.03456904739141464,0.1286291927099228,-0.12568622827529907,0.06141648069024086,0.15756918489933014,0.31241586804389954,-0.2430991381406784,-0.03254582732915878,0.16039691865444183,0.018924089148640633,-0.3136249780654907,-0.07297356426715851,-0.27780839800834656,-0.2982484996318817,0.1347358673810959,-0.2201690524816513,-0.07381808012723923,-0.0034066441003233194,0.047998521476984024,-0.009750109165906906,0.15081854164600372,0.039286624640226364,-0.20592458546161652,-0.016703812405467033,0.10485446453094482,0.19270732998847961,-0.1303136944770813,-0.2296728938817978,0.13434718549251556,0.18231500685214996,-0.11903131753206253,-0.2373489886522293,0.1437322497367859,-0.20872244238853455,0.06115516647696495,-0.32752734422683716,0.23209267854690552,-0.20102153718471527,-0.08028510957956314,0.06962061673402786,0.10276547819375992,-0.2540211081504822,-0.29387423396110535,-0.034976258873939514,0.18624798953533173,-0.11626803874969482,0.2347126007080078,-0.2694326341152191,-0.14821591973304749,-0.3013538122177124,0.3780910074710846,-0.19252793490886688,-0.0782717913389206,0.08936728537082672,-0.055709823966026306,-0.049645766615867615,0.1860317438840866,-0.36053377389907837,0.08849889785051346,0.017585547640919685,0.08094720542430878,0.28957244753837585,0.28027185797691345,-0.33871668577194214,-0.2201383411884308,0.172480046749115,0.188777893781662,0.07556990534067154,0.05010155588388443,0.27496591210365295,0.02234254963696003,0.04230204224586487,0.23972421884536743,-0.1272137612104416,-0.3005399703979492,-0.0529460608959198,-0.25071972608566284,-0.1962026208639145,0.24015279114246368,0.006778925657272339,-0.11932390928268433,0.05766333267092705,-0.014173426665365696,0.10270687937736511,-0.06808215379714966,-0.04748823121190071,-0.022569138556718826,0.1394161731004715,0.0290017481893301,0.03970184177160263,-0.016741959378123283,0.04078340902924538,0.01132851094007492,0.006166711449623108,0.08447106927633286,0.02068665251135826,0.02790922485291958,-0.14255903661251068,-0.04193391278386116,-0.10746990144252777,0.03493555262684822,0.0630665272474289,0.050654150545597076,-0.06547150760889053,0.09287956357002258,0.0739588513970375,0.3228355646133423,0.0637151226401329,-0.022801758721470833,-0.13465827703475952,-0.35075777769088745,-0.008069864474236965,0.1324756145477295,-0.27579110860824585,-0.06315986067056656,-0.1429932564496994,0.041797149926424026,0.1593722254037857,-0.04088035225868225,-0.2998829782009125,-0.2706335186958313,-0.1237366572022438,0.18693889677524567,-0.042090799659490585,-0.15485364198684692,0.19832584261894226,-0.07917273789644241,-0.10421770066022873,0.17930424213409424,0.13856442272663116,0.2720493674278259,-0.4664989411830902,0.10905321687459946,-0.10268106311559677,0.13631203770637512,0.001748180715367198,-0.1601310670375824,0.15342426300048828,-0.1037360355257988,-0.17376989126205444,0.20961785316467285,0.05072397366166115,0.18512089550495148,-0.3613641858100891,-0.055829472839832306,-0.02879631333053112,-0.14232297241687775,-0.007929554209113121,-0.044175922870635986,0.014731839299201965,0.3011479377746582,-0.11101233214139938,-0.09526453167200089,0.14459683001041412,-0.34087932109832764,0.13279426097869873,-0.01648632064461708,-0.2605943977832794,-0.18605470657348633,0.10072895139455795,-0.1669539362192154,-0.13826926052570343,-0.1819869875907898,0.1278751939535141,-0.1760600507259369,0.05590088292956352,0.1250237673521042,-0.016914013773202896,-0.12400597333908081,-0.1541682332754135,-0.11515220254659653,0.03633107244968414,0.21736456453800201,-0.0770355761051178,-0.06302348524332047,0.06148459389805794,-0.026385124772787094,0.06355760246515274,-0.4005681276321411,0.15999743342399597,-0.12145297229290009,-0.09295026957988739,-0.05934308469295502,0.12114983797073364,-0.010813193395733833,-0.00031145536922849715,0.10028968006372452,-0.0972520038485527,-0.18675699830055237,0.06284087896347046,0.055255990475416183,0.2846808433532715,-0.23549678921699524,0.14397673308849335,-0.2314664125442505,0.1105407178401947,0.12014254927635193,0.19558711349964142,-0.18908831477165222,0.10284286737442017,0.08456394076347351,-0.03603427857160568,0.26874884963035583,0.068269282579422,-0.08386726677417755,0.27633658051490784,-0.10181539505720139,-0.16590552031993866,-0.17126865684986115,0.01225835271179676,0.250302791595459,0.2274494469165802,-0.05121484398841858,-0.18080875277519226,-0.16723117232322693,-0.12612280249595642,0.2795428931713104,0.14524655044078827,-0.031427253037691116,-0.13219909369945526,-0.273867130279541,0.2867366075515747,-0.009960830211639404,0.004123293794691563,-0.11923231184482574,-0.05354977026581764,0.39945608377456665,-0.28454139828681946,0.02936392091214657,0.19419921934604645,0.040425486862659454,-0.15135078132152557,0.10242937505245209,0.02337121032178402,-0.008591720834374428,0.04486130177974701,0.10926475375890732,-0.021762361750006676,0.1094256117939949,-0.10696978867053986,0.19825440645217896,-0.3277483880519867,-0.4375517964363098,0.533550500869751,0.2153003066778183,-0.13737167418003082,-0.001535823685117066,0.08701062202453613,-0.46559181809425354,0.11426540464162827,-0.1619839370250702,0.49193304777145386,-0.2338271290063858,-0.19077421724796295,0.6278372406959534,0.06913038343191147,-0.15472714602947235,0.466350257396698,-0.21997956931591034,0.183223694562912,-0.2793625295162201,0.04997901991009712,-0.3361814618110657,0.30951061844825745,-0.24795420467853546,0.2014428973197937,-0.551992654800415,0.2782677710056305,0.6785306334495544,-0.5794282555580139,-0.08777669072151184,0.19779880344867706,-0.4627561867237091,0.27114415168762207,-1.2297815084457397,0.9945058226585388,0.17800216376781464,0.20621798932552338,-0.11929286271333694,0.12462741881608963,0.23712320625782013,-0.41782107949256897,0.008671569637954235,0.08864622563123703,-0.4228971302509308,0.38632676005363464,-0.9725133776664734,0.6808078289031982,0.12395066022872925,-0.033402327448129654,-0.09609894454479218,0.09190471470355988,0.14274001121520996,0.11876095831394196,-0.037035368382930756,0.01714555360376835,0.1165851503610611,-0.1257401704788208,-0.04271074756979942,0.1673671156167984,0.00830292608588934,0.11011360585689545,-0.006380521692335606,-0.42898863554000854,-0.23014681041240692,0.02800426259636879,0.03922536224126816,0.21776741743087769,-0.08477870374917984,-0.08374601602554321,-0.07699893414974213,0.08204631507396698,0.24399946630001068,0.20624816417694092,0.09212437272071838,-0.1242864802479744,-0.16696949303150177,-0.11630585789680481,0.19401057064533234,0.24462810158729553,-0.022395851090550423,-0.09191735088825226,0.024314139038324356,0.18587777018547058,-0.08295217901468277,-0.08563272655010223,-0.11622101813554764,-0.014774799346923828,0.11206011474132538,0.005016520619392395,-0.01847141794860363,0.08072593808174133,-0.08305295556783676,-0.18865492939949036,0.13917942345142365,0.0009414758533239365,-0.13050663471221924,0.11280466616153717,-0.08735860139131546,0.017094114795327187,-0.18471947312355042,0.04950893670320511,-0.08368859440088272,0.010138540528714657,-0.0434984527528286,0.08139148354530334,-0.02288583293557167,0.13621486723423004,0.12373480200767517,-0.28252267837524414,-0.023623915389180183,0.004937341436743736,0.06840217113494873,-0.06815104186534882,-0.022893518209457397,0.11659166216850281,-0.11997491866350174,-0.06564625352621078,0.04376605153083801,-0.1504105031490326,0.07508305460214615,0.18519370257854462,0.13512475788593292,-0.06258083134889603,0.04202568903565407,-0.09752301126718521,-0.010504906065762043,0.14674261212348938,0.12425345927476883,0.1688379943370819,0.12132109701633453,-0.18574289977550507,0.12913493812084198,0.14324040710926056,0.1427617371082306,0.06257785111665726,-0.048684749752283096,-0.1103551909327507,0.06653501093387604,-0.016736384481191635,0.10691037774085999,-0.13904772698879242,-0.023899290710687637,0.0051471940241754055,0.035046324133872986,0.09907743334770203,-0.03631920740008354,-0.1581306904554367,0.07624107599258423,0.3107285797595978,0.13038544356822968,-0.15522916615009308,-0.09114152193069458,0.10639108717441559,0.3133961856365204,0.2537899315357208,0.18929554522037506,-0.33067888021469116,-0.006716364994645119,-0.018696531653404236,0.22032837569713593,0.05561912804841995,0.040477219969034195,0.005880612414330244,-0.06759100407361984,0.131631001830101,0.07408513873815536,0.07216491550207138,-0.07474575191736221,-0.09473496675491333,-0.11305971443653107,-0.06637047976255417,-0.042954277247190475,0.03699713572859764,-0.09128205478191376,-0.021696671843528748,-0.10061881691217422,0.05441172048449516,0.1569988876581192,0.2153187245130539,0.017850885167717934,0.04350591078400612,0.2079106569290161,0.22915443778038025,-0.10692410171031952,0.08084142953157425,-0.11433658748865128,-0.2926684617996216,-0.06900741159915924,-0.02405669540166855,0.15242470800876617,0.03618510812520981,0.08426745980978012,-0.06602437049150467,-0.12068916857242584,0.02278340607881546,0.06911387294530869,0.16751442849636078,0.04088326543569565,-0.15679070353507996,0.03277815878391266,0.08955468982458115,-0.19306020438671112,0.021920878440141678,-0.10386115312576294,-0.03661205992102623,-0.2147689014673233,0.05257408693432808,0.16103987395763397,-0.16571487486362457,-0.08775663375854492,-0.11055023968219757,-0.03278179466724396,0.03200681507587433,0.09920448064804077,-0.15333370864391327,-0.06669122725725174,-0.017506549134850502,-0.10913132131099701,0.1809009462594986,0.11008386313915253,0.0873749703168869,-0.06942799687385559,0.05253610014915466,-0.050925347954034805,0.009323392994701862,0.056792423129081726,-0.14416489005088806,-0.036702003329992294,-0.16237223148345947,0.06703245639801025,-0.013359131291508675,-0.21545720100402832,0.02356545440852642,-0.10942152142524719,-0.009962511248886585,0.07479017972946167,0.13398054242134094,0.15025079250335693,-0.029038745909929276,0.0008657386642880738,0.06768735498189926,0.1938360184431076,-0.03700222447514534,-0.15334559977054596,-0.20865251123905182,-0.2098093181848526,0.18475286662578583,0.06131934002041817,0.16980695724487305,0.244098961353302,-0.09183768182992935,-0.02822396345436573,0.26583170890808105,0.0671074166893959,-0.11338470876216888,-0.10642925649881363,0.14703334867954254,0.04452846199274063,0.07902561873197556,-0.03923976793885231,-0.034377459436655045,-0.18245960772037506,-0.07910089194774628,0.11130160838365555,-0.0007075584144331515,-0.12193254381418228,0.07092797011137009,-0.21370284259319305,0.20167796313762665,-0.1617187261581421,0.07473836839199066,-0.08169388025999069,-0.07835575193166733,0.21128986775875092,-0.07712223380804062,0.43559616804122925,0.09223254770040512,0.11685915291309357,0.05730418488383293,0.06388048082590103,-0.06944885104894638,-0.14413301646709442,0.06743553280830383,-0.06804265826940536,-0.01192525215446949,-0.0907953679561615,-0.2403937429189682,-0.03221767768263817,0.4065781235694885,-0.47853031754493713,0.2379460483789444,-0.12184100598096848,-0.011140843853354454,0.003771210787817836,-0.118289515376091,-0.1878131777048111,0.17511233687400818,-0.42904549837112427,0.3004334270954132,-0.14639277756214142,-0.27453458309173584,0.05942435562610626,-0.05778394639492035,-0.04592009261250496,0.13334855437278748,-0.06203318387269974,0.0018982139881700277,-0.1575251668691635,0.12903954088687897,-0.1126013696193695,0.16022329032421112,-0.05759124830365181,-0.012676031328737736,-0.1301679015159607,0.14438359439373016,0.004845587071031332,-0.07066017389297485,-0.03755689412355423,-0.10432257503271103,-0.18668736517429352,0.23505739867687225,-0.378471314907074,0.01994592323899269,-0.1742590367794037,-0.09237777441740036,-0.18026553094387054,0.018035905435681343,-0.1131991371512413,-0.06117201969027519,0.11587393283843994,-0.041011590510606766,-0.360194593667984,0.2568413019180298,-0.05709376931190491,0.19328267872333527,0.06401370465755463,-0.049302611500024796,-0.027860552072525024,-0.2183089256286621,-0.09524420648813248,0.16663944721221924,-0.06848782300949097,-0.12513461709022522,-0.016419604420661926,0.044014640152454376,-0.24930526316165924,-0.007298824843019247,-0.022707009688019753,-0.07776974141597748,-0.0076085529290139675,-0.004818929359316826,0.15877501666545868,0.03191119804978371,-0.013775649480521679,-0.10608827322721481,0.18976405262947083,0.18068437278270721,0.08542982488870621,0.0875692367553711,0.09905185550451279,-0.11153864115476608,0.02650138922035694,0.1988128423690796,0.16562919318675995,-0.15898053348064423,-0.0698641762137413,-0.009301718324422836,-0.03489077463746071,-0.11170582473278046,-0.08014702796936035,-0.04001179710030556,-0.1220061406493187,-0.10105548053979874,0.006343488115817308,0.021960200741887093,-0.05502019822597504,-0.04989378899335861,0.02767961658537388,-0.10205334424972534,-0.0035957209765911102,-0.08904028683900833,-0.07377459853887558,-0.089069664478302,-0.021923478692770004,0.21423663198947906,-0.2835560441017151,-0.22776421904563904,-0.017395038157701492,0.050447095185518265,-0.15434126555919647,-0.10669143497943878,0.14655214548110962,0.13979731500148773,-0.17363587021827698,0.14827147126197815,-0.07902578264474869,-0.3029116690158844,0.036817602813243866,0.1770670861005783,0.04135742038488388,0.10602492839097977,-0.024602478370070457,-0.09711576998233795,-0.02280563861131668,0.16969332098960876,0.18157124519348145,0.11449936777353287,0.013698242604732513,0.08345003426074982,-0.14713215827941895,-0.04175746440887451,-0.07316245883703232,0.019839037209749222,-0.14841680228710175,-0.11957307159900665,0.045333463698625565,-0.041900958865880966,-0.21960070729255676,0.2597563564777374,0.23195524513721466,-0.11388423293828964,-0.018663302063941956,0.1308440864086151,0.08284749835729599,0.03709623962640762,-0.05508275330066681,0.014419486746191978,-0.017116356641054153,-0.12966202199459076,-0.24603375792503357,0.09520138055086136,0.20416514575481415,-0.1330748200416565,0.17738571763038635,0.034872520714998245,0.13350710272789001,-0.01513675693422556,-0.10139544308185577,0.13760417699813843,0.07240313291549683,-0.060979221016168594,0.1113022193312645,-0.07997819036245346,-0.08636303246021271,0.27993834018707275,0.2092386782169342,-0.028475012630224228,-0.1302768439054489,-0.12106741219758987,0.16905562579631805,0.0190776064991951,-0.11110610514879227,-0.07184742391109467,-0.1805787980556488,-0.08181893825531006,0.10459361970424652,-0.07372446358203888,0.09807973355054855,0.050572533160448074,-0.07288173586130142,0.02121349424123764,-0.10457772761583328,0.19753628969192505,0.1731971800327301,0.05027555301785469,0.08503690361976624,-0.20009134709835052,-0.03436807170510292,0.10576242953538895,-0.17137077450752258,0.018716827034950256,0.002303886925801635,-0.071485735476017,-0.12971702218055725,0.16859674453735352,-0.0171232707798481,0.0060852221213281155,0.07549616694450378,0.2431032657623291,0.1277480125427246,-0.028752148151397705,-0.45593270659446716,0.2862372398376465,-0.035731956362724304,0.06842799484729767,0.010987015441060066,0.058338019996881485,-0.20543020963668823,0.2767076790332794,-0.17241360247135162,0.29544633626937866,0.028112512081861496,-0.2070152908563614,0.10922438651323318,0.23559348285198212,0.012198771350085735,0.15743301808834076,-0.24423916637897491,-0.11101825535297394,-0.011434483341872692,0.12301366031169891,0.16372458636760712,0.11444974690675735,-0.20157919824123383,-0.06644254922866821,-0.23727311193943024,0.23231162130832672,0.11693445593118668,-0.17857874929904938,-0.015150139108300209,-0.0808500275015831,-0.105429507791996,0.12170416116714478,-0.09106376022100449,0.3337647020816803,0.15398931503295898,-0.18053793907165527,-0.08634795993566513,0.1304512321949005,0.04031700640916824,0.01979288086295128,-0.021266937255859375,-0.08886946737766266,-0.18409889936447144,0.05802992731332779,-0.10602223128080368,-0.035416532307863235,0.05345100164413452,-0.19175244867801666,-0.04726623371243477,0.006893135141581297,0.048691991716623306,0.11307871341705322,-0.11476220935583115,0.016342151910066605,-0.035515155643224716,0.019117530435323715,0.03283963352441788,-0.04998200386762619,-0.09944558143615723,0.17726926505565643,0.33191806077957153,-0.10433521121740341,0.03666888177394867,0.03829582780599594,-0.049214668571949005,0.10400572419166565,-0.00914392713457346,0.052112143486738205,-0.08729144930839539,0.060149528086185455,-0.07095584273338318,0.13806119561195374,-0.21026264131069183,-0.08444785326719284,-0.3215044140815735,-0.1482275277376175,0.16328968107700348,0.11996070295572281,-0.0016743151936680079,0.11927799135446548,0.17740820348262787,0.040620267391204834,-0.11966560035943985,0.20849497616291046,-0.008875486440956593,0.013133649714291096,0.06070859730243683,-0.10830719769001007,-0.07034683227539062,-0.04583221673965454,-0.09597379714250565,-0.1340600848197937,0.40251052379608154,0.10014607757329941,0.15367496013641357,0.29317528009414673,-0.0979420617222786,-0.09512178599834442,0.007899895310401917,0.05639505386352539,0.031251754611730576,0.04216304421424866,0.032087091356515884,0.18635578453540802,-0.2532857656478882,0.45471736788749695,0.14337505400180817,-0.286178857088089,0.1178925484418869,0.0063764858059585094,-0.02998962625861168,-0.09956365078687668,-0.12852206826210022,-0.00597945274785161,0.08012167364358902,-0.09057930111885071,0.03412679210305214,-0.20159201323986053,-0.29912659525871277,-0.07634548097848892,-0.13753673434257507,0.05371706560254097,0.026586949825286865,0.014662607572972775,0.26282575726509094,0.03852110356092453,0.12786781787872314,0.05800122395157814,-0.4027128219604492,0.2525630593299866,0.11969306319952011,-0.11093766242265701,-0.06547028571367264,0.17882493138313293,-0.025281189009547234,0.07550617307424545,-0.08275839686393738,0.05215542018413544,-0.15478311479091644,0.11662514507770538,-0.152271568775177,0.2484140694141388,0.1370968222618103,-0.053222350776195526,0.016163811087608337,0.03511710837483406,0.06637120246887207,-0.0626828521490097,0.056852780282497406,0.04205828532576561,0.0393504872918129,-0.005843620281666517,-0.048149168491363525,0.01920834556221962,0.06107743829488754,0.07590693235397339,-0.034047454595565796,0.022583279758691788,-0.2603176534175873,-0.6985300183296204,0.44877853989601135,0.43232792615890503,-1.237937331199646,0.4696948230266571,-1.233514428138733,-0.08459819108247757,-0.16807805001735687,0.6095700263977051,-1.6882035732269287,-0.32544219493865967,-0.8861272931098938,0.012066303752362728,-1.379760980606079,0.1376551389694214,-1.3895821571350098,-0.15290039777755737,0.09597571194171906,0.048701319843530655,0.5240091681480408,0.10818155109882355,0.028031475841999054,0.17786596715450287,0.29578879475593567,-0.4624575972557068,0.1927262842655182,0.4486089050769806,0.5995383858680725,-0.3536464273929596,0.4690423905849457,-0.4174640476703644,-0.11435823887586594,0.09083212912082672,-0.16395549476146698,-0.012269854545593262,-0.48562636971473694,-0.24042728543281555,0.060561586171388626,-0.04062718152999878,-0.1197286993265152,-0.06420408934354782,-0.14126519858837128,0.22788375616073608,0.19470563530921936,-0.027282241731882095,0.0013870010152459145,-0.13826711475849152,0.28537678718566895,0.07627686858177185,-0.11476057767868042,-0.14689096808433533,0.17199856042861938,-0.10719083249568939,0.13741490244865417,0.05738857015967369,0.21284060180187225,-0.10420776903629303,0.20388135313987732,-0.03800107538700104,-0.13136792182922363,-0.13903376460075378,0.3077704906463623,0.049263082444667816,0.12389300763607025,-0.0723280981183052,-0.14546819031238556,-0.5564584732055664,-0.5335122346878052,-0.24395211040973663,0.004285088740289211,-0.3881419003009796,-0.31835147738456726,0.3053613007068634,0.04326561465859413,-0.32877764105796814,0.08296379446983337,0.4235803186893463,-0.0834186002612114,0.10922729223966599,-0.21650075912475586,0.49268805980682373,0.36635035276412964,-0.41517752408981323,-0.6376267671585083,0.07157552987337112,0.034266307950019836,0.0914321169257164,0.3698273301124573,-0.4207339286804199,-0.138040229678154,0.39199018478393555,0.3297850489616394,-0.4262595474720001,-0.16370366513729095,-0.3936213552951813,-0.08651071041822433,-0.22699902951717377,0.11442769318819046,-0.20607885718345642,-0.06192179396748543,0.046037185937166214,-0.22012794017791748,0.12052063643932343,0.030288126319646835,-0.14514148235321045,0.13357792794704437,0.16801247000694275,0.11254888772964478,-0.24724769592285156,-0.08865050226449966,-0.1551932394504547,0.09061124920845032,0.35320764780044556,-0.2075570970773697,0.10275109112262726,-0.07961028814315796,0.005757646169513464,0.5576760172843933,-0.43775227665901184,-0.36988210678100586,0.2680211663246155,0.10763013362884521,-0.3429873585700989,-0.07598937302827835,0.2590755820274353,0.1316065490245819,0.22482824325561523,0.586998462677002,0.3079962134361267,0.1122969463467598,-0.05944913253188133,0.8961076140403748,0.003961424343287945,-0.031915199011564255,0.009630244225263596,0.13476501405239105,-0.010151966474950314,0.5487511157989502,-0.1846693456172943,0.11798539012670517,-0.23504887521266937,0.3848046064376831,0.1241181492805481,0.37903040647506714,-0.090708427131176,0.3656347692012787,-0.3809071481227875,0.31287407875061035,-0.19269607961177826,-0.24240082502365112,0.1998370736837387,0.03441421315073967,-0.06906905770301819,0.28039634227752686,0.2914170026779175,0.08481438457965851,-0.3527820110321045,0.42702728509902954,-0.01739409565925598,0.2266903966665268,-0.04940563440322876,0.20418745279312134,-0.25047698616981506,0.11732693016529083,-0.04498283937573433,-0.32770705223083496,0.2553066611289978,0.044382356107234955,-0.18119598925113678,0.14957976341247559,0.26182135939598083,0.3591907024383545,-0.07955336570739746,0.1429215669631958,-0.01563923805952072,0.20740436017513275,-0.1859598457813263,0.2324906587600708,-0.19913262128829956,0.3178074061870575,0.16097363829612732,-0.146802619099617,0.2528302073478699,0.15979541838169098,-0.17512305080890656,0.3090820908546448,0.0495743565261364,0.3403024971485138,-0.23331016302108765,0.230724036693573,-0.2418474555015564,-0.12436314672231674,0.2120647132396698,0.4526906907558441,-0.6902828216552734,-0.04089659824967384,-0.46850427985191345,-0.0818268433213234,0.1957266479730606,0.34510162472724915,-0.6739798188209534,0.1374988853931427,0.5593523383140564,-0.1270742267370224,-0.20824535191059113,0.01924905553460121,-0.15629702806472778,-0.06805630028247833,0.1090724989771843,-0.07350162416696548,-0.415535569190979,0.024896712973713875,-0.19736886024475098,-0.0884261429309845,0.048566464334726334,0.2970103621482849,-0.31908679008483887,0.21159599721431732,-0.0860300362110138,-0.11035232990980148,0.04933851212263107,0.08116453140974045,-0.16744886338710785,0.013178680092096329,0.2012072056531906,-0.2596908509731293,-0.1386997252702713,0.5735520720481873,-0.31420356035232544,0.20447862148284912,-0.013523857109248638,-0.050614092499017715,0.19395673274993896,0.3117366433143616,0.015878142789006233,-0.06792233139276505,0.2466932237148285,0.2523738443851471,0.18743669986724854,-0.07969435304403305,0.02388411946594715,0.11576368659734726,-0.10134300589561462,0.19388265907764435,-0.21301601827144623,-0.11006075888872147,0.12913233041763306,-0.03406604006886482,0.0191687922924757,0.12829013168811798,-0.13136054575443268,0.010641101747751236,-0.10384958237409592,0.15930768847465515,0.2479260116815567,-0.0020115904044359922,0.29102838039398193,-0.34177136421203613,-0.48411479592323303,-0.10871189832687378,-0.5963109135627747,-0.02844318561255932,-0.0391857847571373,0.3399815559387207,-0.035090960562229156,0.008321670815348625,0.29469141364097595,0.16762475669384003,-0.3599570393562317,0.4549584686756134,-0.30080774426460266,-0.1212562769651413,-0.073684461414814,0.035324208438396454,0.02407289296388626,-0.031613390892744064,0.03637833148241043,0.04386821389198303,0.13237211108207703,0.1122286394238472,0.07072176039218903,0.03709801658987999,-0.002704569837078452,-0.009273465722799301,0.014346790499985218,-0.12967543303966522,-0.051430169492959976,-0.015301156789064407,-0.015453435480594635,-0.08528381586074829,-0.19675737619400024,-0.06215628236532211,-0.16974203288555145,-0.04899727180600166,0.010790688917040825,0.0433269627392292,0.04969675466418266,0.2440197467803955,-0.21810077130794525,-0.21958298981189728,0.24643239378929138,-0.12664422392845154,-0.210492342710495,0.11728318780660629,0.06547819077968597,-0.04052560403943062,-0.21058596670627594,-0.07817260175943375,0.059877753257751465,0.3332165777683258,0.19495150446891785,-0.30324140191078186,-0.10252823680639267,0.08952686190605164,0.10549786686897278,-0.06914759427309036,-0.002124554244801402,0.03358618915081024,-0.5015975832939148,-0.06653709709644318,0.04821423813700676,-0.016514964401721954,-0.18237417936325073,-0.22759875655174255,0.024214426055550575,-0.05640551820397377,0.1342296600341797,-0.14576326310634613,0.0302768312394619,-0.06791863590478897,-0.017927521839737892,-0.014242524281144142,-0.16780602931976318,0.19770127534866333,-0.3079727590084076,-0.4444049894809723,0.20848242938518524,-0.2402949184179306,0.312135249376297,0.03720873221755028,0.28225305676460266,-0.13075385987758636,0.16546449065208435,-0.038670849055051804,0.0635640025138855,0.011201887391507626,0.0017122282879427075,0.3646116554737091,0.320328950881958,0.012840545736253262,0.2883317768573761,-0.07392687350511551,0.06238166242837906,-0.08866481482982635,0.06259500980377197,-0.1395716816186905,0.016922397539019585,-0.2797599136829376,-0.6381109952926636,0.023365512490272522,0.14072690904140472,-0.27355554699897766,-0.08380083739757538,0.03596872091293335,-0.008800637908279896,0.26714232563972473,0.2035955935716629,-0.23782067000865936,0.026462381705641747,0.1529206484556198,-0.3996610641479492,0.4834165573120117,0.036697544157505035,0.10620825737714767,-0.029429495334625244,0.05815011262893677,-0.08992566168308258,-0.06456215679645538,0.11868645995855331,-0.12482120841741562,0.15393154323101044,0.565656840801239,-0.26990991830825806,0.6047280430793762,-0.07013407349586487,0.04111015424132347,-0.10186555981636047,0.23724187910556793,0.034723736345767975,-0.11141365021467209,0.2208157330751419,0.0530443899333477,-0.002234997693449259,-0.05973438918590546,0.15590107440948486,-0.20612221956253052,-0.16519127786159515,0.060706235468387604,0.15216071903705597,-0.02007335238158703,-0.004696369171142578,0.1223340556025505,0.11083751171827316,0.06756595522165298,-0.13350823521614075,-0.11952696740627289,0.06566501408815384,0.20364437997341156,0.06781969964504242,0.035112835466861725,-0.10334412753582001,0.00919431447982788,0.08648761361837387,0.08871964365243912,-0.01417392399162054,-0.012360997498035431,-0.35248205065727234,-0.16575025022029877,0.2189486026763916,-0.02562865987420082,0.24304942786693573,0.029841547831892967,-0.10983122885227203,0.06789547204971313,0.009324758313596249,-0.13145193457603455,0.13650108873844147,-0.022069014608860016,-0.15353231132030487,-0.30542781949043274,0.3345611095428467,0.10897897183895111,-0.15764738619327545,-0.08153020590543747,0.29589158296585083,0.06694848090410233,0.08849514275789261,-0.18596838414669037,0.2615446150302887,0.13657423853874207,-0.3281831443309784,0.042107708752155304,0.09340272098779678,-0.20539917051792145,-0.09321925044059753,-0.05889115482568741,-0.07291039824485779,-0.18951952457427979,-0.06609737128019333,0.3414687216281891,0.3177530765533447,-0.000878897204529494,-0.3393573462963104,-0.17418436706066132,-0.04296144098043442,0.30941346287727356,0.16413822770118713,-0.012718286365270615,-0.10787799209356308,-0.20812052488327026,-0.09944935142993927,0.1736142784357071,0.23661655187606812,-0.007372693158686161,-0.1492374986410141,-0.011222640983760357,-0.13235749304294586,0.029057243838906288,0.2088267207145691,-0.011386459693312645,-0.186125248670578,0.3002813160419464,-0.05317850410938263,-0.15188495814800262,0.2032967507839203,-0.11625096946954727,-0.12511663138866425,-0.13477811217308044,-0.26048341393470764,0.15712258219718933,0.10802891850471497,-0.1841873824596405,-0.07465539127588272,-0.1983952820301056,0.07458938658237457,0.2256973534822464,-0.16718649864196777,0.028569485992193222,0.16759555041790009,0.03517403453588486,0.015633316710591316,-0.2584376037120819,0.015563072636723518,-0.11347915232181549,-0.08572946488857269,0.20126506686210632,0.15770874917507172,-0.22730793058872223,-0.3192923069000244,-0.09518492221832275,0.3264803886413574,0.11458409577608109,-0.008958130143582821,-0.06712070852518082,-0.1471620351076126,-0.13583248853683472,0.3023543357849121,0.20526066422462463,0.1310151070356369,-0.1767244040966034,-0.26486197113990784,-0.06496161222457886,0.30564209818840027,0.11215513944625854,0.0042876387014985085,-0.1696750670671463,-0.2747315466403961,-0.002007128205150366,0.15628226101398468,-0.2219681441783905,-0.11439136415719986,0.363273024559021,-0.18664072453975677,-0.14063319563865662,0.38051658868789673,0.12978418171405792,-0.10233906656503677,-0.10637297481298447,-0.1014808863401413,0.008836526423692703,-0.10224904865026474,0.14535018801689148,-0.019889267161488533,0.05132172256708145,0.0175239946693182,-0.11116468161344528,-0.13493163883686066,-0.06635839492082596,-0.18113864958286285,0.11458571255207062,-0.20805346965789795,0.013070042245090008,0.16247566044330597,-0.2526819407939911,-0.11800786107778549,0.1332341432571411,-0.008664981462061405,0.078455351293087,-0.040591757744550705,-0.24238017201423645,-0.16010916233062744,0.17141617834568024,0.10997775197029114,-0.049473799765110016,-0.1546241194009781,-0.08115021139383316,-0.002258159453049302,0.15085120499134064,0.056038834154605865,-0.079192154109478,-0.06830886006355286,-0.10634851455688477,0.1782027781009674,0.1688353717327118,0.2317420244216919,-0.11011455953121185,-0.14064353704452515,0.04969172179698944,0.005853333044797182,-0.06795847415924072,0.06872829049825668,-0.024675164371728897,-0.1372908055782318,-0.07897056639194489,0.1694270670413971,0.27393603324890137,-0.2233034074306488,-0.024023374542593956,-0.053394295275211334,0.12643016874790192,-0.12366089969873428,0.013274948112666607,0.2763497829437256,-0.09952294081449509,-0.07388582825660706,-0.07020439952611923,0.2273285835981369,-0.001943251583725214,-0.26760581135749817,0.0810832530260086,-0.055408503860235214,-0.29864755272865295,0.1185649037361145,-0.11844170838594437,0.08546093851327896,-0.12623146176338196,-0.10062088817358017,0.23830118775367737,0.2049139142036438,-0.19337041676044464,0.08529407531023026,-0.07687024772167206,0.16488763689994812,-0.1722712516784668,0.1972276270389557,-0.1199723482131958,-0.045446064323186874,0.18481585383415222,-0.08109433203935623,-0.16972264647483826,-0.1964745670557022,-0.07535848766565323,0.0405605174601078,-0.22442400455474854,0.02187647484242916,0.1879652738571167,-0.14826874434947968,0.1307692527770996,0.05099403113126755,-0.04826474189758301,0.1630925089120865,0.30917030572891235,-0.21812383830547333,0.08205066621303558,-0.02706662006676197,-0.38813209533691406,0.027004560455679893,0.038340695202350616,0.4052547216415405,-0.017323579639196396,-0.13040414452552795,-0.015497429296374321,0.01867077872157097,0.07953981310129166,0.8377401232719421,-0.47347620129585266,-0.4744843542575836,0.49589112401008606,-0.28900817036628723,-0.05078171566128731,0.020064959302544594,0.07295125722885132,-0.08571439236402512,0.10347364097833633,-0.023587249219417572,-0.21015356481075287,-0.5106287598609924,0.47664955258369446,-0.1323326826095581,-0.07963870465755463,0.28300514817237854,-0.21044059097766876,-0.24745824933052063,0.1626560240983963,0.1892126500606537,-0.5322506427764893,0.36689266562461853,-0.13312721252441406,-0.039285045117139816,-0.08940008282661438,0.0665479302406311,0.10588954389095306,0.25515708327293396,-0.11169909685850143,-0.13687512278556824,0.15566430985927582,-0.04525948688387871,-0.19787423312664032,0.0249270498752594,-0.22162851691246033,0.11231368780136108,0.28184938430786133,0.07576942443847656,-0.4129687249660492,0.02774040214717388,-0.14944025874137878,0.06381954997777939,0.10833000391721725,-0.2654651701450348,0.11469675600528717,-0.03177546337246895,-0.16462989151477814,0.5986865162849426,-0.21931390464305878,0.10248200595378876,0.22427569329738617,-0.024130288511514664,0.173223078250885,-0.13624148070812225,-0.10060673207044601,-0.17733533680438995,0.06404365599155426,0.05574565753340721,0.0510699637234211,-0.28371521830558777,-0.019120993092656136,-0.02968665398657322,-0.008248897269368172,-0.027765177190303802,0.37757420539855957,-0.050053197890520096,-0.06085551157593727,-0.12267541885375977,-0.006117356009781361,-0.08068404346704483,0.5084167718887329,0.30889132618904114,-0.1309376060962677,-0.3697633743286133,0.26576244831085205,0.030310282483696938,-0.1850116103887558,0.11183075606822968,0.19622786343097687,0.11187411844730377,0.19647596776485443,-0.005279524717479944,0.08505605161190033,0.3783910274505615,-0.14055627584457397,-0.09808455407619476,-0.10243801027536392,-0.16807980835437775,0.0075646149925887585,0.13392117619514465,0.16617286205291748,-0.07696641981601715,0.030348539352416992,0.2810235619544983,-0.08902155607938766,0.17640042304992676,0.09979087114334106,0.17122742533683777,0.0993419885635376,0.022069772705435753,0.08619683235883713,0.006531750783324242,-0.23177115619182587,-0.20622915029525757,0.038129597902297974,0.005445658229291439,0.19917185604572296,-0.2768915593624115,-0.2924962341785431,-0.10306304693222046,-0.10608179122209549,0.22141394019126892,0.3109525442123413,-0.1165197491645813,-0.19211354851722717,0.017202334478497505,-0.018690599128603935,0.1696743369102478,-0.0030383963603526354,0.19478867948055267,-0.10940155386924744,-0.09944995492696762,0.04448973014950752,0.13995671272277832,-0.13706791400909424,-0.10014734417200089,0.20316332578659058,-0.14998172223567963,0.14122380316257477,0.06952257454395294,0.12865276634693146,0.12010698765516281,-0.2395378053188324,0.009186800569295883,0.13387753069400787,0.21401897072792053,0.06936627626419067,0.09974844008684158,0.055077746510505676,0.1638130098581314,0.12663914263248444,0.04073623567819595,0.26848191022872925,0.3445311486721039,0.20723143219947815,0.187545046210289,0.0788382738828659,0.11703324317932129,-0.031816091388463974,-0.026645047590136528,0.08370547741651535,0.14713793992996216,0.13139905035495758,-0.23618724942207336,-0.16130951046943665,-0.105581134557724,-0.031253840774297714,0.021646881476044655,0.18017129600048065,-0.032492779195308685,-0.12888257205486298,0.017408855259418488,0.1596473753452301,0.204025000333786,0.0364764966070652,0.07834862917661667,0.010027746669948101,0.15645553171634674,0.26861146092414856,0.15645505487918854,0.06324224174022675,-0.07389417290687561,0.16188134253025055,-0.11144070327281952,-0.1889062523841858,0.0404328927397728,0.2549729347229004,-0.1691058874130249,-0.02532912604510784,0.11417851597070694,0.2036002278327942,-0.02518702670931816,-0.10080669075250626,0.11781837791204453,0.048308875411748886,-0.11371351778507233,0.17410410940647125,-0.035389237105846405,-0.16172568500041962,0.21911872923374176,-0.07605361938476562,0.1180122047662735,0.169487863779068,0.16571412980556488,-0.03618498519062996,-0.035033535212278366,0.015643486753106117,0.0510069839656353,-0.17554599046707153,-0.08347544074058533,-0.01490901317447424,0.21735644340515137,0.30871888995170593,0.04085323587059975,-0.20759597420692444,-0.1958569884300232,-0.1443309187889099,0.05060343071818352,-0.04771837219595909,0.02237294428050518,-0.2805117964744568,-0.1869664490222931,-0.158272847533226,0.12749862670898438,0.028404513373970985,-0.25787827372550964,0.1604396253824234,0.008037703111767769,-0.1121508926153183,0.06740882992744446,-0.08892353624105453,-0.20332291722297668,0.3427286744117737,-0.19790367782115936,-0.398992657661438,0.33632564544677734,-0.04690229892730713,-0.39352959394454956,0.08451765775680542,-0.15219518542289734,-0.1082434430718422,0.054399069398641586,0.12148772180080414,0.16476327180862427,-0.20263510942459106,-0.003007559571415186,-0.009203690104186535,-0.09242405742406845,0.2482767105102539,0.09697263687849045,-0.14912152290344238,-0.03560289368033409,0.26623034477233887,-0.004626405891031027,-0.03855335712432861,-0.13377977907657623,0.19876785576343536,-0.01890595629811287,0.2871304750442505,-0.17067192494869232,-0.19643722474575043,-0.34806162118911743,-0.07300824671983719,0.05550355091691017,0.06940382719039917,-0.1595936417579651,-0.16393238306045532,-0.022535063326358795,0.17110969126224518,0.16116145253181458,0.18230624496936798,-0.2645866274833679,-0.008148281835019588,0.2119518369436264,-0.2285313457250595,-0.023552782833576202,0.17392565310001373,-0.16709206998348236,0.07626070827245712,0.15408536791801453,-0.20951005816459656,0.03857745975255966,0.2637699246406555,-0.4031091630458832,0.05586946755647659,0.37137430906295776,-0.5074074864387512,-0.04554402828216553,0.0753825306892395,0.12391853332519531,0.26091769337654114,-0.05478763207793236,-0.09040122479200363,0.2597045302391052,0.053425949066877365,-0.1556856632232666,0.14859767258167267,-0.22173887491226196,-0.040971431881189346,0.1046702191233635,0.18563731014728546,0.18726393580436707,-0.15435890853405,-0.0933387279510498,-0.008441152051091194,0.1430373191833496,-0.04021448269486427,-0.11000555753707886,-0.18779811263084412,-0.041338592767715454,-0.03701886534690857,0.0361260250210762,0.020578019320964813,-0.060714490711688995,-0.06485065072774887,-0.08151896297931671,0.24474693834781647,0.14958293735980988,-0.1271134316921234,-0.136748805642128,-0.09918256103992462,0.10898266732692719,0.20940864086151123,0.017283804714679718,0.013933784328401089,-0.10920415073633194,0.18902495503425598,0.09924609959125519,-0.1889859288930893,0.09826865047216415,0.07292069494724274,-0.01676368899643421,-0.05325085669755936,0.07629336416721344,0.2935068607330322,0.2003958821296692,0.0585838258266449,-0.0008725745719857514,0.05294889211654663,0.04344965144991875,0.0908600389957428,-0.09587619453668594,0.07597595453262329,0.0852455198764801,-0.42630231380462646,-0.36282968521118164,-0.14217440783977509,0.39150574803352356,-0.19664612412452698,0.27694573998451233,0.07442555576562881,-0.1829511672258377,-0.29184654355049133,-0.0897328183054924,0.18195803463459015,0.054917462170124054,0.17149606347084045,0.05576854199171066,-0.03739876672625542,-0.0018675860483199358,-0.08085115253925323,0.01573723740875721,0.07311506569385529,-0.1663922816514969,-0.10725633054971695,-0.3807840347290039,-0.10721728205680847,-0.365241676568985,0.13144609332084656,-0.13604287803173065,-0.19264386594295502,-0.2007533460855484,-0.043095607310533524,-0.04060491919517517,-0.26389989256858826,-0.09744855761528015,0.045205097645521164,-0.174915611743927,-0.19585642218589783,-0.09845037013292313,0.19682647287845612,-0.004029073752462864,-0.020861877128481865,0.02143612876534462,-0.10751587897539139,0.060027968138456345,-0.12073259055614471,0.0336218997836113,0.18757154047489166,-0.2321464568376541,-0.0429978184401989,0.2020815908908844,-0.2697996497154236,0.3838530480861664,0.003601971548050642,-0.24931646883487701,0.21251130104064941,-0.02776007354259491,0.23478281497955322,0.0992889329791069,-0.18294773995876312,-0.012920349836349487,-0.017150569707155228,0.19076654314994812,0.18208304047584534,0.030754469335079193,0.009664422832429409,-0.1368759125471115,-0.1808885782957077,0.1262441873550415,-0.05901113897562027,0.10393109917640686,-0.06799811869859695,-0.13098300993442535,-0.19910742342472076,0.22830845415592194,-0.25309449434280396,0.06457732617855072,0.15739531815052032,-0.2804645299911499,0.05035404488444328,-0.024800727143883705,-0.12204444408416748,0.006273981649428606,0.0970134362578392,-0.03527888283133507,-0.20573362708091736,0.10008131712675095,-0.27573680877685547,-0.1561823934316635,0.14685432612895966,0.04715966060757637,0.020492006093263626,0.030433345586061478,0.01717281900346279,-0.007808714173734188,0.03221800923347473,-0.010114478878676891,0.0015545468777418137,-0.013158654794096947,-0.014643975533545017,0.049892671406269073,-0.017362209036946297,-0.009957675822079182,0.025651903823018074,-0.041611652821302414,0.014008077792823315,0.4081639349460602,-0.7156493663787842,1.1396586894989014,0.4302828907966614,-0.5186947584152222,0.19829779863357544,-0.5369267463684082,0.07674078643321991,0.7307860255241394,-0.9916114807128906,0.802619457244873,0.6907138824462891,0.20962701737880707,-0.5688360333442688,0.4943004548549652,-0.787198543548584,0.1752917766571045,-0.09030810743570328,0.1142510250210762,-0.5934930443763733,0.8146429061889648,0.33354732394218445,0.5565075278282166,-0.04166225716471672,-0.37930193543434143,-0.09098441898822784,0.04950053617358208,0.29368653893470764,-0.23232929408550262,0.15006814897060394,-0.19502170383930206,-0.16838954389095306,0.25883492827415466,-0.22380129992961884,-0.21607095003128052,0.2829147279262543,-0.11324338614940643,-0.29453244805336,-0.24636726081371307,-0.29188206791877747,-0.5066801309585571,0.38436776399612427,-0.13077028095722198,-0.3281182050704956,0.2700014114379883,0.1189650222659111,0.35514044761657715,-0.041495367884635925,-0.15776945650577545,-0.18082648515701294,-0.15384402871131897,-0.6825031042098999,0.9213587641716003,-0.21275174617767334,-0.11031626164913177,-0.0029642940498888493,0.0646008849143982,0.22459159791469574,-0.439262717962265,0.11313401162624359,0.07700014859437943,-0.923116147518158,0.05261477828025818,0.5077922344207764,0.39409691095352173,-0.00014175474643707275,-0.1791490763425827,-0.7752202153205872,0.5295295715332031,-0.1460592895746231,-0.6958580613136292,0.06821892410516739,0.8137163519859314,0.3151848316192627,0.10264548659324646,-0.14049991965293884,0.18369214236736298,-0.39623498916625977,0.3521248400211334,-0.32278797030448914,0.13461749255657196,-0.08550640940666199,0.593799889087677,-0.3564465343952179,0.3528822660446167,-0.038549382239580154,0.442615270614624,0.13319925963878632,-0.1902897208929062,-0.12783686816692352,-0.8737835884094238,0.1855269968509674,-0.23589132726192474,-0.5017748475074768,-0.018764913082122803,0.19317328929901123,-0.27372947335243225,0.18698270618915558,0.21769782900810242,0.27614229917526245,-0.44887664914131165,-0.05745047330856323,0.279138445854187,0.018165066838264465,-0.09892049431800842,-0.3882941007614136,-0.1487933248281479,0.19925977289676666,-0.08121179044246674,0.1535140573978424,0.451629102230072,0.09365908056497574,0.07692046463489532,0.10237979143857956,-0.43338969349861145,-0.43259957432746887,0.5532484650611877,-0.21097534894943237,-0.10054479539394379,-0.09897205233573914,-0.16944292187690735,0.35124585032463074,0.2526077628135681,-0.46151962876319885,0.1539684385061264,0.11241719871759415,0.013520543463528156,0.0777561217546463,0.05409175157546997,0.5811707973480225,-0.12519659101963043,-0.09421475976705551,0.3091844618320465,-0.07384245097637177,-0.0009289493318647146,-0.13946068286895752,0.04405936971306801,0.08200755715370178,-0.127034530043602,0.2066950649023056,0.23684926331043243,-0.0233805812895298,0.23150645196437836,-0.040335606783628464,-0.14922921359539032,0.5041752457618713,-0.47390511631965637,-0.16540654003620148,1.0604705810546875,-0.4921739101409912,0.006718358024954796,-0.09153759479522705,-0.2637224793434143,0.0833287462592125,-0.1189451739192009,0.38836756348609924,-0.5555853247642517,-0.30594882369041443,0.2715905010700226,0.29877665638923645,0.14908282458782196,0.13308307528495789,-0.21265393495559692,0.8358326554298401,-0.540005624294281,0.26686015725135803,0.14069537818431854,-0.09316122531890869,-0.2931671142578125,-0.11395321786403656,0.16314424574375153,0.07105807960033417,-0.0016474827425554395,-0.03658595681190491,0.1119341030716896,-0.0807066559791565,0.313915878534317,-0.008431263267993927,-0.0926908403635025,-0.22284775972366333,0.34742462635040283,-0.3544527292251587,0.09411236643791199,-0.06987182796001434,0.006548881996423006,0.1192023903131485,-0.5018888115882874,-0.27246853709220886,0.31053516268730164,-0.5368313193321228,0.19141843914985657,0.29282447695732117,-0.0814841240644455,0.3927064538002014,0.11437469720840454,0.2045051008462906,-0.04334481433033943,0.38666093349456787,0.7547548413276672,-0.26810047030448914,-0.8326799869537354,-0.6605680584907532,-0.2018723338842392,0.8063925504684448,-0.4547203481197357,0.06339839100837708,-0.3893372416496277,0.10314317047595978,-0.19835123419761658,-0.18119663000106812,-0.5412285327911377,-1.0769091844558716,0.9509540796279907,-0.28137755393981934,-0.4288342297077179,-0.4087953269481659,0.24768304824829102,0.4762161076068878,-0.4390262961387634,0.2277173399925232,-0.145304873585701,-0.2893943190574646,0.4358910024166107,0.29501330852508545,-0.22295942902565002,0.4133666753768921,-0.5652232766151428,-0.2116699516773224,0.25156906247138977,-0.3028172254562378,0.29840418696403503,0.034914933145046234,-0.13744986057281494,0.18334917724132538,0.4176633059978485,0.010619379580020905,-0.08385404944419861,0.16541825234889984,0.03128930926322937,-0.13506442308425903,0.10576817393302917,0.5292191505432129,-0.5886608958244324,0.26911234855651855,-0.38260161876678467,-0.5828051567077637,0.12149431556463242,-0.2548047602176666,-0.07077208906412125,0.16934619843959808,0.12830966711044312,0.13475629687309265,-0.29649797081947327,-0.3138561248779297,0.4286217987537384,-0.30191195011138916,-0.02236710488796234,-0.04009341076016426,-0.22385866940021515,-0.45145899057388306,0.12938933074474335,-0.23890447616577148,0.13621485233306885,-0.5062965154647827,-0.29557693004608154,0.1173926591873169,0.06724254041910172,0.15759216248989105,-0.07088307291269302,-0.2894631624221802,-0.07201118022203445,0.04618610069155693,-0.011471333913505077,0.04429534822702408,0.05050399899482727,0.050770025700330734,-0.0006458427524194121,-0.003065784927457571,0.08581962436437607,0.008831731975078583,0.007111530750989914,-0.047217223793268204,-0.008496865630149841,-0.04390181228518486,0.1044335886836052,0.10430178046226501,0.042928896844387054,0.016076121479272842,-0.13113217055797577,-0.08246324211359024,-0.5293561220169067,0.3330248296260834,0.12845401465892792,0.07367108762264252,0.4355681538581848,0.24713034927845,-0.7745793461799622,-0.25047576427459717,-0.19518209993839264,-0.23792333900928497,0.06354888528585434,0.04564579203724861,-0.16256873309612274,-0.05601784586906433,-0.07168044149875641,0.6634243726730347,0.38407257199287415,0.07739067822694778,-0.4946455657482147,-0.07870227098464966,0.028311625123023987,-0.11832335591316223,0.19702018797397614,0.06267625093460083,-1.3294756412506104,-0.19163499772548676,-0.057385340332984924,0.4125998318195343,-0.3528035283088684,-0.22811651229858398,-0.5229042768478394,-0.017250683158636093,-0.11756380647420883,-0.49362802505493164,0.290689080953598,0.3176252245903015,-1.1506075859069824,0.2236541211605072,0.03790699318051338,-0.6294279098510742,-0.2928108274936676,-0.6816450357437134,-1.297247290611267,0.18754252791404724,-0.09269316494464874,-0.8413628339767456,-0.3669966459274292,0.194212406873703,-0.14218758046627045,0.3541629910469055,0.06713447719812393,-0.005068400874733925,0.001018616952933371,-0.2542892396450043,-0.04003574326634407,-0.29466429352760315,-0.33190640807151794,0.29523494839668274,-0.2868843972682953,0.10680066049098969,0.26751187443733215,-0.0025579240173101425,0.050917670130729675,0.08614452928304672,0.1438075602054596,0.025352289900183678,-0.13081371784210205,-0.12534624338150024,-0.07780949026346207,-0.10221195220947266,0.12606342136859894,0.19755703210830688,0.021545439958572388,-0.2009141892194748,0.2202751487493515,0.23276753723621368,-0.2958771288394928,0.11642297357320786,0.1696777641773224,0.09435507655143738,0.6927962899208069,0.0302800964564085,-0.002184852957725525,-0.20585651695728302,0.08670806884765625,0.09956619888544083,0.0536581315100193,-0.24387113749980927,0.34514540433883667,-0.031212013214826584,0.18137426674365997,-0.3667033910751343,0.056783873587846756,0.12416314333677292,0.08889088779687881,-0.19036585092544556,-0.12288708984851837,-0.1869851052761078,-0.006057293154299259,0.01589726097881794,-0.11518744379281998,-0.09230195730924606,0.1351180225610733,-0.1888195425271988,0.08547928929328918,-0.0020024890545755625,0.1622781753540039,0.023176997900009155,0.11720836162567139,-0.1489226520061493,-0.05348395183682442,0.01375727541744709,0.09589599072933197,0.1784115880727768,-0.00952683575451374,0.000493826752062887,-0.05168857425451279,0.17815284430980682,-0.13828636705875397,0.057162392884492874,0.06354131549596786,-0.14896336197853088,-0.1348332315683365,0.058451876044273376,-0.11272816359996796,-0.03947778046131134,-0.018911613151431084,-0.01692632958292961,-0.07952482253313065,-0.08587834239006042,-0.08133905380964279,-0.05508039891719818,-0.016516361385583878,-0.017848903313279152,0.06502894312143326,-0.05411774665117264,-0.2609730064868927,0.10769163072109222,-0.07229751348495483,-0.09286688268184662,0.08079744130373001,0.06846632808446884,0.2213696837425232,0.49398061633110046,0.05741078779101372,-0.059374429285526276,-0.056342560797929764,0.11293616890907288,0.09308852255344391,0.22159971296787262,0.016676612198352814,0.003747976152226329,-0.1872156858444214,-0.09166537970304489,0.18336817622184753,-0.02332426980137825,-0.13362877070903778,0.14843718707561493,-0.1604250818490982,0.0634879320859909,-0.050067752599716187,0.07431574910879135,0.12521672248840332,0.08927884697914124,0.12473951280117035,0.08302079886198044,-0.08948696404695511,-0.016760332509875298,-0.08978608250617981,-0.06866245716810226,-0.040409740060567856,-0.026990966871380806,-0.011522742919623852,0.4608885645866394,-0.015509550459682941,0.24185141921043396,0.17681433260440826,0.3664737641811371,-0.05462823435664177,0.18004193902015686,-0.03859934210777283,-0.1485176384449005,0.19490103423595428,-0.07252513617277145,-0.44158732891082764,0.12967424094676971,-0.12835344672203064,-0.06121290102601051,0.07708556950092316,-0.04354563355445862,0.2062166929244995,0.19134792685508728,-0.007088374346494675,-0.0820510983467102,0.15698054432868958,-0.11074582487344742,-0.0632767304778099,0.15171200037002563,0.09175766259431839,0.2117602527141571,-0.09202259033918381,0.01806512288749218,0.19668136537075043,-0.1547071486711502,-0.240215465426445,0.06730357557535172,0.11218155175447464,0.03185083344578743,-0.20386682450771332,-0.029817840084433556,0.17967160046100616,0.20433582365512848,-0.23203779757022858,-0.06462997198104858,-0.04893379285931587,0.13151146471500397,-0.06548707187175751,-0.013020222075283527,-0.07598721981048584,-0.2094886153936386,0.10741312056779861,0.2953645884990692,-0.18619132041931152,0.09825261682271957,-0.007577251642942429,-0.19126804172992706,-0.07471740245819092,0.15010784566402435,0.1302345246076584,-0.2409532219171524,-0.01973898336291313,0.0703221783041954,-0.09167956560850143,-0.020001482218503952,-0.009930171072483063,0.14711950719356537,0.026176949962973595,-0.21461811661720276,0.0051175919361412525,-0.04906890168786049,-0.1665905863046646,-0.3242796063423157,-0.07112657278776169,0.33591774106025696,-0.12031856924295425,0.023207077756524086,-0.051170289516448975,-0.11151447892189026,0.05615272372961044,-0.07283288240432739,0.037541162222623825,-0.24054953455924988,-0.12375495582818985,-0.0028035573195666075,-0.023544268682599068,0.07706120610237122,-0.04260633513331413,-0.042175911366939545,-0.013072569854557514,-0.135176420211792,-0.001952184597030282,-0.0902782753109932,-0.24760845303535461,0.10993900150060654,-0.06170886754989624,-0.1695972979068756,0.20615558326244354,0.11913842707872391,-0.08311308920383453,-0.004717856179922819,-0.023265745490789413,0.05750829353928566,-0.0967957079410553,0.08343711495399475,-0.036484528332948685,-0.10089925676584244,-0.16948337852954865,-0.0009701490052975714,-0.08164805173873901,-0.11309653520584106,-0.026539338752627373,0.29488858580589294,0.2854936420917511,-0.10283422470092773,0.09185927361249924,0.1220027506351471,0.22337746620178223,0.647645890712738,-0.20661987364292145,-0.13812944293022156,-0.20446601510047913,0.019675159826874733,-0.03878031298518181,0.592879056930542,0.1363488882780075,0.10876058787107468,-0.07607746869325638,-0.06305195391178131,-0.01041561271995306,0.10297749191522598,-0.22292420268058777,0.06723149120807648,-0.21474164724349976,-0.09580949693918228,-0.25028175115585327,0.027758970856666565,0.14022329449653625,0.19257082045078278,0.24146661162376404,-0.1224447563290596,-0.09015588462352753,0.8582101464271545,0.04728813096880913,0.1145375669002533,-0.13787566125392914,-0.27125707268714905,0.08817296475172043,0.39811477065086365,-0.028273407369852066,0.06014956906437874,0.2974099814891815,-0.35165584087371826,0.18093140423297882,0.4138728976249695,0.12318632751703262,-0.2593107223510742,0.20870532095432281,0.09947340935468674,-0.13614565134048462,0.470258504152298,0.20489683747291565,0.10463408380746841,0.4386506974697113,-0.32409781217575073,0.08143017441034317,0.08343733102083206,-0.09599249809980392,0.10840194672346115,0.0012952180113643408,0.11296746879816055,-0.06815321743488312,-0.02614712342619896,0.04179028794169426,0.08724562078714371,0.03833271935582161,-0.14086918532848358,0.03511616215109825,0.19616077840328217,0.02245021052658558,0.030651992186903954,-0.12996171414852142,-0.0399441197514534,-0.10788904875516891,-0.07249470800161362,0.05514721944928169,0.2709074318408966,0.012293119914829731,-0.24469923973083496,0.0024822175037115812,0.07206854969263077,-0.12225404381752014,0.11260085552930832,-0.02512475475668907,-0.014663275331258774,0.030798371881246567,0.17781560122966766,-0.2682567238807678,0.0026240849401801825,-0.013949441723525524,0.21310332417488098,0.13156838715076447,0.07014987617731094,-0.025553176179528236,-0.03734082356095314,-0.03715852275490761,-0.12254942953586578,-0.16613630950450897,-0.2214585244655609,-0.3924136459827423,0.16752970218658447,0.010720975697040558,-0.19581365585327148,-0.3217161297798157,0.2913782000541687,0.0746377632021904,-0.10035879164934158,-0.625593900680542,-0.1271572858095169,0.08055082708597183,-0.5416905283927917,0.09308105707168579,-0.25311943888664246,-0.8099101781845093,0.041463520377874374,-0.40955033898353577,0.05342692509293556,0.16623423993587494,-0.1426374316215515,0.40316569805145264,-0.02006341889500618,0.174825057387352,-0.29482603073120117,-0.1548338234424591,0.21047644317150116,0.25697818398475647,-0.052770134061574936,0.2530299723148346,0.4540209174156189,-0.008187086321413517,-0.124768927693367,0.4395981431007385,0.07870835810899734,-0.3138904273509979,-0.1725432574748993,0.16102392971515656,-0.027023131027817726,1.4918828010559082,-0.30430129170417786,0.2281043976545334,-1.0258136987686157,-0.046671099960803986,0.16215400397777557,0.03584495931863785,-0.08711671084165573,0.3555273413658142,0.3911660313606262,-0.006798441521823406,-0.14833123981952667,-0.3763004243373871,0.10191083699464798,-0.21576346457004547,-0.021266914904117584,0.09046696126461029,0.17291200160980225,-0.06269968301057816,0.006539043039083481,0.09342233091592789,0.030733317136764526,0.022413330152630806,0.18599309027194977,0.029859906062483788,-0.045918021351099014,0.05880296602845192,0.0782245621085167,0.13338996469974518,0.00337165966629982,-0.02593177929520607,-0.030921557918190956,-0.1317644715309143,0.04039279371500015,0.044391781091690063,-0.03291374444961548,-0.15171228349208832,0.008242025971412659,0.07864958047866821,-0.06791817396879196,-0.030414720997214317,0.12194456905126572,-0.10389629751443863,0.0816621333360672,0.030916059389710426,-0.04258923977613449,-0.012272371910512447,-0.12518811225891113,-0.031126827001571655,-0.06940970569849014,-0.02653726562857628,0.13626423478126526,-0.03593020886182785,-0.17722636461257935,0.21086274087429047,-0.09477096796035767,0.23310205340385437,0.08648836612701416,-0.12890279293060303,-0.03333531692624092,-0.0810358077287674,0.1403522491455078,-0.05347944796085358,-0.3246311545372009,0.057222697883844376,-0.053227923810482025,-0.1087075024843216,-0.03240492194890976,0.051814522594213486,-0.1570398360490799,0.16100728511810303,0.008516538888216019,0.40795594453811646,-0.024676047265529633,-0.1564050316810608,-0.07593800872564316,-0.05328208953142166,0.08371757715940475,0.08220292627811432,0.10987900197505951,0.19134996831417084,0.17889156937599182,-0.2274615466594696,-0.28945326805114746,-0.1347757875919342,0.15531179308891296,0.06996256113052368,-0.0697585716843605,0.07102052867412567,0.009059232659637928,0.06570151448249817,0.09520353376865387,0.05170759931206703,-0.2905575633049011,-0.13527072966098785,-0.05361475795507431,-0.09943897277116776,-0.4152190387248993,0.08798985183238983,0.02770880237221718,0.1993749588727951,0.04076244309544563,-0.08387566357851028,-0.1236313208937645,0.12627249956130981,0.012752534821629524,-0.10739074647426605,0.09681206196546555,0.15991713106632233,0.11939524859189987,-0.5644453763961792,-0.06173551082611084,0.0852956548333168,0.3905966877937317,-0.008758448995649815,-0.17323057353496552,0.1591673046350479,-0.16676491498947144,-0.37847334146499634,-0.023407533764839172,0.13521850109100342,-0.21080349385738373,-0.2530665695667267,-0.10298112034797668,0.19784817099571228,-0.15183153748512268,-0.0749666839838028,0.34505829215049744,0.1766747683286667,0.00494502205401659,-0.36376988887786865,-0.09883565455675125,-0.11565728485584259,0.2489975094795227,0.2283877581357956,-0.06466519832611084,0.14004278182983398,-0.15845048427581787,-0.0013936409959569573,0.44869187474250793,0.20649491250514984,-0.40459296107292175,-0.11668810993432999,-0.16200730204582214,-0.02701394259929657,1.0253467559814453,0.19447186589241028,0.16476871073246002,-0.6552249789237976,0.31013280153274536,0.012192202731966972,-0.11431494355201721,0.43623268604278564,-0.04642132297158241,0.17603439092636108,0.10579553246498108,-0.03878843039274216,0.2731567919254303,0.2474581003189087,0.4638156294822693,-0.16061685979366302,-0.3213832676410675,-0.2988053262233734,0.007845928892493248,0.03299538791179657,0.42712050676345825,-0.050914984196424484,-0.10392476618289948,0.04727649316191673,-0.16134628653526306,0.18893544375896454,0.22952993214130402,-0.14666962623596191,0.28554555773735046,-0.19816184043884277,-0.2138831466436386,-0.35082730650901794,0.20372287929058075,0.025559060275554657,0.028802046552300453,0.25967225432395935,-0.021436987444758415,-0.2506449222564697,0.7649622559547424,-0.035046808421611786,-0.04910029098391533,-0.045265067368745804,-0.08062990009784698,-0.2610832750797272,0.2844536304473877,-0.38564375042915344,0.12391217797994614,0.27139973640441895,0.31504836678504944,-0.04098585993051529,0.3598358929157257,-0.02998177707195282,-0.0877436101436615,0.1724509298801422,0.14617188274860382,-0.37900418043136597,0.23422804474830627,0.18764397501945496,0.10071780532598495,0.5251792669296265,0.09883633255958557,-0.060111965984106064,-0.07102485746145248,0.08419445902109146,-0.099661685526371,-0.002903475658968091,-0.09131531417369843,-0.020327221602201462,-0.08436619490385056,0.07336284965276718,0.13500240445137024,-0.07674340158700943,-0.29055139422416687,0.3209891617298126,-0.07355385273694992,-0.11022086441516876,0.04977412521839142,0.14680922031402588,-0.07256197184324265,-0.2988000810146332,0.035607628524303436,0.16294077038764954,0.09799106419086456,0.010799363255500793,-0.1328916996717453,0.0960208848118782,-0.017294935882091522,0.125957190990448,0.10902755707502365,0.011313666589558125,0.046806447207927704,0.16817346215248108,-0.2760796844959259,-0.20321589708328247,-0.07116365432739258,0.001790258102118969,-0.08723146468400955,0.07206960022449493,-0.10647092014551163,-0.04472871124744415,-0.16865962743759155,-0.0014500225661322474,0.19326698780059814,-0.009165237657725811,-0.10657669603824615,-0.056013476103544235,0.11963512003421783,0.13901953399181366,0.0021209651604294777,0.10670645534992218,0.08107466995716095,0.7190457582473755,-0.517331063747406,-0.15633456408977509,-0.0696069598197937,-0.32235994935035706,-0.06249536946415901,1.1630245447158813,-0.18501144647598267,-0.04389141499996185,0.6566024422645569,0.13858123123645782,-0.09257006645202637,0.28232163190841675,0.4057161211967468,0.0800127238035202,-0.3443402051925659,-0.10168354958295822,-0.20112624764442444,0.4538859724998474,-0.2430747151374817,0.21591989696025848,0.4489844739437103,-0.5256240367889404,-0.13305529952049255,1.342633843421936,-0.1617339849472046,0.0009384038276039064,-0.48110103607177734,-0.13617447018623352,-0.17880013585090637,0.6320357918739319,0.5151717066764832,0.18424606323242188,0.6878823637962341,-0.46939340233802795,-0.19661401212215424,1.3280831575393677,-0.24035538733005524,0.09005534648895264,0.37475717067718506,-1.079048752784729,0.0580628402531147,0.6369708776473999,-0.5333284735679626,-0.09932546317577362,0.87947678565979,-0.036103375256061554,0.08016344904899597,0.18916742503643036,-0.023494131863117218,0.2634085714817047,-0.008134808391332626,-0.0992293655872345,-0.07412684708833694,-0.12776759266853333,0.1229763776063919,0.026495864614844322,0.06093611195683479,0.09932301193475723,-0.004579151514917612,0.14049983024597168,-0.1439375877380371,-0.05290358141064644,-0.02017037943005562,-0.05975484102964401,0.1346689909696579,-0.04966898635029793,0.03592977300286293,-0.03048415668308735,-0.019718311727046967,0.04673410952091217,-0.04385630413889885,-0.036409202963113785,0.07349929213523865,0.02444648928940296,0.12546353042125702,0.040130238980054855,0.17470397055149078,-0.0736413225531578,0.0892324447631836,-0.1998247504234314,-0.14495402574539185,-0.15302148461341858,-0.10853558778762817,-0.024338699877262115,-0.1817268431186676,0.23511190712451935,0.0647958517074585,-0.05986554175615311,0.19350168108940125,-0.0871504619717598,-0.040767088532447815,-0.11114434152841568,0.04432525485754013,-0.021065473556518555,0.012237342074513435,0.061817850917577744,-0.045035384595394135,0.12737813591957092,0.06446205079555511,-0.05781392753124237,-0.050185851752758026,0.08957187831401825,0.05463710427284241,0.039868421852588654,0.10818754881620407,-0.07017369568347931,0.04310659319162369,0.03349403291940689,-0.0007109094294719398,0.7157766819000244,-0.040062565356492996,0.11188661307096481,-0.9927475452423096,-0.31793099641799927,0.26585906744003296,0.3493129014968872,-0.013007988221943378,0.09307734668254852,0.415795236825943,-0.6228885054588318,0.38263222575187683,0.13599596917629242,-0.32562074065208435,0.08511611819267273,-0.655663251876831,-0.11684463918209076,-0.2900966703891754,0.17279474437236786,-0.07989446818828583,0.14870880544185638,0.2990107834339142,-0.10016393661499023,0.0467088557779789,-0.15898455679416656,0.3799351751804352,-0.07968701422214508,-0.08316248655319214,0.05880891904234886,0.12662796676158905,0.2560839354991913,0.2447543889284134,-0.13498054444789886,-0.2241286039352417,0.5738672018051147,-0.43201586604118347,-0.3015856146812439,0.31081968545913696,0.2084902673959732,0.15454690158367157,-0.4174768328666687,-0.23648685216903687,0.1280190646648407,0.32971251010894775,-0.014381751418113708,-0.5274239778518677,-0.00933864340186119,0.1924983561038971,-0.14729942381381989,0.16713166236877441,-0.30579879879951477,-0.5150843858718872,-0.19080957770347595,-0.2695796489715576,-0.19288381934165955,0.4535844326019287,0.33217549324035645,-0.259842187166214,0.03851679712533951,-0.03205018863081932,-0.29497987031936646,-0.10450682789087296,0.022286327555775642,0.22118505835533142,-0.09043940156698227,-0.021635208278894424,-0.33802348375320435,0.02785060554742813,0.3950815498828888,0.13378125429153442,0.33702006936073303,0.13749125599861145,-0.049418456852436066,-0.12284494936466217,0.0028817018028348684,-0.3787711560726166,0.29165005683898926,0.21574030816555023,-0.23403707146644592,-0.33034271001815796,0.1727927178144455,-0.0710475742816925,-0.17846716940402985,-0.1253700703382492,-0.29063984751701355,0.18523505330085754,0.04089256748557091,-0.32756176590919495,0.09381485730409622,-0.7405579090118408,0.34225282073020935,0.24555610120296478,-0.08521217107772827,-0.47298505902290344,-0.17275099456310272,-0.9430196285247803,-0.22599977254867554,0.5314099192619324,0.4509131908416748,0.1277218908071518,-0.24408572912216187,0.5083239078521729,0.32179245352745056,-0.32749906182289124,0.1414417326450348,-0.407834529876709,-0.46623513102531433,0.34327906370162964,0.322953462600708,0.2678241431713104,-0.1564171314239502,0.04149128496646881,-0.004677710589021444,-0.1771090030670166,-0.4597247838973999,0.12514011561870575,-0.004721464589238167,-0.5098741054534912,0.3653765916824341,0.2787397801876068,-0.15148583054542542,0.8710168600082397,0.18588612973690033,-0.09081567078828812,0.3617265522480011,0.2958184778690338,0.041758809238672256,0.3758987784385681,0.0022865403443574905,0.17632541060447693,-0.3064839839935303,0.02656741999089718,-0.1703839898109436,-0.6289250254631042,0.014279312454164028,0.38354530930519104,-0.12308259308338165,0.6125937104225159,0.3827565908432007,0.23811446130275726,0.18315304815769196,0.031185969710350037,-0.24632124602794647,-0.44776901602745056,-0.23396636545658112,0.09058437496423721,-0.02850491739809513,0.2209065556526184,0.4303625226020813,0.18520475924015045,-0.11572311073541641,-0.37335625290870667,0.0032851500436663628,-0.5650715231895447,-0.2748813331127167,-0.20979486405849457,0.28397056460380554,-0.22965480387210846,0.2974646985530853,-0.4355848431587219,0.07812844961881638,0.45824936032295227,-0.27518430352211,-0.1968533843755722,-0.23472397029399872,0.11647024005651474,-0.011708930134773254,-0.06519193202257156,-0.050220612436532974,-0.4473581612110138,0.0555463507771492,-0.24409933388233185,0.1817360371351242,-1.0420527458190918,0.22881588339805603,-0.7929741740226746,-0.01192647684365511,-0.03266245499253273,-0.5398483276367188,-0.28806042671203613,-0.1975107192993164,-0.23062311112880707,-0.03334679827094078,-0.1316339671611786,0.2857073247432709,0.04083060100674629,-0.11373063176870346,0.0969262421131134,-0.1308479756116867,-0.0404072180390358,-0.044331736862659454,-0.5446692109107971,-0.004792730323970318,-0.15166889131069183,-0.3400559425354004,0.0672115609049797,-0.268002986907959,-0.16509392857551575,-0.16422627866268158,0.07922591269016266,-0.32120180130004883,0.5081138014793396,0.3937954902648926,0.3567645251750946,-0.1384216845035553,0.6117327213287354,-0.10486717522144318,-0.087649405002594,0.0468011200428009,-0.13889962434768677,0.6990542411804199,0.22464969754219055,-0.17468774318695068,0.13466687500476837,-0.1610724925994873,-0.23721171915531158,-0.08602564036846161,-0.5196793079376221,0.05775664746761322,-0.20728066563606262,-0.5616224408149719,-0.04760705307126045,0.06771857291460037,-0.37490010261535645,-0.0943426787853241,0.02949632704257965,-0.09056351333856583,0.5465881824493408,0.17333140969276428,0.08323334157466888,-0.18775704503059387,0.15851053595542908,0.09123905003070831,0.49412524700164795,-0.02656414918601513,0.003102761460468173,-0.0229403767734766,-0.21490158140659332,-0.16380994021892548,0.22956086695194244,0.35951948165893555,-0.00041247441549785435,0.2910532057285309,0.5912008881568909,0.17291730642318726,-0.18324238061904907,0.04707872495055199,0.550096333026886,-0.08309189975261688,0.2891791760921478,-0.3944561779499054,0.1579602211713791,0.26691222190856934,0.15940995514392853,-0.13588887453079224,0.7906654477119446,-0.03241721913218498,0.2896119952201843,-0.6269364953041077,-0.1585061401128769,-0.39306771755218506,-0.39155206084251404,0.07375531643629074,0.09753744304180145,0.07227987051010132,0.2327139675617218,-0.22475534677505493,0.1789778769016266,-0.17449171841144562,-0.08773218840360641,0.36362722516059875,-0.35152241587638855,-0.10455745458602905,-0.013612567447125912,0.04620017483830452,0.050024472177028656,0.08131089806556702,0.014447364956140518,0.07140368968248367,0.054440077394247055,0.0002490081824362278,0.1074216291308403,0.012244719080626965,-0.038989320397377014,0.01524670235812664,-0.07202420383691788,0.005446042865514755,0.09111258387565613,-0.210911825299263,-0.17697225511074066,0.2793180048465729,-0.08756796270608902,-0.2916707396507263,-0.14413362741470337,0.2567285895347595,0.13033224642276764,-0.4485323131084442,-0.22589968144893646,-0.21952210366725922,0.5632360577583313,0.16587461531162262,0.3355775475502014,-0.5399621725082397,0.20285138487815857,0.3653874099254608,-0.19998882710933685,-0.06513240188360214,-0.2862345278263092,0.37564778327941895,-0.12288662046194077,0.606023371219635,0.07336727529764175,-0.2654237151145935,-0.35617727041244507,0.2714903950691223,0.06534958630800247,-0.05017528310418129,-0.026678871363401413,-0.2380935549736023,0.32493603229522705,-0.3543659448623657,-0.14796677231788635,0.1136619970202446,-0.7316641211509705,0.19826339185237885,0.27489417791366577,0.16242727637290955,0.011267774738371372,-0.19636277854442596,0.11113300919532776,0.3480300307273865,0.03896109759807587,0.2623932957649231,-0.23510503768920898,0.025400960817933083,0.12119847536087036,-0.0647113174200058,-0.1258004605770111,-0.2085585594177246,0.022294798865914345,0.2034887820482254,0.03170519322156906,-0.09479181468486786,0.18314719200134277,0.12489062547683716,-0.08556339144706726,0.07856014370918274,-0.2125130593776703,0.15916143357753754,-0.054449524730443954,-0.13801656663417816,0.020883264020085335,-0.229325070977211,0.021754296496510506,-0.2590065598487854,0.04314717650413513,0.2190820276737213,-0.017570605501532555,-0.17932932078838348,0.02962334267795086,-0.23954807221889496,-0.06814403086900711,0.2054980993270874,-0.10852514952421188,-0.1320764720439911,-0.1919459104537964,-0.24637648463249207,0.09085331112146378,0.04494071006774902,-0.24688716232776642,0.23092317581176758,-0.06898555159568787,-0.18823474645614624,-0.27409523725509644,0.06577862054109573,-0.12714502215385437,-0.08505178987979889,0.29701000452041626,-0.11189596354961395,0.17964041233062744,0.19117608666419983,-0.08284115791320801,-0.0724245011806488,-0.21812351047992706,-0.3430955708026886,-0.1955922394990921,0.32874253392219543,0.30334827303886414,-0.23764505982398987,0.05767131224274635,0.014125077053904533,-0.12171202152967453,0.02822568081319332,-0.05634481459856033,-0.3003681004047394,-0.0958896055817604,-0.18184198439121246,0.05199984833598137,0.004647604189813137,-0.3557814359664917,0.49754583835601807,0.05889558047056198,0.26451390981674194,-0.272522509098053,-0.04661109298467636,0.051654115319252014,0.36852720379829407,0.07997018098831177,0.00814609881490469,-0.25165891647338867,-0.18872621655464172,-0.11187270283699036,-0.14124418795108795,-0.2798383831977844,0.24662093818187714,0.06748016923666,0.2506348788738251,0.1310575008392334,0.6556503176689148,0.04219217225909233,-0.19500832259655,-0.4824284613132477,0.1464427262544632,0.38484737277030945,0.045858919620513916,0.19666650891304016,0.13322612643241882,0.110109344124794,0.1658332347869873,0.10290240496397018,-0.40623000264167786,0.006692968308925629,-0.20302413403987885,-0.044367194175720215,0.020963765680789948,0.07789888978004456,0.0872170552611351,-0.07619725912809372,0.08519294857978821,0.5323960185050964,0.008575107902288437,0.16616356372833252,-0.802811324596405,0.10409832000732422,-0.16236361861228943,0.484119713306427,0.2349988967180252,-0.3448515236377716,0.4425826072692871,0.12571653723716736,0.3886284828186035,-0.3590141534805298,0.092476986348629,0.02318454533815384,0.14913296699523926,-0.5095774531364441,-0.08911869674921036,-0.3231469392776489,-0.07457616180181503,-0.21711421012878418,0.06635403633117676,0.17018547654151917,-0.061239778995513916,0.2586841583251953,0.07486709952354431,0.13772737979888916,1.789000153541565,0.14960722625255585,-0.3318250775337219,-0.1757643222808838,0.06655487418174744,0.0424594022333622,-0.01504250057041645,-0.16587907075881958,-0.1116732805967331,-0.2833850383758545,0.32446685433387756,0.3601458668708801,0.13494287431240082,-0.0010990037117153406,-0.2581841051578522,-0.1640617996454239,-0.10195061564445496,-0.1997273713350296,0.005882659927010536,0.062000930309295654,0.45720720291137695,-0.04701535031199455,0.11740392446517944,-0.14430373907089233,0.0056206947192549706,0.039466846734285355,0.05163981392979622,0.017569569870829582,0.06562793999910355,-0.11818975955247879,0.2975148856639862,-0.10924363136291504,0.18994459509849548,-0.10617067664861679,0.024147363379597664,-0.057709984481334686,0.24414865672588348,0.1937216967344284,-0.14176173508167267,-0.013060852885246277,0.045516446232795715,-0.1388596147298813,0.31784626841545105,0.07291369140148163,0.0025413797702640295,0.3876832127571106,-0.14821535348892212,0.132873997092247,-0.26694297790527344,0.010931041091680527,-0.27289852499961853,0.18683671951293945,-0.10988064110279083,0.06811054050922394,-0.03192942962050438,0.11534026265144348,0.3119219243526459,-0.15059785544872284,-0.07899460196495056,-0.21149131655693054,0.13614396750926971,0.03120366670191288,0.048040058463811874,-0.09665278345346451,0.07075648009777069,-0.39594072103500366,0.22668913006782532,0.15144237875938416,-0.18380089104175568,0.4015448987483978,0.06455238163471222,0.030881263315677643,-0.0031723235733807087,-0.5771515965461731,-0.16875962913036346,-0.2747882902622223,0.460038959980011,-0.12978927791118622,-0.23846648633480072,0.2612614035606384,0.12756843864917755,0.10396617650985718,-0.3433953523635864,0.2653592526912689,-0.1051311045885086,-0.2065364122390747,-0.07969223707914352,-0.051875561475753784,-0.23917777836322784,-0.23434633016586304,-0.07192272692918777,0.06991764903068542,0.08486554026603699,-0.30753880739212036,0.34539860486984253,0.14873310923576355,-0.09605684131383896,0.6150158047676086,-0.04996697977185249,-0.12260526418685913,0.09164285659790039,-0.26488062739372253,0.2210594117641449,-0.08095932006835938,-0.004850245546549559,0.44585543870925903,-0.02597993239760399,0.308245450258255,0.11835970729589462,0.1827569603919983,0.015637366101145744,0.03670825436711311,-0.06284092366695404,-0.22790107131004333,-0.0695086419582367,0.1642322689294815,0.09841784089803696,0.0016793622635304928,-0.2098749876022339,0.10920718312263489,0.13708502054214478,-0.10232958942651749,0.06861577928066254,0.18589647114276886,-0.352520614862442,0.06434831023216248,0.07318208366632462,-0.003571142442524433,-0.1610681563615799,0.07095486670732498,0.1380983591079712,0.3869185745716095,-0.05719675496220589,-0.1928265541791916,-0.25970202684402466,-0.0959135964512825,0.10886308550834656,-0.295974999666214,-0.007361701689660549,0.15010479092597961,0.10639975965023041,0.516815185546875,-0.08243495225906372,0.14798735082149506,0.009539354592561722,0.07057921588420868,-0.25757789611816406,0.09808363765478134,0.022617125883698463,-0.15594834089279175,0.05846201255917549,0.12227552384138107,0.10651861131191254,0.11473537236452103,0.12048810720443726,-0.05736410245299339,-0.01975261978805065,-0.04319290071725845,0.01158101111650467,-0.5691609382629395,0.1422024816274643,0.14593899250030518,-0.000256218365393579,0.07853573560714722,0.10093652456998825,-0.18385381996631622,-0.14367510378360748,0.10681004077196121,-0.2290273904800415,0.09108519554138184,0.0896647498011589,-0.17064091563224792,-0.19671623408794403,-0.10274070501327515,-0.03533702716231346,-0.03647574037313461,0.08578640967607498,-0.04908575490117073,-0.013002014718949795,0.48077163100242615,-0.12861521542072296,0.023433387279510498,-0.10200383514165878,-0.6504360437393188,-0.022090395912528038,0.08158662915229797,-0.016496960073709488,-0.07465443015098572,0.5071504712104797,-0.3332422375679016,0.11276744306087494,-0.07569610327482224,-0.25761547684669495,0.00413055345416069,0.10579092055559158,-0.10029389709234238,-0.053721293807029724,0.16090930998325348,0.05640649050474167,-0.15350283682346344,0.22198669612407684,-0.014175514690577984,0.031102759763598442,0.1984325349330902,-0.37570738792419434,0.1642678678035736,0.00645441422238946,-0.4635527431964874,-0.3312561810016632,0.31740105152130127,0.05013107880949974,-0.55195152759552,0.09632644802331924,-0.11675085127353668,0.2650737166404724,0.02662050537765026,-0.012453091330826283,0.12781137228012085,0.047298163175582886,-0.17124927043914795,0.415470153093338,-0.1352705955505371,-0.16754238307476044,0.6690754890441895,0.1679229438304901,-0.08450035750865936,-0.22006189823150635,0.6406208276748657,-0.12870144844055176,-0.0145281832665205,0.18409928679466248,-0.5451986789703369,0.07961539179086685,0.008787369355559349,-0.3084113895893097,0.5249831080436707,0.3410787284374237,-0.20864388346672058,0.5173742771148682,-0.20758205652236938,-0.22711223363876343,-0.39589062333106995,0.2594022750854492,0.13673339784145355,-0.19557495415210724,0.045801084488630295,0.02218514122068882,-0.14372409880161285,0.13289321959018707,0.22934113442897797,0.15757006406784058,0.2085675150156021,-0.32558417320251465,0.605492115020752,-0.046594031155109406,0.12010587006807327,0.27215299010276794,0.1258779615163803,-0.207599937915802,0.3834720849990845,-0.10165214538574219,-0.30360668897628784,-0.6448512077331543,0.04841931536793709,0.1146073043346405,-0.03845438361167908,0.06677794456481934,0.21825887262821198,-0.7181949615478516,0.21352361142635345,0.12464508414268494,-0.1434488147497177,-0.1826651245355606,-0.14652881026268005,0.23511335253715515,-0.35392576456069946,0.11011572927236557,0.1295560896396637,-0.08631108701229095,0.18468855321407318,0.25605520606040955,-0.08911266177892685,0.13019545376300812,-0.5031455755233765,-0.4712589383125305,0.2711893320083618,-0.6517202854156494,-0.08873438090085983,0.1104993224143982,0.09798672795295715,0.1399659812450409,0.005380827467888594,-0.1551644206047058,-0.07402262836694717,-0.19774207472801208,0.29106786847114563,-0.21020883321762085,-0.32187363505363464,0.4922682046890259,-0.32968398928642273,0.11341654509305954,-0.1854560822248459,-0.30323389172554016,-0.10137384384870529,-0.0012760123936459422,-0.3536651134490967,-0.3710576891899109,-0.13452592492103577,0.251474529504776,0.8464730978012085,-0.07433683425188065,0.20104768872261047,-0.27307674288749695,-0.2315104901790619,-0.0654149055480957,0.6742005348205566,0.14239834249019623,-0.6968985795974731,0.35147640109062195,-0.01792696863412857,0.3437037765979767,-0.5188963413238525,-0.06567662209272385,0.3828582167625427,-0.19256632030010223,-0.04139406979084015,0.08189386874437332,-0.11311418563127518,0.010990617796778679,-0.39353156089782715,0.5428133010864258,0.07393883168697357,-0.044072311371564865,0.5375849604606628,-0.015005371533334255,0.4576621949672699,-0.6393412947654724,-0.2347385287284851,-0.24929946660995483,0.24546892940998077,0.0357251912355423,0.09311080724000931,-0.40335050225257874,0.2551460266113281,0.30434125661849976,-0.5578575134277344,0.17486009001731873,-0.11768455058336258,0.11527620255947113,0.13222552835941315,0.025690151378512383,-0.13851889967918396,0.18040913343429565,-0.12210767716169357,-0.06510929763317108,-0.3806307017803192,-0.01848955824971199,0.11218320578336716,0.03988838195800781,-0.11444544792175293,-0.26278242468833923,0.05301224812865257,-0.1077393963932991,-0.13421155512332916,-0.057352032512426376,0.3070841431617737,0.10075391083955765,0.08369310945272446,-0.020986363291740417,0.2682027816772461,0.014347259886562824,0.009255724027752876,0.17895403504371643,-0.09727265685796738,